{
  "schemaType": "flow",
  "schemaVersion": "0.0.1",
  "id": "1234",
  "flows": {
    "flow": {
      "flowType": "flow",
      "nodes": [
        {
          "id": "1fb71439-a841-486a-82c1-7cb9460e0b74",
          "x": 482.9331401187665,
          "y": 221.15259301854223,
          "width": 215.78903198242188,
          "height": 171,
          "nodeType": "Shape",
          "nodeInfo": {
            "type": "neural-node-input-layer",
            "formValues": {
              "weights": [
                [
                  0.6801925915321418,
                  0.6801788840754797,
                  0.7790717815224886,
                  0.502945412678347,
                  0.7683245553652176,
                  -0.9227945396224713,
                  0.9644363082896938,
                  0.29764803176780186,
                  -0.49119207608143034,
                  0.8350594172753034,
                  -0.13034325412046943,
                  -0.7548366535263202,
                  -0.1972350860584906,
                  0.65094510740375,
                  -0.16846993566693103,
                  -0.7172780958430947,
                  0.9853855823114763,
                  0.56480385582184,
                  -0.27975072492210185,
                  -0.2813744996601706,
                  -0.8849110515367804,
                  -0.6046568380173785,
                  -0.12242786915907766,
                  -0.9448959177704293,
                  0.9327977897928394,
                  -0.42113453667674694,
                  0.738647554018685,
                  0.7483361469256145,
                  0.8393289839527123,
                  0.9601525797043946,
                  0.44951907545592285,
                  0.13383122003439407,
                  -0.17468184134980902,
                  -0.06851395313859587,
                  -0.7776395355695986,
                  0.577907726427826,
                  0.9264448546661271,
                  0.7248027968762473,
                  0.948115386259839,
                  -0.04536392074096817,
                  -0.2706477381155897,
                  -0.2984237050782174,
                  0.5411144251456826,
                  0.7685328427865751,
                  0.4517415727604685,
                  -0.04263677523269341,
                  -0.3127091275650517,
                  0.15377479535193964,
                  -0.5124675431966557,
                  0.9859720890002964,
                  0.8818672246599123,
                  0.5878490865708077,
                  0.31779970550756875,
                  -0.8555175197096836,
                  0.6506238966984266,
                  -0.5837781536415116,
                  0.3098705426409749,
                  0.49816255008256016,
                  0.6193711377477116,
                  -0.34284516740499127,
                  -0.16197652793469283,
                  0.9945549943926769,
                  0.7575963550459069,
                  -0.26807269514851517,
                  -0.6487485159134935,
                  0.9704552993554649,
                  0.6566238035422196,
                  0.4724003036750802,
                  -0.4736215071518975,
                  0.8069558657556432,
                  0.22182546022040342,
                  0.9770250498557076,
                  -0.5766977768517297,
                  -0.26558261747406403,
                  0.5806340736062574,
                  0.4829192604874936,
                  0.5865659851258752,
                  -0.18293835550676632,
                  -0.15208139762280543,
                  0.8434507904689275,
                  0.00011959474719413331,
                  0.2828661946520237,
                  0.07560388521655126,
                  0.9419602947733594,
                  0.06721162204166298,
                  0.07672404670454869,
                  0.9738965014724879,
                  -0.5934976921897426,
                  -0.714474370044768,
                  -0.6761744385720239,
                  -0.450109864886259,
                  0.7577976272887899,
                  0.1953966273489138,
                  0.9517470264920648,
                  -0.3028450333552557,
                  0.41615008142534754,
                  0.03378534417642271,
                  0.9465538924858841,
                  -0.017815243493889465,
                  0.8828246394310502,
                  0.41465638507513913,
                  0.5136027609527732,
                  0.7924971035741621,
                  0.8769133239694493,
                  -0.5022443063323039,
                  0.3830082433664403,
                  0.36482245235909827,
                  0.6066723251803336,
                  -0.5574711753808316,
                  0.18240627864175485,
                  0.43301465415219687,
                  -0.9124219017039286,
                  -0.8824809311689825,
                  -0.9615468971202694,
                  -0.16950526678024413,
                  -0.13645506737481788,
                  -0.9149161436289193,
                  -0.26596190696104066,
                  0.7782732168959029,
                  0.462931453513969,
                  0.34071041533740154,
                  0.757808473507341,
                  0.24810538740682517,
                  -0.4349467864564583,
                  0.8330008350524328,
                  -0.706638144099915,
                  0.3477769094365563,
                  -1.0046172625490095,
                  -0.9737497313320254,
                  -0.06157009581989185,
                  0.26909242208061634,
                  0.5193199110550032,
                  -0.9987350681877029,
                  0.4547504889602767,
                  -0.8373602105231392,
                  -0.15540334637899114,
                  0.5121990044901072,
                  0.40334262771292445,
                  0.38983625526716903,
                  -0.9604549339978985,
                  -0.024839453182232685,
                  0.43778294495369474,
                  0.9843841049038912,
                  -0.7194442226600358,
                  -0.5781337874108643,
                  -0.6355536431587715,
                  -0.46861265935221924,
                  0.21534013980011918,
                  0.38505551787139985,
                  -0.7117952437879547,
                  0.2719326407919933,
                  0.3706230374987379,
                  0.2320433706486322,
                  -0.08097191951261345,
                  -0.7929225062338772,
                  -0.7434026155526656,
                  -0.9256475586148686,
                  -0.9811581447046709,
                  -0.8572529830672485,
                  0.6724313835240057,
                  -0.9363294732962902,
                  0.8508884901729434,
                  -0.6129688503389226,
                  -0.262722513772266,
                  0.8341651000388757,
                  -0.7014725857236084,
                  0.2670207486682983,
                  -0.9279485454179763,
                  0.22432237095171326,
                  -0.8275657858548504,
                  -0.921746618874445,
                  0.9124369313474511,
                  0.7927279557189048,
                  0.4412923326826439,
                  0.012955819605046128,
                  -0.20500493653644025,
                  -0.41724619593626855,
                  -0.5595998813325773,
                  0.8600328580867254,
                  -0.5267954560027424,
                  -0.7086241974531288,
                  -0.41708847673955124,
                  0.057916691142045944,
                  -0.9486102802750818,
                  -0.06839275974876373,
                  0.3459143685732056,
                  0.4768858121344929,
                  0.1576525948575047,
                  -0.860991291395704,
                  0.09351951762743195,
                  0.7741605370516024,
                  0.8274649287269984,
                  0.13715797597728144,
                  0.12149562985945628,
                  -0.04258524012428306,
                  -0.6048896041516338,
                  0.9040894734945437,
                  0.7424218448429023,
                  0.05393454757329236,
                  0.7715402973985237,
                  -0.9148898183717438,
                  -0.2841936363966229,
                  0.5195952292606365,
                  0.8331336256133959,
                  0.6979721256165929,
                  0.6477627844476348,
                  0.06217260897816853,
                  0.8864874727651385,
                  -0.25855442581584426,
                  -0.75285473860876,
                  0.495681763762592,
                  -0.22272147283517232,
                  -0.30181905222606936,
                  -0.0176543983497843,
                  0.32422217874426285,
                  -0.983943400690845,
                  -0.6051652966078753,
                  0.13757793125530832,
                  -0.2368792357549783,
                  0.7590833182883112,
                  -0.8577137473210015,
                  -0.41857604605302384,
                  0.33991568325247407,
                  0.38380745545127226,
                  0.9571852666580638,
                  -0.2097966480618928,
                  -0.31333317390151655,
                  0.3857189302257711,
                  -0.9024933123760555,
                  -0.5869773746799289,
                  0.44792699918621715,
                  0.7074836260342491,
                  -0.4522030068257093,
                  0.6353408302753432,
                  0.6447167339987544,
                  0.6083273716303089,
                  -0.2012467797479758,
                  -0.9038076440119756,
                  -0.13122600690235897,
                  -0.6394939768475325,
                  -0.14402547400430282,
                  0.7415925846659888,
                  -0.7712809865447261,
                  -0.9547816720216312,
                  -0.41515669830852264,
                  -0.7490592669671017,
                  0.29811755191096123,
                  0.30374086419576957,
                  0.31566423850839537,
                  -0.5677002119172111,
                  0.9143906713823214,
                  0.7408404609996376,
                  0.36980177971546785,
                  0.9715577930795867,
                  -0.24706752742029756,
                  0.8349526571975582,
                  -0.6253775978788494,
                  -0.47473742665933083,
                  0.3503710758117405,
                  -0.3553792609567935,
                  -0.2980855383829211,
                  0.3222524613271497,
                  0.8240737826899894,
                  -0.8763694811461998,
                  0.1572289650527706,
                  -0.0023492323936183134,
                  -0.20102711825937122,
                  -0.44332146279299134,
                  -0.12091692256409932,
                  -0.33198623295224433,
                  0.44253199889199396,
                  -0.8672732021949902,
                  -0.7578329135756904,
                  -0.8331466911147422,
                  -0.6512292609291874,
                  0.07684308109517245,
                  0.012690800098988646,
                  -0.39224902782178406,
                  -0.6787233292146041,
                  0.27600130030248304,
                  -0.11869049569636081,
                  0.1684190624226191,
                  -0.1473855157495744,
                  0.34050559711100564,
                  0.28283777433124946,
                  -0.39533765536592197,
                  0.5322704521945805,
                  0.761407992882348,
                  0.5863786230973893,
                  0.9007335037679017,
                  0.8298136913829663,
                  0.9376618791021734,
                  0.030965553908621685,
                  -0.4889976460869103,
                  0.25241434278834357,
                  0.003506627197551656,
                  0.7759178128234823,
                  0.8785801234306069,
                  -0.7924258898732184,
                  -0.5959001838616369,
                  0.0016242969547883423,
                  -0.30834409147198705,
                  -0.32379677839371185,
                  0.15351402626191493,
                  0.6799412766264943,
                  0.7355310699690051,
                  -0.9527302461737425,
                  0.5414720108685577,
                  -0.06253011082641757,
                  0.3418925136866884,
                  0.8285173734882224,
                  -0.09962587448809838,
                  -0.3944178814763186,
                  0.5309822663960656,
                  -0.8022867147126669,
                  -0.4335372519408518,
                  0.0849407116510432,
                  -0.2138746099206594,
                  -0.7147390308562588,
                  -0.354550376579919,
                  -0.34814317812520645,
                  0.8378217767281914,
                  0.22316115884434962,
                  0.7322004092362852,
                  0.8201683979701574,
                  -0.7356147615146185,
                  0.2672247934467111,
                  0.3963754510589756,
                  -0.6162807463892146,
                  -0.8018372802327164,
                  0.6479609359623387,
                  -0.8702011951146966,
                  0.1525678759924635,
                  -0.30770442877634147,
                  0.9588917084332417,
                  0.8126966450844715,
                  -0.7946827332367308,
                  0.5146071996894649,
                  -0.5261181228619332,
                  0.46190738639332807,
                  0.6930809489132398,
                  -0.5724847570322662,
                  -0.004733472077061238,
                  -0.6646624489570379,
                  0.06505192005910011,
                  -1.0287335633380252,
                  -0.453344311677124,
                  0.08914329322733694,
                  0.4238449389407938,
                  -0.2482384909719084,
                  0.005977272619937988,
                  0.4317649459114973,
                  0.8531065068461685,
                  -0.8691786961826523,
                  -0.531359499577926,
                  -0.6928459606051565,
                  -0.2850978504266914,
                  0.7770723589711939,
                  -0.3142676854252803,
                  0.613967769569658,
                  0.7987256724284174,
                  -0.43830868310985355,
                  -0.8337647233578344,
                  -0.8264868269612464,
                  0.5075106057792573,
                  -0.37971073986874515,
                  0.18277254958177672,
                  -0.9866892368801679,
                  -0.478132500536694,
                  0.9003163924614185,
                  0.48532555648780423,
                  0.09656873399586847,
                  -0.43802733458209586,
                  0.18833861917544195,
                  0.18229385739819579,
                  0.1103325535392345,
                  -0.5406675799051769,
                  0.05197721863630405,
                  0.20497608946378354,
                  -0.36333606240889427,
                  0.918726405364548,
                  0.5949183621728985,
                  0.2992338851976854,
                  0.2853357695751624,
                  -0.04142023892867444,
                  -0.6518300940226073,
                  -0.75809933786315,
                  0.652905769680794,
                  -0.2675018105046962,
                  -0.6870127393673352,
                  0.8701461703028598,
                  0.24756249103798833,
                  0.9519666517673051,
                  -0.3488262945796974,
                  -0.01067215170746003,
                  -0.4603951389194386,
                  0.7290747169422163,
                  0.03984856638145193,
                  0.05182748658178336,
                  0.5713048325086995,
                  -0.04901099992099665,
                  -0.9679337589703998,
                  -1.0121992154332713,
                  -0.23823469975792977,
                  -0.39088313558335597,
                  -1.0228798507884134,
                  0.14639617447185957,
                  -0.20333390569067575,
                  -0.6799784325083629,
                  -0.8104410871968811,
                  0.07341460015186904,
                  0.2501498714896352,
                  0.45734438222948,
                  0.58891926591465,
                  0.6267391106815708,
                  0.49520761116008605,
                  0.38381419385527904,
                  -0.09335315488296994,
                  0.7678215425487822,
                  -0.3447459285605077,
                  -0.13218596714697384,
                  0.06043453131616749,
                  -0.56543596041301,
                  -0.6271311299987965,
                  -0.7551749826639751,
                  -0.05904032311816361,
                  -0.6849597861146283,
                  -0.68758233017067,
                  0.8896847340351576,
                  0.2179230367087301,
                  0.07926438753075071,
                  0.8336398005657866,
                  -0.9747405464088155,
                  -0.5731532014070188,
                  -0.26691191718502,
                  0.6912267819804739,
                  0.23553897802400814,
                  -0.15935263158201649,
                  -0.3876955267473182,
                  -0.3816275264784602,
                  0.8718763705563661,
                  -0.5542159588655594,
                  -1.0183311054227246,
                  0.2768425523615623,
                  0.6571115966007711,
                  -0.511695552689433,
                  -0.5305788372879129,
                  0.7555241307912226,
                  -0.3471189597574238,
                  -0.14911945626486547,
                  -0.6911452324058319,
                  0.38308225331914014,
                  0.2628388220378796,
                  0.912212681339264,
                  -0.6633633476281291,
                  0.5005906806492936,
                  0.6699526736086593,
                  -1.0327691770422376,
                  0.697835620609162,
                  0.23013585246144908,
                  -0.17203115904260186,
                  0.7558011457266376,
                  0.1875765715927009,
                  -0.6711941059668838,
                  -0.16751047955622092,
                  -0.77846636522741,
                  -0.4623782176449709,
                  0.8338113101517428,
                  -0.5957130306508772,
                  0.5169605003648414,
                  -0.5076925601515866,
                  -0.315928069391285,
                  0.6289643625460554,
                  -0.6490450593576554,
                  0.18078624024615284,
                  -0.01793485139513873,
                  -0.8364746585312735,
                  -0.40205507052709194,
                  -0.051922470079318404,
                  0.4735210318844024,
                  -0.114509116077143,
                  0.24858010343461415,
                  -0.3642186135392576,
                  -0.7385903222666356,
                  -0.30915936976188185,
                  0.7011562680618224,
                  -0.6223436606916284,
                  -0.5630333513600339,
                  -0.3730975404891405,
                  -0.6528733623167022,
                  0.6774831693325885,
                  0.5654488532521016,
                  0.48749273400941856,
                  0.6118345843188925,
                  0.6685884240762204,
                  -1.015857983245955,
                  0.6769388414523912,
                  -0.2646002987910485,
                  0.4989919172248422,
                  -0.6568716708856503,
                  0.6412911126267692,
                  0.2363229661896004,
                  -0.20031434613903054,
                  -0.68224705244668,
                  0.5919932173867091,
                  -0.35106141820747494,
                  -0.16728116592975623,
                  0.04842507740924365,
                  0.7144513150774083,
                  0.3269568366488262,
                  0.7151490016661073,
                  0.34409724887415694,
                  0.6002363313742778,
                  0.36524549248521004,
                  -0.33103073766438856,
                  0.29288654314279106,
                  0.14975939951373413,
                  0.1294197871929921,
                  -0.6894749076956029,
                  -0.19434889764959912,
                  -0.8468024184723014,
                  0.9335320694660559,
                  0.11682997388744512,
                  0.6294757357361525,
                  0.3306714969959455,
                  0.1669624264070606,
                  -0.29703190711525523,
                  -0.4266437976211181,
                  0.9007113863686418,
                  0.721936476990917,
                  0.11456883219235915,
                  -0.7745253594407857,
                  -0.2940989061184296,
                  0.4293181751455353,
                  0.7833752021129287,
                  0.6043512410736741,
                  0.37631077785709544,
                  0.3549052820259897,
                  0.29904349839610794,
                  -0.5712959889639618,
                  -0.5580841482255426,
                  -0.6989371364140443,
                  0.19241254495839125,
                  0.018635166389818936,
                  -0.8231059607491376,
                  0.9129917360378693,
                  0.49959475389929187,
                  -0.36506041089890745,
                  -0.18208693158964773,
                  -0.4448346723621366,
                  0.5041033674435387,
                  -0.324629235319271,
                  -1.0740911183984363,
                  0.7358599050603792,
                  0.1317777561419328,
                  0.8735894925987853,
                  0.038311068267635896,
                  0.18478454946719008,
                  -0.1028798520494701,
                  -0.9102952806638162,
                  0.6116015240505797,
                  0.5370810041745437,
                  0.3099246703291967,
                  0.7361281086892777,
                  0.6685571664705405,
                  -0.4840953163460938,
                  -0.7904514186043452,
                  -0.9797252576710744,
                  -0.04404401843972492,
                  -0.9102983962240362,
                  0.3996531910456419,
                  -0.33720839163771504,
                  0.01542314641077573,
                  0.8240264637415761,
                  -0.5683208642206742,
                  -0.5986318201265146,
                  0.13726498314834507,
                  0.8644592236145824,
                  -0.260908998215747,
                  0.36316207520665594,
                  -0.6788215161551993,
                  0.5646634653109784,
                  -0.020430051006995565,
                  0.23201808603926585,
                  0.07893225195594203,
                  -0.40982102981196955,
                  -0.7155384524631336,
                  -0.056488352534757355,
                  -0.7898573220851812,
                  0.3916899702521486,
                  0.3665298364075555,
                  -0.31675900476202085,
                  0.3097243576995176,
                  0.3563540171832488,
                  -0.8318771608245306,
                  -0.3013224592842263,
                  0.576950204837594,
                  -0.5297326119594045,
                  -0.7680763741226655,
                  -0.94868763570096,
                  -0.6172517580997712,
                  -0.9663681152490575,
                  0.6062215820447386,
                  -0.9679545124276366,
                  0.4181883828673487,
                  -0.2847835473135759,
                  -0.8994982191087016,
                  0.3120340846125833,
                  -0.8838919258039717,
                  0.7861059867861341,
                  -0.22813050273491814,
                  -0.022492708285414463,
                  -0.10117845647173508,
                  0.8555496421207825,
                  0.3663055852680866,
                  0.8133918453161058,
                  -0.7099751495986952,
                  -0.9749563204005867,
                  0.7453454486305063,
                  0.5774553619342965,
                  0.2951189564529721,
                  0.5839405114401442,
                  -0.6545617522481175,
                  0.4783766005542018,
                  0.8130878604530409,
                  -0.5114457624870961,
                  -0.5753761322295169,
                  -0.29304898078371044,
                  -0.5060030723398005,
                  0.38784500037711855,
                  -0.5584871275832515,
                  0.8309868962179318,
                  0.6010103196666506,
                  -0.49938728052227954,
                  -0.5643319711395547,
                  0.16683637422246553,
                  -0.3976532333005537,
                  -0.7218389852739746,
                  -0.3439732760359517,
                  0.9298331325723956,
                  -0.5835597488968062,
                  -0.6382882339924834,
                  0.918685171173942,
                  -0.7226326537088408,
                  0.09833391989371298,
                  0.9166642076012059,
                  -0.34450309014072666,
                  -0.8600703159370989,
                  0.4436640460236586,
                  0.38922212076108387,
                  -0.8301955092007648,
                  0.6420893574112859,
                  0.6326125993684805,
                  0.2985073840314231,
                  0.7248461286793766,
                  -0.21510611533228388,
                  0.08060008601051118,
                  -0.6666855167808837,
                  -0.02797380442202824,
                  0.5697953523578614,
                  -1.0371486171092772,
                  0.8207089345043616,
                  0.38691130651812783,
                  -0.5867333007280073,
                  -0.29147525141428876,
                  0.7521963907796675,
                  -0.37220162540579876,
                  -0.23859707812052527,
                  0.9852806566887142,
                  0.2934749328444884,
                  0.9545146839163531,
                  -0.15601391742855686,
                  0.9962855369526973,
                  0.2032320351592345,
                  -0.5936952103845683,
                  0.3931632827500201,
                  -0.323239692570902,
                  -0.4983939300176584,
                  0.391718576265228,
                  0.29673900084555527,
                  0.1602525695450443,
                  -0.682304643413385,
                  0.2804585884170042,
                  0.8300933974067312,
                  0.1044974644672178,
                  0.0687771055350332,
                  0.02912849116610549,
                  0.934184209890107,
                  0.16869201807479187,
                  0.818332661188729,
                  -0.5532981386909497,
                  -0.29971105815685084,
                  -0.9612920354315628,
                  0.6124239043603672,
                  -0.42852973198319144,
                  -0.7882809279113471,
                  0.28912101311582383,
                  -0.07310753252928626,
                  0.6600780560148638,
                  0.5125297040353018,
                  0.43184343225330624,
                  0.8106917302091556,
                  -0.9300426612956207,
                  0.15299617044707595,
                  0.9383452682567922,
                  0.9752780439365819,
                  -0.9802783900464584,
                  0.424254507939869,
                  0.932520837412051,
                  -0.9868114686879592,
                  -0.791308421036443,
                  -0.8830066985939005,
                  -0.6331489115564685,
                  0.23232440609670743,
                  0.1769714128030067,
                  0.3438726836276931,
                  -0.6731334986803548,
                  0.5120825862260098,
                  -0.3254937861624641,
                  -0.08213923643478505,
                  -0.7535893585913956,
                  -0.6148114228755934,
                  0.10979765472245417,
                  0.3853630126851321,
                  -0.18030850023422398,
                  0.3637024082044116,
                  0.7904301018383122,
                  -0.9072701330308668,
                  0.5335686604732914,
                  -0.6683387999407717,
                  0.6357675188647667,
                  0.27305516030194665,
                  0.5680469229371257,
                  -0.025925430468691685,
                  -0.8245816019246291,
                  0.5773451065562374,
                  -0.3441189203408896,
                  0.8103208197942117,
                  0.620206969485404,
                  0.7561951585741656,
                  -0.8408751372864597,
                  0.2186018097952196,
                  -0.04615352770817504,
                  0.6255111093024651,
                  0.5451903740285503,
                  -0.20831573852942614,
                  -0.7358624555175869,
                  0.12499704095957695,
                  -0.7534460979033553,
                  -0.6050022525114986,
                  -0.2348375022147697,
                  -0.4762633150915169,
                  0.22945779529764332,
                  -0.863249108346483,
                  0.5795670216351141,
                  0.4330006658663046,
                  -0.9877034455384983,
                  -0.7871514132685604,
                  0.7399036326435957,
                  0.5974757763970358,
                  -0.2912196438177497,
                  0.6871793877451671,
                  0.18802629527147946,
                  0.2586390997250883,
                  0.20263473857056177,
                  0.09436870912575854,
                  -0.8146510045401478,
                  0.8884945752532223,
                  -0.6424171806866406,
                  0.3483474895933001,
                  -0.49386949839572664,
                  -0.8482310487480541,
                  0.48947619143946336,
                  0.34611624580788775,
                  0.2217950221717547,
                  0.4695365829604652,
                  0.8927085638439091,
                  -0.8958555623793817,
                  0.7579334190809458,
                  -0.33731848698070843,
                  -0.36518337895065445,
                  0.7922837445316251,
                  -0.7328699621387353,
                  -0.9589250664237343
                ],
                [
                  -0.08774821115330145,
                  -0.9730798127439315,
                  -0.7384015705519973,
                  0.19581383012126974,
                  -0.07438878893182288,
                  0.8923898016351397,
                  0.8982733401695286,
                  0.7964780081009515,
                  0.5526051090115973,
                  -0.2808011776956647,
                  0.6130400493753245,
                  0.16819859290781825,
                  -0.9267009919335316,
                  -0.8837858270635199,
                  0.5827245238158958,
                  -0.9235907069486138,
                  -0.2195747786102955,
                  -0.6144912876128141,
                  0.006877603759432471,
                  -0.23117975534865387,
                  -0.8261385068452602,
                  -0.3742050787420501,
                  0.0238196303534588,
                  -0.8550942525229472,
                  -0.02430965249409578,
                  -0.5212499320888382,
                  -0.6406272832717623,
                  0.32292216450800515,
                  0.6089831081663597,
                  -0.9341410577452316,
                  -0.07521946378096978,
                  -0.43525070839429514,
                  0.36836780718367645,
                  0.8934276301469732,
                  -0.3124234625144098,
                  0.9453949924457598,
                  -0.3786008973487327,
                  -0.8287922260567572,
                  -0.6195986470627395,
                  -0.2559948625245874,
                  0.20555544410118887,
                  -0.4408788047942818,
                  0.0029858933150070984,
                  0.38183101509238654,
                  -0.3817396006342394,
                  0.3813266948572002,
                  -0.5426029694297851,
                  0.02583488944704662,
                  0.66372944971151,
                  0.6735603223052906,
                  -0.3162348362685354,
                  0.05315633611563439,
                  -0.4833143768297101,
                  -0.030294007688124402,
                  0.7645749746592814,
                  -0.21783137893152293,
                  -0.3320947133537535,
                  -0.4603005755081413,
                  -0.46663872509060766,
                  -0.3604568684914349,
                  -0.4579100240562769,
                  0.9141860307851334,
                  0.7795551309175492,
                  -0.13496919292171286,
                  0.3175439240961675,
                  0.928346844957916,
                  -0.044350225532143885,
                  -0.5175844584022087,
                  0.3527585503179585,
                  0.5700642226266796,
                  -0.7957062975456518,
                  0.29083599596663373,
                  0.2459232023833328,
                  0.239668292668989,
                  -0.6237416656248236,
                  -0.3009145891279673,
                  0.7102904719536399,
                  -0.25211297477222877,
                  -0.6971287017263623,
                  0.5692074382914685,
                  -0.12097514846559067,
                  -0.8455789690169415,
                  0.7904515065840494,
                  -0.5423069480010771,
                  -0.8944595286371535,
                  0.678591700081518,
                  0.6862409231566442,
                  0.6923298477956172,
                  0.45826651554820075,
                  -0.18288093473698436,
                  0.13561468746946273,
                  0.34439361891423054,
                  -0.7753323668386014,
                  -0.9890531092333008,
                  -0.11414520076290886,
                  0.18350092580658406,
                  -0.5379683063083672,
                  0.23276742232494257,
                  -0.5437748340275812,
                  -0.6843668723812022,
                  -0.9984572558821996,
                  -0.5135410055207188,
                  0.563729986085427,
                  0.7311361597016413,
                  0.7545946431457794,
                  0.4675974613106607,
                  0.8758783824807985,
                  -0.1377230203910077,
                  -0.8947922277438506,
                  -0.06980226556824576,
                  0.8064381157193323,
                  0.5365720582477929,
                  -0.5426258806980351,
                  0.9419016900541739,
                  0.9130528483275864,
                  0.41846090521406687,
                  0.7069341755282188,
                  -0.6439862577796712,
                  0.8863079790253808,
                  -0.5209165565550578,
                  0.16438330139589946,
                  -0.06714455500897236,
                  -0.6776247189863038,
                  0.6609724229814263,
                  0.5320212080607363,
                  0.4630905037584459,
                  -0.8404282126656291,
                  0.8791167977263025,
                  -1.0332621249231915,
                  0.06574321681166768,
                  0.5077085636545595,
                  0.12769078303507744,
                  -0.38252911110683857,
                  -0.5492780552950606,
                  0.966793500525769,
                  -0.07532277761864781,
                  -0.3751317407048826,
                  0.26391582985300766,
                  -0.7480757698095011,
                  0.1871063914604525,
                  -0.24427179296617618,
                  0.6470692508008886,
                  -0.859660882484977,
                  0.9851927766691569,
                  -0.09868824414124694,
                  0.8961507734802359,
                  -0.35907689743406923,
                  -0.9093922457557256,
                  0.40695229158055923,
                  0.18822214622164296,
                  -0.676569807349684,
                  -0.42882191177265183,
                  -0.7727399289334065,
                  -0.6988541920414324,
                  0.8356250007078287,
                  -0.834242718767359,
                  -0.6915204756555335,
                  0.8073519271457021,
                  -0.30515811680588995,
                  -0.3715882829431631,
                  0.8640481234629129,
                  -0.5552476795632018,
                  0.647940754896381,
                  0.2167049485614392,
                  -0.2595120428728935,
                  -0.600720363434944,
                  -0.8965677565068395,
                  -0.8923018146351291,
                  0.9575564808943846,
                  -0.7341292301996751,
                  -0.9589813065169818,
                  -0.3147676168671724,
                  0.6220287199991817,
                  0.9705341717178915,
                  -0.20231636901984315,
                  0.16312006047729624,
                  0.7190773569843032,
                  0.49140176831202187,
                  -0.10005977618017045,
                  -0.8305251477009834,
                  -0.9377276179994131,
                  0.07209840909261872,
                  -0.05536108823526997,
                  -0.6799961998210825,
                  0.24519457947297307,
                  0.5548028753560473,
                  -0.7836567227191601,
                  0.8530673129345386,
                  -0.002960748031987667,
                  -0.965503316186919,
                  -0.6662121599708606,
                  0.4583017547310225,
                  0.399314434239232,
                  -0.5501688625581524,
                  -0.8564720033468084,
                  0.27348140187224906,
                  0.5801839197710668,
                  0.012191339731173152,
                  0.08106382267095988,
                  0.42459259805378846,
                  -0.23000915045833165,
                  0.9670119400579571,
                  0.8079019321735375,
                  0.4306599998938936,
                  -0.8402599617790696,
                  -0.19268124355362062,
                  -0.8228918560642254,
                  0.27280444499377243,
                  -0.8195734459793402,
                  -0.5571707400560396,
                  -0.7768944364321559,
                  0.284361812931268,
                  0.07658022609829652,
                  -0.4785969378353562,
                  -0.7068331550884799,
                  -0.672501671904358,
                  0.13786911908558488,
                  0.9956246933707465,
                  0.4796988804142431,
                  0.4774366503075688,
                  -0.6993337599253153,
                  0.46512009935627463,
                  0.34558422922058163,
                  0.622804794949013,
                  -0.4012637908336513,
                  0.5820921918937043,
                  0.7999681345396417,
                  -0.0518931121137186,
                  0.23580109580207287,
                  -0.7145868080314774,
                  -0.5600013279003457,
                  0.9479280116131675,
                  -0.1122455323691094,
                  -0.7900342871000282,
                  -0.01038561204990197,
                  -0.7414102682212274,
                  -0.8011824877231335,
                  -0.3192523536342562,
                  -0.7850525099227633,
                  0.02303894360918806,
                  -0.6035662151367753,
                  -0.12399006266209565,
                  -0.9495405674384225,
                  -0.8654873185626875,
                  0.8941278707909379,
                  -0.8504431505808538,
                  -0.24184438697908006,
                  0.8476698193949447,
                  -0.9764001527916238,
                  -0.7635725265034125,
                  0.22406030887152864,
                  0.07210832302575634,
                  -0.12114746635002521,
                  0.1289547911474788,
                  -0.8177068069990251,
                  -0.7214983151486353,
                  -0.5254015794826788,
                  -0.41523130108449885,
                  0.3211286945048134,
                  -0.11830305940956662,
                  -0.9177263346736156,
                  -0.5024048508665835,
                  -0.6873202243891783,
                  -0.9473031468922178,
                  -0.8581897167504491,
                  0.49034294085786584,
                  -0.05547618223975545,
                  0.3198360102217079,
                  -0.3172651595352809,
                  0.0633083156261842,
                  0.30013717466693984,
                  -0.6990727412640927,
                  -0.405905754643831,
                  0.8182871765717303,
                  -0.4831703839208176,
                  -0.22146452698273117,
                  -0.5260688339346977,
                  0.020340156338561205,
                  0.1953986859375373,
                  -0.3678078734151791,
                  0.9976447134193669,
                  -0.03333309500052352,
                  -0.18952510930736138,
                  0.8381986626049949,
                  -0.36053925165836476,
                  -0.4627611125504744,
                  -0.014657279636322261,
                  0.6992349931691494,
                  0.42738759721556036,
                  -0.043215402531856774,
                  -0.35651699200152337,
                  0.7129348731599359,
                  -0.9680637836144248,
                  0.413940378179914,
                  -0.3401836930574946,
                  -0.2690614734949789,
                  -0.5168330710472454,
                  0.3866525775538543,
                  0.3713212892460648,
                  0.5486922125800415,
                  -0.054014763664833036,
                  -0.9081786448151234,
                  0.30470213495760434,
                  0.48920404016997954,
                  0.018429175114963385,
                  0.45030562195993873,
                  0.5347539909607745,
                  -0.6778599556325833,
                  -0.1645580458860687,
                  0.6932318175726818,
                  -0.7105001245074366,
                  -0.6825895559090701,
                  0.1650859553271205,
                  -0.3372820077882037,
                  0.17462956455544904,
                  0.7190363367568596,
                  0.9107835532737057,
                  -0.8739724239898872,
                  -0.8713491390029053,
                  -0.6340830970055749,
                  0.23918246715064878,
                  0.2843797388407996,
                  0.4806175316955015,
                  0.829267890991335,
                  0.6595532963999975,
                  0.8046820228415829,
                  0.8980952441056314,
                  -0.5667677187454648,
                  0.6942726408247089,
                  -0.08557523179956728,
                  -0.6047054064248429,
                  -0.5170050365535808,
                  -0.7427461855836825,
                  -0.5753501791446005,
                  -0.8691092967007145,
                  -0.47871143766524865,
                  -0.6695395780783557,
                  0.8469844586428535,
                  -0.950462785146402,
                  0.08024393097894185,
                  -0.5175189426836196,
                  -0.7871082564627594,
                  -0.033729291625734924,
                  -0.7336288768113495,
                  0.30930712954164935,
                  0.055807040149206476,
                  -0.9348834414849984,
                  0.32034534945916987,
                  -0.7170994428110834,
                  0.7852468264673557,
                  0.9556261537464676,
                  1.2583803147160684,
                  -0.5195003533405674,
                  0.06163673976285536,
                  -0.833952792495603,
                  0.6936467080623162,
                  0.126027409493507,
                  -0.33415463500478304,
                  -0.9120743503426578,
                  -0.45659472821836067,
                  -0.7090392596158355,
                  0.9576040740693962,
                  -0.8742423479073578,
                  -0.41345144549484214,
                  0.1368944147021245,
                  -0.9538609148843347,
                  0.7322678565910279,
                  -0.23658616974854127,
                  0.3575085306646627,
                  0.3643550752613527,
                  -0.35725378217594833,
                  0.7978200663197281,
                  0.7258603495897531,
                  0.848365005621353,
                  -0.46405811611129916,
                  0.13629845135972166,
                  -0.6004173418458691,
                  -0.5006885268202799,
                  -0.19213761569693383,
                  -0.1742271525507025,
                  1.0527757882932303,
                  -0.5529873478772463,
                  -0.6391595079669397,
                  0.555763400621896,
                  -0.6774870077774476,
                  0.0674175555404446,
                  0.7065014036753102,
                  0.00010935343623143205,
                  -0.18683291045367484,
                  -0.07423114124100604,
                  0.4210413097810435,
                  -0.7083864453683169,
                  0.9973805985154067,
                  -0.20177075076384696,
                  -0.2109043183328778,
                  0.3655450114373452,
                  -0.2818565283912592,
                  0.2537778468041553,
                  -0.22344973390253775,
                  -0.8989124685999682,
                  0.6708184174200793,
                  0.3398172028264471,
                  -0.09994269300135614,
                  0.5347102260343934,
                  -0.898652355824338,
                  -0.23674805950499395,
                  -0.5844606415724023,
                  0.04130191387886338,
                  -0.09787729067379465,
                  0.34245252423892336,
                  -0.3740611906585702,
                  0.9589433747506025,
                  -0.35069946883303355,
                  0.60337041538958,
                  -0.8435934830966229,
                  -0.8096648682996842,
                  0.31226005752982916,
                  -0.6758641878204497,
                  0.4910868130084117,
                  0.888091659898465,
                  0.7646307187679668,
                  -0.030759215805593973,
                  -0.7715130522011383,
                  -0.15648221460257042,
                  -0.30984089067699555,
                  -0.963291318903956,
                  0.6371979781769427,
                  0.8934620927708894,
                  -0.26417095554818676,
                  0.5418918394151309,
                  0.3624580460430799,
                  -0.8976863625313632,
                  0.056543205338603894,
                  -0.34689876266287073,
                  -0.22792950373132975,
                  0.9552956033785093,
                  -0.2436239708028407,
                  0.1081948057972396,
                  -0.8173711812532769,
                  -0.732820703352456,
                  -0.05446079996865091,
                  -0.04063964477524082,
                  -0.21240913677831594,
                  0.32375969316215636,
                  0.22029585624565054,
                  0.35325096395490946,
                  0.42326848679084694,
                  0.9900903459054042,
                  -0.2062739905698141,
                  0.8590801452728533,
                  -0.7887230698252715,
                  -0.2554577267293395,
                  0.6678976423628025,
                  -0.5269659621781972,
                  0.13063802114650516,
                  0.458331131223183,
                  -0.154208347397225,
                  -0.6265610799185295,
                  -0.37116087553821747,
                  -0.04280791815306041,
                  0.5209503244506056,
                  -0.2432306065645625,
                  -0.5057598384703931,
                  0.5300450267756552,
                  -0.924790369971851,
                  -0.2976410191524402,
                  0.04326059102767311,
                  0.1863722616747609,
                  -0.2868799074883794,
                  -0.3054559048349003,
                  -0.9633548753963733,
                  -0.03912346043221597,
                  0.28832210521325324,
                  -0.6573761171491915,
                  0.680857355570661,
                  -0.3131655035865566,
                  0.7840670091338398,
                  0.4160143151696792,
                  -0.8053045261316261,
                  0.9129625406567591,
                  0.6572920031762481,
                  -0.1609932130750023,
                  0.5869999990171738,
                  -0.36120953697798885,
                  -0.7931750798435452,
                  -0.15299947521426951,
                  -0.8953582096271444,
                  0.037387002193402,
                  1.0949609369092503,
                  0.3701688168121396,
                  -0.16763425142664443,
                  0.13522075666134203,
                  -0.4392771106099684,
                  -0.17170958528246485,
                  -0.7003070383915877,
                  0.05842598896843964,
                  -0.8521122088633317,
                  0.7974776408479215,
                  0.28087933376365243,
                  -0.8147485674121201,
                  -0.1207472932969997,
                  -0.6933759704663861,
                  -0.11339307173311813,
                  0.4399461790799615,
                  -0.7564793015252325,
                  0.04561880480869096,
                  0.9632293906181528,
                  0.02823817775471685,
                  -0.028361450875007542,
                  -0.055604413142017736,
                  0.7833435199541748,
                  0.6828039295222608,
                  -1.0345329082205583,
                  -1.0524155037903271,
                  -0.34205693137385346,
                  0.7795749221526022,
                  0.7868596389615153,
                  -0.3545475473489726,
                  0.8003068290099954,
                  0.48230521021498596,
                  0.8178609790963988,
                  -0.8409658918752633,
                  -0.19981673240828982,
                  0.6268254272435522,
                  0.1575923138531354,
                  0.079260658267151,
                  -0.1587982686493202,
                  0.0982193662383206,
                  0.288937186414018,
                  -0.5794771031110636,
                  0.3062189946340225,
                  -0.5235932344705052,
                  -0.006174589574280631,
                  -0.25569722372763204,
                  -0.5440874045056436,
                  -0.21491388752042984,
                  0.5864107893923389,
                  -1.0193822014138694,
                  0.21979918316365762,
                  0.6325451160489508,
                  0.18165319605551947,
                  0.6809981080820221,
                  0.7896139744050188,
                  0.4610947181424605,
                  0.037258714958570985,
                  0.27827325690657484,
                  0.04021861286524549,
                  0.007551406373656998,
                  0.2807918749994475,
                  0.3995990050992156,
                  0.3091880675184489,
                  -0.4008691317805611,
                  -0.9632203212556493,
                  0.7515195565664943,
                  -0.9654554946102202,
                  -0.610689825883786,
                  -1.0176948352036903,
                  -0.6999551144776597,
                  0.5782631416038022,
                  -0.6169040360510593,
                  0.6306455529602499,
                  -0.8931880506825144,
                  0.530588945538227,
                  -0.9764512967819452,
                  -0.019772159642692865,
                  -1.0304403274770337,
                  0.22649491657663265,
                  -0.6767878063320885,
                  -0.9467596892429193,
                  0.29903631523924046,
                  -0.32115159341298216,
                  0.2293295889540738,
                  -0.9399658957583314,
                  0.6398501670131026,
                  0.6225722250193668,
                  0.7376240916894553,
                  0.19204863003707706,
                  -0.3861409741947087,
                  0.6067220311351313,
                  0.867518089384756,
                  0.4912515106342585,
                  -0.5251095184081378,
                  -0.2481944949048295,
                  -0.8340115571947171,
                  0.12373669878317779,
                  -0.6624524440905184,
                  -0.5593949594116994,
                  0.3838482712152576,
                  0.40439444270618763,
                  0.25401117237284604,
                  0.11243734765392217,
                  -0.24401910391123982,
                  0.29024650923927847,
                  -0.2994062687182369,
                  -1.0059505171694527,
                  0.40046834500257916,
                  -0.10263488988102111,
                  0.6001473808530949,
                  -0.8255106748706084,
                  0.8506980459879485,
                  -0.07130284715283215,
                  0.7909130998899843,
                  0.28414926214452435,
                  -0.2315156802718511,
                  0.5031348331789524,
                  0.05208531908636459,
                  -0.5854725607098628,
                  0.4002332327486482,
                  -0.08391428425545037,
                  0.3802436080418315,
                  0.10019045342509668,
                  0.779156285949206,
                  -0.40606778777211566,
                  -0.8140247186645012,
                  0.0663391553371288,
                  -0.16695619640266823,
                  -0.3348332122239652,
                  -0.1386024190310886,
                  -0.6637794114179014,
                  -0.11895838049994877,
                  -0.38330669119798566,
                  -0.8111166896120613,
                  -0.849912590351987,
                  -0.7526322443115555,
                  -0.9057205026427776,
                  -0.35737764471846006,
                  -0.320256824098245,
                  -0.011770698017560833,
                  -0.4412422724904282,
                  0.45653813615993843,
                  0.9089063647447542,
                  0.24272007719965316,
                  -0.9695056128378425,
                  0.9562523809471046,
                  -0.9243813963474486,
                  -0.5068362920653035,
                  0.9520075123471757,
                  -0.5521507170844348,
                  -0.46885174387292144,
                  0.9363936089792159,
                  0.9600328340312441,
                  0.278349774762891,
                  0.34057144369808184,
                  0.6483645091350789,
                  0.642964284103094,
                  0.21857752957802346,
                  -0.7198699623309706,
                  0.6443139252158199,
                  -0.8812638131461247,
                  -0.6798518387418623,
                  0.11004154880412943,
                  -0.09868438372718062,
                  0.40325287729455384,
                  0.7154888676868136,
                  0.2418508085073029,
                  0.3433507880339337,
                  0.13744239513171172,
                  -0.6601823235328615,
                  0.7026178585081297,
                  0.28117005399333417,
                  -0.8888555957882623,
                  -0.032267499398247954,
                  0.5762279694166066,
                  0.9628383667838215,
                  0.3588663469117791,
                  0.6547357573225195,
                  0.6880126816127679,
                  0.6485037829005597,
                  0.6732475877734226,
                  -0.2696478806009623,
                  0.02669884929538467,
                  -0.6073677722935669,
                  -0.9991923112500816,
                  -0.2656327638393736,
                  0.4173004408948846,
                  -0.7728047234735073,
                  -0.000700324425056284,
                  -0.4333322913766143,
                  -0.4255531701993993,
                  -0.9874224270032294,
                  -0.7782317747149581,
                  0.12999369143058837,
                  -0.9221293723547412,
                  -0.2221624402927265,
                  0.40216505794330254,
                  0.9398094936027035,
                  0.09888614274490626,
                  -0.05128614617518285,
                  0.5891800117276192,
                  0.6211972628579396,
                  -0.6617077032728077,
                  0.41087655679324125,
                  0.9239850333184815,
                  -0.02861255720619108,
                  -0.6340129976573641,
                  0.2313637172588864,
                  0.7120067128227523,
                  0.7043601535594823,
                  -0.9749529342607666,
                  0.49893984827908566,
                  0.14245538303783833,
                  0.09425178353147601,
                  0.8297815212200099,
                  0.8824818213781859,
                  -0.2813447305006488,
                  0.9109206638916291,
                  0.0625970434705908,
                  -0.16038937623501853,
                  0.007396398078224931,
                  -0.0005250723427839194,
                  -0.12307947975699045,
                  0.30804446226377075,
                  -0.23179311998084337,
                  -0.7205554513339413,
                  0.6954275183760078,
                  -0.3612925125487631,
                  0.539132292553704,
                  0.9854474677057868,
                  0.13539812485549102,
                  -0.43897892374036634,
                  0.18681200592145358,
                  0.26829356884916994,
                  -0.3423001241377472,
                  -0.9279247555197377,
                  0.2085061586551294,
                  -0.553168853072993,
                  0.8975792689099604,
                  -0.6341524375372685,
                  -0.7042961177138731,
                  -0.3543237804841368,
                  0.5692183371866912,
                  0.49151090212479476,
                  0.715685177069243,
                  -0.7333414523621633,
                  -0.363274354547723,
                  0.6601923722310866,
                  0.02308113856407044,
                  -0.401695454823122,
                  0.6731402303737823,
                  -0.3688195969983176,
                  -0.22031788195033195,
                  0.5273836115169108,
                  -0.7904893914748378,
                  -0.4378880962823124,
                  -0.15565506732334997,
                  0.7527411725330196,
                  0.7199695023738519,
                  0.5460166469916592,
                  -0.5694972881571987,
                  -0.3916249089982227,
                  0.4699495698101689,
                  -0.8586501702824271,
                  -0.3427546079154151,
                  0.921172547910833,
                  -0.8738032114379002,
                  0.37089164062806557,
                  -0.12530045150129165,
                  0.6579065515886562,
                  0.9377418195649461,
                  -0.1783336949377201,
                  -0.5879855997951071,
                  0.006133285672727862,
                  0.1287146422599498,
                  -0.36475189327835617,
                  -0.7775311747122299,
                  -0.993239537934365,
                  0.2518992765446421,
                  -0.07239355799613965,
                  0.14987889540734364,
                  -0.7544524088275232,
                  0.2837831523699184,
                  0.7508519388916907,
                  0.9053011011276747,
                  -0.3205942163352085,
                  -0.7553950898093418,
                  -0.2967263203620318,
                  -0.7794566911199152,
                  -0.8074684249810651,
                  -0.818766521922551,
                  0.6793543932132158,
                  -0.6859247889699334,
                  0.15565858517370845,
                  0.6003233110831467,
                  -0.11940617901345618
                ],
                [
                  -0.24723485463282024,
                  -0.4986153151128536,
                  -0.29662301221963006,
                  0.1489983882909529,
                  0.2539602309534632,
                  -0.8789903550113771,
                  -0.010746284026240893,
                  0.7302436051914527,
                  -0.234474716607441,
                  0.5364571736967383,
                  0.9370675856757384,
                  0.36509337823390764,
                  -0.830333638015055,
                  -0.5416845067864937,
                  -0.01404301712152689,
                  -0.3176772409943309,
                  -0.06631222469677889,
                  -0.7866763513468613,
                  -0.18495606945977805,
                  -0.9022325280859453,
                  -0.8276244525307495,
                  0.39756146859332375,
                  0.6434715899457761,
                  0.3001439038967013,
                  0.789903537537362,
                  0.8609551612879107,
                  -0.047558439190322765,
                  -0.6057561285105777,
                  0.07349294700222098,
                  -0.06781010673510979,
                  0.12446819417218036,
                  -0.5066099692177413,
                  -0.999364449768132,
                  -0.6332125498399916,
                  0.45694007408433013,
                  -0.406412984227743,
                  -0.014168555087319967,
                  -0.732508213309899,
                  0.16535774467018868,
                  0.27383336184235557,
                  0.21242412287741821,
                  0.246347403222421,
                  -0.48589418431800624,
                  0.8165493537873341,
                  -0.32968815916630717,
                  -0.2850883686197243,
                  -0.26747789354533397,
                  -0.04222449767568973,
                  0.9234702756168309,
                  0.4059053419270896,
                  -0.8322152577424787,
                  -0.4004393797239275,
                  -0.5931726863331712,
                  -0.9383844142660434,
                  -0.134027632732435,
                  0.7129096262924808,
                  -0.6111630160685002,
                  -0.11268172125656317,
                  -0.5354234025514448,
                  -0.8451458576928981,
                  -0.5014943717090793,
                  -0.20573985041909987,
                  -0.8635638680245608,
                  0.288565800723114,
                  0.12685415159958902,
                  -0.08969051428159326,
                  -0.06329855534699459,
                  0.016053876978111226,
                  -0.3873403349251895,
                  0.6897634535114664,
                  0.8776360044914928,
                  -0.05368204885006024,
                  -0.6355984714397669,
                  -0.4450090561871402,
                  0.5949407247366187,
                  0.8565261899027191,
                  0.6107756268282086,
                  0.4832910267643951,
                  -0.2465887854206083,
                  -0.2902669852455019,
                  0.3494549080329016,
                  -0.8164556310522815,
                  0.5667275072131006,
                  0.6678700545173366,
                  -0.06417789100929516,
                  0.859568190483587,
                  -0.48954013679163033,
                  -0.9374340406408543,
                  -0.11862928765661578,
                  0.010887581016485402,
                  0.4126818376741665,
                  0.7332219326439852,
                  -0.804721774210754,
                  -0.9885058813188137,
                  -0.6937510842542972,
                  0.5178988539511262,
                  -0.10362114490742638,
                  -0.03267341108704833,
                  -0.4089817054560382,
                  0.23284525763254485,
                  -0.8513424535066265,
                  0.3946326993429139,
                  -0.7015766971470598,
                  0.6297491952799781,
                  0.9535694985170009,
                  0.8286591295514905,
                  0.3155894698415368,
                  -0.616486794269684,
                  0.7070195073419242,
                  -0.7708656873926083,
                  -0.34565578017683185,
                  0.5932406238084775,
                  -0.8088260885891003,
                  -0.5651104708770158,
                  0.8036376918302142,
                  -0.011733819115473337,
                  0.6120718298381164,
                  -0.77562859622216,
                  0.019853645961492253,
                  0.7017648345722691,
                  -0.9834929093505642,
                  -0.015398454808505137,
                  0.5517329930509124,
                  -0.46614502178206824,
                  0.15737109714683326,
                  0.151664835890426,
                  -0.498493300775215,
                  0.023895541888578852,
                  0.9519982103202203,
                  0.17878785826897023,
                  0.4193004563534022,
                  -0.11044267046574437,
                  0.2066941367361201,
                  -0.6410435505564606,
                  -0.3260204336043294,
                  0.8530656686158963,
                  0.895975120391968,
                  -0.30389823371410696,
                  -0.9848509622572115,
                  0.956590327086146,
                  -0.8605582915745598,
                  0.11135969116653444,
                  0.3390012017424514,
                  -0.9906969777217397,
                  -0.5329907081656343,
                  0.13081410560090623,
                  -0.6564713716516337,
                  -0.10466586788095242,
                  0.06744487090949883,
                  -0.6051777869780453,
                  0.6573069688597944,
                  0.31412929580773485,
                  -0.6207763658081781,
                  -0.385271396857835,
                  0.2227400630551402,
                  -0.5175560433914692,
                  -0.16409437361991372,
                  -0.2445788492967258,
                  0.8728046224727094,
                  0.6423189900980718,
                  0.48488901131235446,
                  -0.7278456536831137,
                  -0.8797742883339432,
                  0.12751880095269047,
                  0.6413039295551413,
                  -0.12321627704319202,
                  0.21982376217524166,
                  0.9823039839165516,
                  0.31493205748050723,
                  -0.9726106315400247,
                  -0.40468442386401404,
                  0.6002862742492588,
                  0.5014376050079569,
                  0.5678216025792585,
                  0.05107605284644577,
                  0.35283415763571657,
                  0.04754731289954935,
                  -0.10282238198291103,
                  0.258567550666527,
                  -0.5048181287669687,
                  -0.6910276123622054,
                  -0.2561815611707191,
                  -0.6198804602238462,
                  0.2697481715755409,
                  0.7860842140501147,
                  -0.6686898880109524,
                  -0.5436357162047054,
                  0.23643487737068267,
                  0.4877534815190043,
                  -0.21042906174687756,
                  -1.100261789158132,
                  0.4973881328498778,
                  -0.24903190092502056,
                  -0.3109994092320856,
                  0.06262542465026942,
                  0.6079138482581773,
                  -0.8678837083015588,
                  -0.27496021179456237,
                  -0.08895472723755087,
                  0.4463430347152729,
                  0.41991513129098884,
                  0.5186639664184685,
                  -0.6803765191770359,
                  -0.41325766961980703,
                  0.3660544214389272,
                  -0.4906308125469808,
                  0.9063317732625382,
                  -0.030467163935935827,
                  -0.81270247349749,
                  0.15352876842085403,
                  0.4749087353220015,
                  -0.6724913774980236,
                  -0.43450099679437654,
                  0.8763153845355068,
                  -0.4822796153875418,
                  0.2585805535514164,
                  0.032982501851623,
                  -1.109200753662669,
                  0.27536481139521973,
                  -0.30026680717863763,
                  0.6114182334292033,
                  -0.8655796418360832,
                  -0.27656562605989216,
                  0.07087581717893249,
                  0.9884900537555186,
                  0.07271638209829537,
                  -0.7843681101787172,
                  -0.6937528370705505,
                  -0.12009584557832044,
                  0.25504671734849793,
                  -0.8463467202987286,
                  -0.6683266659742317,
                  0.13646336358983485,
                  0.9216067861182801,
                  0.9376348791561507,
                  -0.6619923375025438,
                  -0.6393500411395788,
                  0.6036847006575763,
                  0.8363878406247902,
                  1.0870287398443044,
                  -0.5525304346376743,
                  -0.22112516398891635,
                  0.9468297831392753,
                  -0.8017004302035139,
                  -0.9210407099304365,
                  0.1591950705198604,
                  0.3974069440660066,
                  0.3807701780035475,
                  0.7651899854246931,
                  0.10786762537523109,
                  0.12335234202853958,
                  0.23876530249081923,
                  0.7362810373605351,
                  -0.21153804778176777,
                  0.654558429874852,
                  -0.23557819090144036,
                  0.3444687718966573,
                  -0.618634844680884,
                  0.9390706290890543,
                  0.27317882941392846,
                  -0.6564374795049018,
                  -0.2679533346358454,
                  0.4569819119777235,
                  0.15471541529942176,
                  1.084968193592076,
                  0.47166313673418736,
                  0.6874769997176008,
                  0.77661457750445,
                  0.6516203716425507,
                  0.77930260877939,
                  -0.5955072639165384,
                  0.3994619184430958,
                  -0.7778592246375249,
                  -0.8772102202058061,
                  0.48929343993015256,
                  0.6569842391941549,
                  -0.8447138303924989,
                  0.10521595680987367,
                  -0.9981040481907648,
                  -0.830105305684674,
                  -0.6134497776267183,
                  -0.9032977673101523,
                  -0.2723234157316225,
                  -0.5103035668615704,
                  -0.2191986733243386,
                  0.8411859115526018,
                  0.5904877991389211,
                  0.928670612772667,
                  -0.8821001985206862,
                  -0.400707754084335,
                  0.8950250522500971,
                  0.38261032155488467,
                  0.39831497890276174,
                  0.34899296278573627,
                  0.7319453793645068,
                  0.7411186439615978,
                  -0.30093061224373113,
                  -0.34969768803361007,
                  0.6779418578737136,
                  -0.49347678041929366,
                  0.46187444846525133,
                  -0.4433366549474353,
                  -0.026240887149057403,
                  -0.10799552456712898,
                  0.4015095777605164,
                  -0.35399936206534705,
                  -0.855132796019953,
                  0.8814422692846264,
                  -0.41870196837793516,
                  -0.7628172671992256,
                  -0.3922927070060514,
                  0.5969461685645845,
                  -0.2414838528133548,
                  -0.7424156307430125,
                  0.06583216287053044,
                  0.16711813210506543,
                  0.19666213428813606,
                  -0.3330737560305341,
                  -0.26197929938889675,
                  -0.4854416179844239,
                  0.23906971591259293,
                  0.4289837034819108,
                  0.8267565169035209,
                  -0.02547485911672897,
                  0.5914970901207314,
                  -0.4349779271772718,
                  0.4473934382130637,
                  0.8713960785224237,
                  1.0469116171529613,
                  0.2252283536487018,
                  -0.8024483465062755,
                  0.2271324715674763,
                  -0.005136367210434359,
                  0.5206311624275214,
                  0.0714568026447623,
                  0.14732202422929055,
                  0.48631397431619305,
                  0.03838671618950156,
                  -0.22105282351189962,
                  0.79445666371961,
                  0.6436049360759276,
                  -0.3619307166696441,
                  -0.38760327580061205,
                  -0.9379495200747636,
                  0.5589004508822625,
                  0.056589438493174014,
                  -1.1355253737005395,
                  -0.6588737530736463,
                  0.051794721500237284,
                  0.4536795546343562,
                  0.7453173814800997,
                  -0.17593033021384955,
                  0.061785788205051095,
                  -0.37092763583322236,
                  0.7352155030659223,
                  -0.10254615247931312,
                  -0.21536823952161094,
                  -0.3486984613529339,
                  0.32733145297131255,
                  0.4589527974774266,
                  0.1151674776820382,
                  0.4016763658376398,
                  0.6217642519032535,
                  -0.6525951191316012,
                  -0.2021118348814679,
                  -0.12726416811318192,
                  -0.12552923118889237,
                  0.12306524449407454,
                  0.6513252422111391,
                  0.3593385305871383,
                  0.2761647811966621,
                  -0.7455505895524096,
                  -0.41351667609054243,
                  -0.3571404169720709,
                  -0.6125128548216653,
                  0.4873753314751184,
                  -0.36510119134163804,
                  -0.8477955018846279,
                  -1.0380488696982328,
                  -0.6613318941596373,
                  -0.685224678936674,
                  0.5000796698151189,
                  0.6424897937695262,
                  0.25158681289551743,
                  0.3498758310032795,
                  0.9489049300420328,
                  -0.1461155106340665,
                  0.24422213632244524,
                  -0.16505981708156262,
                  -0.48020029812576914,
                  -0.19081290234649212,
                  -0.6518239889438573,
                  0.4978499306826474,
                  0.9740127916358882,
                  0.051663818171649174,
                  -0.8365790655224128,
                  -0.2987635892612189,
                  0.14258699595926355,
                  0.7717618197202651,
                  0.10180552471740209,
                  0.7713832584655156,
                  0.273004669088905,
                  -0.21652879526684693,
                  -1.2997721922038143,
                  -0.04059685194513397,
                  -0.1324520962079344,
                  0.12543613463534453,
                  0.6405741751258253,
                  -0.07169268646949699,
                  -1.1947163954166584,
                  0.09984532864931646,
                  -0.8886296714533676,
                  0.4374632153347686,
                  1.0077740235713004,
                  -0.4656027685567093,
                  -0.5640892716916012,
                  -0.5093897403038511,
                  -0.19740383318955976,
                  -0.9765287703564253,
                  0.8462690221531206,
                  0.03624234540245741,
                  0.5125031364917169,
                  -0.40049118034588443,
                  0.9014154156412376,
                  0.7593642781245936,
                  0.13535030802554585,
                  0.5649114795115566,
                  -0.9783423817985926,
                  -0.9902479702701479,
                  -0.35609297374510956,
                  0.15005703023897637,
                  0.4822494232551666,
                  -0.6628708602414395,
                  -0.49790538921194233,
                  -0.26632165839611677,
                  0.6214128278869088,
                  -0.032822750832066844,
                  0.03234515601118309,
                  -0.9095218491125433,
                  -0.9620832849079827,
                  0.44710624473465704,
                  0.46607724367569847,
                  -0.5130629021867464,
                  -0.05800949786892628,
                  0.22320556180453716,
                  0.9477326277851468,
                  -0.5780469173370727,
                  0.8647873701824507,
                  0.4002543497222497,
                  -0.9664587546226271,
                  -0.9082498452502893,
                  0.08660339516323633,
                  0.8359753656254973,
                  0.7271874366478752,
                  0.3644273245161729,
                  0.9187510827972754,
                  0.5365343631633419,
                  -0.8190085016887767,
                  0.5981141597771747,
                  -1.2196222403942505,
                  -1.0496240317362715,
                  -0.6254661398150102,
                  -0.916916610277639,
                  0.25608328620268045,
                  0.392007497973425,
                  -0.3757026061585272,
                  -0.9264324960204136,
                  -0.2875190831966226,
                  0.30128827089876725,
                  0.0525208187402932,
                  -0.13310311250454632,
                  -0.1747063570886531,
                  -0.504224330528971,
                  -0.38415244835589396,
                  -0.4326584837273323,
                  -0.5260056904687769,
                  0.47877139715549166,
                  -0.453591720221084,
                  0.8228667967236231,
                  0.2896198924945964,
                  -0.4900631201080057,
                  -0.929373857707463,
                  -0.08392754683700977,
                  0.8243555589834035,
                  -0.25122264246536674,
                  0.5955750961741814,
                  0.19054168380041828,
                  -0.004167951169479343,
                  0.7678526723870741,
                  -0.543930230534812,
                  -0.3385627192649829,
                  -0.4969413851903201,
                  -0.6283664963737072,
                  0.710229070602628,
                  0.053944509729808465,
                  0.6539283087566857,
                  0.23106524836451894,
                  -0.9035221278903859,
                  0.8324170315688502,
                  0.7230344032617856,
                  0.5917457376348957,
                  0.45324423122432694,
                  -0.6295119606084164,
                  -0.022749271551433935,
                  0.06229849673886001,
                  -0.6055183926882717,
                  -0.5373273790565971,
                  -0.8066178980467207,
                  0.8908911857848195,
                  0.06439435090745134,
                  -0.4075506680987174,
                  -0.056755348629379476,
                  -0.7173108824180792,
                  0.8530248301791777,
                  0.6000998089204639,
                  0.6778598888385119,
                  0.2973334493266375,
                  1.0351462959807525,
                  0.5499883200702215,
                  -0.24206634989986875,
                  -0.2591933794053103,
                  -0.40341881237580196,
                  0.7529399990265461,
                  -0.32017326042556704,
                  -0.34303970965701064,
                  0.8829076806070739,
                  -0.7763573834519446,
                  -0.17902897876290336,
                  0.15499295219773127,
                  -0.585181377439681,
                  0.9040425243645437,
                  -0.5919732202393204,
                  0.40198813827777924,
                  -0.7529078491066112,
                  -0.31487629803650163,
                  0.16325841909535274,
                  -0.6150219505357941,
                  0.35545662378412024,
                  0.7476467622284745,
                  0.44653140652373935,
                  1.0504447352084827,
                  0.8361150937852402,
                  -0.02199585109345739,
                  -0.6639291696725245,
                  0.3085387073913351,
                  -0.06388334809715068,
                  0.9010265025104781,
                  1.0694510101467258,
                  -0.5012426500061251,
                  -0.2627550473894248,
                  -0.7669815109762045,
                  -0.6749042838385625,
                  0.8275034082105996,
                  0.6696283836261363,
                  -0.3554388911588416,
                  0.11397481132380474,
                  -0.49283333887426994,
                  0.4626137123940626,
                  0.3028402860919757,
                  0.13545758735278257,
                  -0.23573891241156097,
                  -0.7762005879057842,
                  -0.6009337860916697,
                  -0.4537881161665405,
                  0.6343609810557173,
                  0.20969837942364927,
                  -0.37064341074104346,
                  0.34406166304676816,
                  -0.3876493611134962,
                  -0.24852633771945834,
                  0.49718106938231066,
                  0.5442581691967034,
                  0.6430180930031071,
                  1.1389722227442105,
                  -0.5377611814729369,
                  0.6691331960239129,
                  0.2293764866527339,
                  -0.28921679335962897,
                  -0.6044165130360765,
                  0.5652812713542089,
                  -0.9515873556268643,
                  -0.28394644622418647,
                  -0.5185382722502183,
                  -0.732259981750405,
                  0.5749847757872744,
                  -0.7522904021384919,
                  0.09250767037887025,
                  -0.19934081591679464,
                  -0.3979242735680253,
                  0.08600002434160263,
                  -0.5961684439457614,
                  -0.9871984650962655,
                  0.4642516866997894,
                  0.22019293681996369,
                  0.22039828039628662,
                  -0.6150768843551842,
                  0.522621589502427,
                  0.3906812080945681,
                  -0.19797281730761032,
                  -0.3282051450373034,
                  -0.7412265124660635,
                  -0.7972615566622427,
                  -0.6843450818657967,
                  -0.7253645051812637,
                  -0.7876905687100295,
                  0.21315423172865286,
                  -0.5995518575070311,
                  -0.5542697058322326,
                  -0.8529790316507523,
                  0.3765529817518873,
                  0.22280589732422482,
                  -0.5836509534963094,
                  0.269374760258387,
                  -0.9313447967556243,
                  0.7981959086455634,
                  -0.4845751085139556,
                  -0.5137761590246863,
                  0.27731296115652837,
                  0.3854485876362227,
                  0.3292694192509181,
                  -0.7942179986745129,
                  0.6368233516511279,
                  0.4642464694536766,
                  -1.0557074836028046,
                  -0.1977385238319449,
                  0.3034119850793677,
                  0.5951969872746912,
                  -0.9632466126844951,
                  -0.19769861164152255,
                  -0.6985697092618575,
                  -0.8089788379434267,
                  -0.3367795222309618,
                  -0.48393167747223576,
                  -0.9120757824203551,
                  0.73572643491454,
                  0.08707323690775966,
                  0.07865341088711911,
                  -0.5839722665307125,
                  -0.6325902204251573,
                  0.33005883689444027,
                  -0.0006409894683580413,
                  -0.7391459063744532,
                  -0.8080681609134247,
                  -0.18422786761018717,
                  0.5435258647998276,
                  0.6008132408546452,
                  -0.630104101168231,
                  0.3853037152072777,
                  -0.8601587012692725,
                  0.9653962999454234,
                  0.8213869801486539,
                  0.07781298828351466,
                  -0.40680621580572995,
                  0.5983684182958552,
                  -0.20684596990549484,
                  0.418888056349142,
                  0.10779798070751938,
                  0.6054441035978241,
                  0.9559885232792774,
                  -0.7934086152505863,
                  0.5025494945344949,
                  0.8085077010636179,
                  0.5646142801280574,
                  -0.6225267465616833,
                  -0.025258123684799235,
                  0.810437617450217,
                  0.23530698102270844,
                  0.1293983554422532,
                  -0.9845860054331811,
                  0.8527466184606184,
                  -0.8366943989437604,
                  0.878558406345348,
                  0.6714873774286891,
                  -0.4864303132221397,
                  0.5710707580127536,
                  -0.13995407357689604,
                  0.6105789035542252,
                  -0.05299240782498285,
                  -0.6540881963047492,
                  -0.9693261905715658,
                  0.4855686352657726,
                  0.00916522625729658,
                  0.6359282879834862,
                  -0.4298102466655848,
                  0.039225627847072835,
                  -0.7257118586856756,
                  0.22299441916239615,
                  0.21740344020030733,
                  0.12638457037905457,
                  -0.44856828084219913,
                  0.3082706130254776,
                  0.6557765190031388,
                  -0.8891563720365507,
                  0.8578742469033067,
                  -0.40338901427244633,
                  -0.9773515844684213,
                  -0.25371632049418075,
                  -0.7956370646373094,
                  -0.16442461375797102,
                  -0.5671719836741125,
                  -0.07134290477244676,
                  0.4473743373363832,
                  -0.525364887562267,
                  0.10546435391019653,
                  -0.10519595880152026,
                  -0.8194344056688285,
                  -0.8306919090946222,
                  -0.9076993175001511,
                  0.7472656053664526,
                  -0.5065992162340862,
                  -0.4062400592298212,
                  -0.03489118164457646,
                  0.693791140557377,
                  0.41344228781736186,
                  -0.06824511998743064,
                  -0.1624026270076395,
                  0.9542316261254723,
                  0.4763995430988949,
                  0.12759387652569745,
                  -0.44333850719088935,
                  0.5730997010413715,
                  0.5172371458855006,
                  0.8006879498886437,
                  -0.33532451251824313,
                  0.07804810540671374,
                  -0.32090889471888584,
                  0.7355818759738066,
                  0.9524754147316177,
                  -0.23912375545004227,
                  0.5114546660107422,
                  -0.2900068806979741,
                  0.5457907601171446,
                  -0.26389002490868907,
                  0.8288454528089872,
                  0.8446997402441856,
                  -0.7259784420982179,
                  -0.4105903296218779,
                  0.4579287703907543,
                  -0.03068037496221485,
                  0.38061269031177647,
                  -0.5433069566666117,
                  0.5168655879391821,
                  -0.09048602992904746,
                  0.061228829050894364,
                  0.1171302399284507,
                  0.4390052868476813,
                  0.8881918726051655,
                  -0.23996192446234715,
                  0.24888280185312253,
                  0.7953432852807774,
                  0.49210051265683,
                  -0.9416324324500588,
                  -0.9292062068860991,
                  -0.582054798460482,
                  -0.3909548655871937,
                  0.64865223649121,
                  -0.24437618414889073,
                  0.43435025602180666,
                  -0.4192198240492724,
                  0.9657781182947329,
                  -0.10619693656229279,
                  -0.31814840558193946,
                  0.3457253157634026,
                  0.5101808502900219,
                  -0.9075382839991544,
                  -0.1641002172480103,
                  -0.7858548858254532,
                  -0.8585633803147574,
                  0.4897570016048403,
                  0.5080193356087501,
                  0.3794856611696153,
                  -0.3797577930156791,
                  -0.3511606061980715,
                  -0.3145122913736855,
                  -0.35729375381460277,
                  -0.9589436840878414,
                  0.5400729484868251,
                  -0.39886171788344227,
                  -0.33930715070658357,
                  -0.8181750633286442,
                  -0.1481563608447507,
                  -0.9870218076747856,
                  0.6735412428056056,
                  -0.17510563317925687
                ],
                [
                  -0.4291274634206821,
                  -0.1615762004327861,
                  0.06191650562620099,
                  0.9443922232466027,
                  0.4647499960334942,
                  0.6777044731500355,
                  0.5317107828333167,
                  -0.6023668941718183,
                  0.7500798915583609,
                  0.895877868211576,
                  0.6531097304238997,
                  -0.12933962208299565,
                  -0.31171729700442485,
                  -0.26161374718136976,
                  -0.04580629176844697,
                  0.15983001965345522,
                  -0.3251939488465059,
                  -0.29382405386837407,
                  0.2878176354161184,
                  0.964845185359978,
                  -0.727947833461994,
                  0.7283418219620379,
                  0.32639583031410657,
                  0.0759961579719719,
                  -0.3616241348964926,
                  0.3543242116807601,
                  0.16410861343977245,
                  0.04891031803460466,
                  -0.9154977560255859,
                  0.3885195824879797,
                  0.7238765729575092,
                  -0.9404865703439378,
                  -0.7288770735701116,
                  0.29979741895597156,
                  0.3920426878824337,
                  -0.5693237816913982,
                  0.4267561424569002,
                  0.31326130483102127,
                  0.17620279258401375,
                  0.3449936901896014,
                  0.8165347225622068,
                  0.5344112574346896,
                  -0.13104951929183872,
                  0.768234923082858,
                  0.392178367342712,
                  -0.5303266788620965,
                  -0.548421940084847,
                  0.9822296898811274,
                  -0.9495080493396648,
                  -0.025843550440633804,
                  -0.35717966963471515,
                  0.1535731862158294,
                  0.47197496661742333,
                  -0.7524823691376219,
                  -0.9956611066246492,
                  -0.2595316749971035,
                  -0.4047555751410412,
                  0.9318246596425865,
                  0.4553055774370933,
                  -0.13905617297045403,
                  -0.11052796954763791,
                  -0.3174562065319457,
                  0.66290282814425,
                  0.8648104437450693,
                  0.8059802226198471,
                  0.2948235285348562,
                  -0.5074503666054531,
                  0.6203023725236846,
                  -0.46752602757539197,
                  0.039508511537117375,
                  -0.07885368696056799,
                  -0.7345692998183063,
                  -0.6796817751043132,
                  -0.4806857989929119,
                  0.8899506736307774,
                  0.5322644843264743,
                  0.3829484299405353,
                  0.1656122155938476,
                  0.5863335521456117,
                  0.9019408969348927,
                  -0.8377162620034345,
                  -0.26834494343413207,
                  -0.44891928145827986,
                  0.5678219380838709,
                  0.4362886492153124,
                  -0.6726359514832025,
                  -0.827553622258494,
                  0.6334185441025624,
                  -0.38858209278432077,
                  -0.4495517106288397,
                  -0.1283686949018192,
                  0.33688935499347733,
                  0.5740407719369868,
                  -0.01256670438202609,
                  -0.9389490512912482,
                  -0.7306358788764613,
                  0.29343699339164303,
                  0.6799801222636886,
                  -0.02873591315181604,
                  -0.8047054454161139,
                  0.02324242430980245,
                  -0.6131318589186355,
                  -0.852335045304351,
                  0.11688307476503343,
                  0.6835448128473738,
                  0.9730411141751327,
                  -0.11231056906521321,
                  0.35103386426990923,
                  0.4997365435701068,
                  0.742792056879404,
                  -0.951770758981854,
                  0.05428490024151866,
                  0.4923737643728816,
                  0.3465363832477961,
                  -0.02505450475912907,
                  -0.14931719770189708,
                  -0.8742322452157969,
                  -0.7045309093441924,
                  0.2664776089163659,
                  -0.6063603267318516,
                  -0.8144700988607878,
                  -0.8278590566384545,
                  -1.0231011553041753,
                  -0.31999909395984577,
                  0.6950821256785396,
                  0.43739863096564485,
                  0.2546946974151617,
                  -0.8150312631281746,
                  0.6581532932401708,
                  0.16769371486859858,
                  -0.4463782168276877,
                  0.6758328472895193,
                  0.11737111314791847,
                  0.26616679151105144,
                  0.9310022359967993,
                  0.08394920969523711,
                  0.8599149465420249,
                  0.5023418785696846,
                  0.3772129100766546,
                  0.9231489954387557,
                  -0.9249364584877409,
                  -0.31730445398353746,
                  0.28955197894139895,
                  -0.3733457485497619,
                  0.6446524128671928,
                  -0.1685438624069712,
                  -0.8608259396845818,
                  0.07462333747725367,
                  -0.4340427978803233,
                  0.7065569019714748,
                  -0.34345130254087164,
                  -0.11924194122872975,
                  -0.5316809659435421,
                  -0.7038464969399668,
                  0.13339325508005048,
                  0.8564426545912714,
                  0.7522858443616909,
                  -0.13004605851857726,
                  0.0759847468749832,
                  -0.48449914329274657,
                  -0.7527906466488372,
                  0.02134929560467427,
                  -0.6565778433792925,
                  0.7083694575422756,
                  -0.7321916799291954,
                  -0.08072439274470793,
                  0.4929649962254749,
                  -0.9945839281495212,
                  -0.9260552610590058,
                  -0.6396298036918564,
                  0.3818484130090185,
                  -0.300132436497682,
                  0.8788827540567972,
                  -0.6345260839614745,
                  0.7060925381521507,
                  -0.6251681862796545,
                  0.8904976020241545,
                  0.9114264633649662,
                  -0.32184493694148775,
                  -0.019337109455054163,
                  -0.5147862617960826,
                  -0.5477886062013754,
                  -1.112821316929851,
                  -1.0297326807324567,
                  0.35833567478509115,
                  0.5285807974770038,
                  0.9444758988672561,
                  0.11008164794897907,
                  0.36514279399378147,
                  0.4746815391501221,
                  -0.7805238193211861,
                  0.6769665303767035,
                  -0.8416143280804815,
                  0.20370849817034475,
                  0.3093135505281518,
                  0.38966381131936867,
                  0.21772469414704465,
                  0.7205392552013038,
                  -0.8951839391983307,
                  -0.06868240341250909,
                  -0.8521085207157559,
                  0.15761084001764752,
                  -0.9376973086439687,
                  -0.6762797320877281,
                  -0.848515116083031,
                  0.6557525910849054,
                  -0.33448859186526086,
                  -0.2917286230976759,
                  -1.058942371103138,
                  0.4006216589465832,
                  0.7295998555086248,
