{
  "schemaType": "flow",
  "schemaVersion": "0.0.1",
  "id": "1234",
  "flows": {
    "flow": {
      "flowType": "flow",
      "nodes": [
        {
          "id": "1fb71439-a841-486a-82c1-7cb9460e0b74",
          "x": 482.9330940943892,
          "y": 223.0456608868027,
          "width": 215.7890625,
          "height": 171,
          "nodeType": "Shape",
          "nodeInfo": {
            "type": "neural-node-input-layer",
            "formValues": {
              "weights": [
                [
                  0.10042773771597435,
                  0.5422272648883704,
                  0.246011695591851,
                  0.6376441824413974,
                  -0.11615699551840208,
                  0.7675638818193371,
                  -0.908993817196198,
                  0.023656229134781714,
                  0.0032551370525695233,
                  -0.37344138010456707,
                  -0.026357489661651634,
                  0.5395097524085837,
                  0.4948756759649253,
                  -0.6047450818542432,
                  -0.6480852060324596,
                  0.4198629056414127,
                  0.609451613124588,
                  -0.9715102984586839,
                  0.1282134929720682,
                  0.5798040274368819,
                  0.30289196652047545,
                  0.7072135717312795,
                  0.061458583561736724,
                  0.8491331803686171,
                  0.13342594585843282,
                  -0.5726734892564176,
                  -0.2712280797475546,
                  0.69723472627006,
                  -0.7944722627402783,
                  0.6679191794765806,
                  0.2431510241556043,
                  0.9950613279360843,
                  0.4800543461019857,
                  -0.1516027015598853,
                  -0.7764192098256819,
                  0.6000265449240589,
                  -0.5084052246562134,
                  0.27538241585278633,
                  0.8851823013252564,
                  0.9206003601084122,
                  -0.0999181867359786,
                  0.14392070625507103,
                  -0.8991135497490875,
                  -0.8986667222557463,
                  -0.6922361483251973,
                  0.46994557206760845,
                  -0.4197502573726797,
                  -0.14808139632301343,
                  0.9616179134188281,
                  -0.5560298722351593,
                  -0.9163609058940865,
                  0.4471646653110626,
                  0.8370219102791885,
                  -0.2532484405287714,
                  -0.28028800276716215,
                  0.03910768641596096,
                  -0.9361789662294226,
                  -0.24890210010360825,
                  -0.3066343806833629,
                  0.8162343060595911,
                  -0.11248975886021917,
                  0.9317439632745286,
                  -0.48551517072909434,
                  0.49816084779067316,
                  -0.3734366617929358,
                  -0.7030008846526362,
                  -0.0034749856095398,
                  0.054042026650880697,
                  0.043063903048050654,
                  0.711046742898098,
                  -0.23600695036046673,
                  0.9287708135305659,
                  0.8656195034567234,
                  -0.4350574552372322,
                  -0.2658420365585256,
                  -0.2551247376638486,
                  -0.2633157175993583,
                  0.847404403049902,
                  0.6254376577911607,
                  -0.22386732849567093,
                  -0.8996980788102382,
                  -0.3206886709759482,
                  0.2704439095426774,
                  -0.9636602543434027,
                  -0.8486774662524912,
                  -0.4927896642329608,
                  -0.06813570395138058,
                  0.7107348268120992,
                  0.3625121152457136,
                  0.056476581511366586,
                  -0.8450192859957171,
                  0.9852359311209704,
                  0.41479758437494363,
                  -0.141730636547757,
                  -0.27259553082887067,
                  -0.8511990620995593,
                  -0.7883038425810044,
                  0.3923401475961663,
                  -0.4504914632487129,
                  0.6578706271878576,
                  -0.2924152894687646,
                  -0.3805588134271006,
                  -0.728216615226408,
                  0.9259905332629007,
                  -0.29728289497791527,
                  0.5532022277841302,
                  -0.036297369021983196,
                  -0.4447586732623307,
                  0.27513041520365356,
                  -0.6101591981299714,
                  0.4591060057955709,
                  0.7877803891316346,
                  -0.16013450400132268,
                  -0.29851392784884956,
                  0.8737048782619934,
                  -0.18578198723905937,
                  -0.3259444672344574,
                  -0.7068124490507878,
                  -0.8420683675961442,
                  0.2899000864564378,
                  0.12407946682859915,
                  -0.9293819180145373,
                  -0.11344056773005386,
                  -0.3251573627152334,
                  0.6367920572182414,
                  -0.8508475343692626,
                  -0.19066130630062922,
                  0.7769290502485663,
                  -0.8513056859483185,
                  0.4345186575884712,
                  -0.01265327970247244,
                  -0.15228181242587732,
                  0.7970702564651378,
                  0.27162874727250413,
                  -0.8372866218398289,
                  0.9608075111700224,
                  0.15431831268363252,
                  -0.6655540742037139,
                  -0.7449987887619365,
                  0.32855740191348515,
                  -0.45074706070447856,
                  0.31130154021611345,
                  -0.061549520549237347,
                  0.5917440345824572,
                  -0.8107942397142399,
                  0.5124378864709713,
                  0.2890762147754185,
                  -0.5652983541739172,
                  0.07569279322746124,
                  -0.09533570502625503,
                  -0.24183942001860695,
                  -0.5863931662109116,
                  0.05407212080527412,
                  0.3282852356178745,
                  -1.0203958675674896,
                  0.5896466944331973,
                  0.5105836748057966,
                  -0.7331236100255931,
                  -0.5173104734364528,
                  0.7426442186573191,
                  0.22534920677000742,
                  0.14473953824237545,
                  -0.5216608673982308,
                  -0.24374232626185208,
                  0.9320771980709353,
                  -0.5734732176615027,
                  -0.38399073654296595,
                  -0.03623389825801704,
                  0.3033524931724809,
                  0.5238781259647558,
                  0.5119490286915105,
                  0.17579156363492426,
                  -0.11248338346192002,
                  -0.05130531771373958,
                  -0.04674741304525912,
                  -0.30112287302180585,
                  0.7850026219881449,
                  0.41330222134863437,
                  -1.0273764144903286,
                  -0.2799410202247281,
                  -0.5834343475171238,
                  0.7696853596855566,
                  0.4197654041408009,
                  0.43654645762287736,
                  -0.4281890689557253,
                  -0.6017220252575365,
                  0.3339083415718118,
                  -1.105716130690368,
                  -0.9080156682194845,
                  -0.594456135240365,
                  0.2800365359214017,
                  0.2392534553019136,
                  -0.37026548269443305,
                  -0.3484053722936515,
                  0.888672798978274,
                  0.3196060750937586,
                  0.32618068244449683,
                  0.8578791440464864,
                  -0.251755598361128,
                  -0.15177094738388205,
                  0.006984290099334919,
                  0.4624574186862604,
                  0.543326601459253,
                  -0.916636697846726,
                  0.69267467856075,
                  0.6458574369332761,
                  -0.9363579138677365,
                  -0.7881578345569706,
                  0.12768134796418718,
                  0.43311867468869847,
                  -0.2386252535511716,
                  0.5529473270275083,
                  0.6226746026670915,
                  0.6416044781442544,
                  0.19676520538421477,
                  -0.0354751520298735,
                  0.520923164466762,
                  -0.032543380980119954,
                  -0.1792808320390733,
                  -0.6675194113195885,
                  0.11524982206671984,
                  -0.7885443516354962,
                  -0.47008536263871803,
                  0.9742750278926042,
                  -0.6935735714312106,
                  0.04030128298521072,
                  0.9418763337515209,
                  0.9935251031310175,
                  0.9402406785878747,
                  -0.2481867272762504,
                  0.3226704164883587,
                  -0.6187940243702129,
                  0.1719816939156297,
                  -0.7593880363248976,
                  0.5542147570609874,
                  -0.5978124578109032,
                  0.8544206899739051,
                  0.036472640604334645,
                  0.28926023714216975,
                  -0.7503183107784073,
                  -0.7078333477459821,
                  0.412219352986978,
                  -0.7221614422441066,
                  -1.073492995462828,
                  -1.0326222603924233,
                  0.17046038738513183,
                  0.21294069343547892,
                  0.14226467122488917,
                  0.048307313794266275,
                  0.3512006044872182,
                  -0.9957374069650068,
                  0.6760934539316521,
                  0.6853306308637399,
                  0.9430455011470706,
                  -0.8368797090850075,
                  0.871183463405218,
                  0.5930430882902562,
                  0.4421495975233925,
                  -0.8227650076669998,
                  0.4062122926165282,
                  -0.2722784813422214,
                  -1.0563845038097044,
                  -0.31295335557079024,
                  -0.1164136602997656,
                  -0.9524044005155139,
                  0.3424964995210732,
                  0.4558580670172326,
                  -0.6907190167118349,
                  0.11176416493275734,
                  0.24982754083290082,
                  -0.7767575561340891,
                  0.5260149975233327,
                  -0.4712809529107789,
                  0.48271276861744045,
                  -0.6439042646453796,
                  -0.09245123054580602,
                  0.5623353475322119,
                  0.5550546602808428,
                  -0.3586165147979946,
                  0.09554340745620804,
                  -0.8932526525620119,
                  0.9162830201801495,
                  0.7936006057925313,
                  0.9325724129470216,
                  0.88331959872797,
                  -0.8169053149537115,
                  0.6388524485282308,
                  0.10402330346854169,
                  -0.25362648346464656,
                  0.7893356331010715,
                  -0.6827506821107352,
                  -0.8249257034464147,
                  0.08391189748468404,
                  0.9202353974308345,
                  0.7611772859136818,
                  1.3190886051867594,
                  0.477597996372503,
                  -0.1675478880287599,
                  -0.4693331205328751,
                  0.6529826945492062,
                  0.12044297450521992,
                  0.08409128628568815,
                  -0.23731766420377312,
                  -0.14812049685672796,
                  0.3028946994137047,
                  0.22985895331851855,
                  0.8123352226815297,
                  -0.3731047722540701,
                  0.32230189305085055,
                  -0.5476267928314162,
                  -0.5242131536335717,
                  -0.3137100555206345,
                  -0.27529526683368083,
                  0.24427934551288435,
                  0.6951537869292029,
                  -0.7177700389401334,
                  -1.0155138125951793,
                  -0.7548029125166581,
                  -1.0431503611330226,
                  0.021910151343634117,
                  -0.022715645129264668,
                  0.09297792296715086,
                  0.4410361120819244,
                  -0.5775901815905027,
                  -0.06131189713001861,
                  -0.5196565784689666,
                  0.43995209121939194,
                  0.4183947106972904,
                  -0.6529073742776715,
                  -0.9460607387023257,
                  -0.9797040490570151,
                  0.5244050329152272,
                  -0.33652095923225506,
                  -0.010218099407146283,
                  0.10893121942371309,
                  -0.3868361140802059,
                  -0.5689454184540632,
                  -0.5552076681118949,
                  0.9514403210050756,
                  0.2875456454990116,
                  -0.05245080125012969,
                  0.6916999530162992,
                  -0.5031303980653001,
                  -1.0235780709691333,
                  0.8555806738329169,
                  -0.01991867776614338,
                  -0.2500258150817105,
                  -0.43002898142441454,
                  0.21903115627912018,
                  -0.4445759480316276,
                  0.4261267666800944,
                  -0.6117790421868332,
                  -0.33557753979001537,
                  -0.7452299952849587,
                  -0.6066122944633371,
                  0.28356554876208934,
                  0.8041045555724029,
                  0.7443100536548426,
                  -0.31157128599547834,
                  -0.39172305661890505,
                  0.8822294235113858,
                  -0.6426274617706469,
                  -0.23370009708717765,
                  0.9931272722264586,
                  -0.8257707252423971,
                  -0.9899623616531268,
                  0.9176954289409961,
                  -0.827434007875967,
                  0.154815996786709,
                  0.4145689191477311,
                  -0.6693431483991735,
                  0.1913860301481157,
                  0.4653745990149663,
                  0.02921720378338596,
                  0.09561716642394677,
                  -0.12310670638202192,
                  -0.7957140052696898,
                  0.8075189614676699,
                  0.6384437397394311,
                  0.22686061295518892,
                  -0.8494506626588219,
                  -0.3375569230579424,
                  -0.5746341770676573,
                  -0.12919274168564532,
                  -0.8767298257796915,
                  -0.046113288589061864,
                  -1.034640203474028,
                  0.5734715859526195,
                  0.09655195445857254,
                  0.684425456750767,
                  -0.6323670259167091,
                  0.15697846947004734,
                  -0.30152395135265886,
                  -0.0438373767989213,
                  0.29226606091812385,
                  -0.8227115120662406,
                  -0.13634528744487534,
                  -0.20467088450679635,
                  -0.04009641972308776,
                  -0.6540587429816141,
                  -0.21170960763695124,
                  0.24543755317264893,
                  -0.8799657018525714,
                  -0.5966840693656752,
                  -0.47484114755255463,
                  1.080636586897065,
                  0.2929823580886869,
                  -0.7377026838031894,
                  -0.7207598551329787,
                  -0.9227350745654112,
                  -0.909096509890977,
                  -1.00214789921071,
                  -0.5989690089582026,
                  0.1444134812455841,
                  -0.19559750956108363,
                  -0.08898607929568088,
                  -0.7511865281404109,
                  0.89437135037257,
                  0.27878357764493406,
                  0.8874653877024641,
                  0.4068567512142236,
                  -0.2163397951324253,
                  -0.6412656328522779,
                  0.9601854563316579,
                  -0.05894164056498699,
                  -0.8209584360937768,
                  -0.5981033676469896,
                  -0.023828013551718877,
                  0.3936616968773834,
                  -0.6684647969537472,
                  0.6293113325806888,
                  -0.12847960268661643,
                  -0.7048789918869279,
                  -0.22586433271603748,
                  -0.40320057431768896,
                  0.9106589897429831,
                  0.9465797825393197,
                  0.2074905709832986,
                  0.1745614947237997,
                  0.17990182415950579,
                  -0.9444028915997534,
                  -0.38826599603789275,
                  0.8462142637071857,
                  -0.20043934009654135,
                  -0.7340768576559806,
                  0.2443056561800718,
                  0.8895905013658756,
                  -0.5926870451563655,
                  -0.2432397257982819,
                  -0.17106312615985253,
                  -0.24985255788558058,
                  0.5895101441250605,
                  -0.7038186294564086,
                  -0.5479802081030205,
                  -0.9270180021582997,
                  0.0875001928160598,
                  -0.5598467660510384,
                  -0.1240076633384429,
                  -0.9508532453757775,
                  -0.1273068773397842,
                  0.7739114615710421,
                  -0.0030566276453239394,
                  0.8927561739908102,
                  -0.1593180232264196,
                  -0.9533828997154545,
                  -0.35341082370130233,
                  -1.1624205799683145,
                  -0.4173828477521011,
                  0.7080189303322809,
                  -0.20577830144349546,
                  -0.565989997828218,
                  -0.8458680650057342,
                  -0.6151642013222888,
                  0.0915013677319732,
                  -0.4690075898749932,
                  0.2725399960163051,
                  -0.9676003673899722,
                  -0.2128258328687025,
                  0.6262237338418623,
                  0.15665504216531903,
                  -0.5271803056018122,
                  0.32451995751622137,
                  0.10496268437591064,
                  0.7379500801301844,
                  0.7992515714007735,
                  0.6117111783485081,
                  0.6264498258092002,
                  -0.26473358534026786,
                  -0.8678802027690197,
                  0.6616999420159102,
                  0.49081123516555014,
                  0.6938186873552792,
                  -0.8010948323155421,
                  0.44819891657420835,
                  0.14939227297463767,
                  -0.4569326562987828,
                  0.5724217820674384,
                  -0.15100820076531596,
                  0.5571996271984974,
                  0.10646440832793115,
                  0.0618844823166398,
                  0.2710459921836952,
                  -0.3293838072308995,
                  -0.557873315012508,
                  0.7734578916675661,
                  -0.7707803759588634,
                  0.2430408380569269,
                  0.9745338533541018,
                  -0.5761887549491829,
                  -0.6102234121956717,
                  -0.2706180994812287,
                  -1.0331847810213457,
                  -1.1558681048101058,
                  -0.28790434787561453,
                  -0.3625367519382181,
                  -0.26250568823572556,
                  -0.6110798136819455,
                  1.0447342245336613,
                  0.8361501638088293,
                  -0.19993919532492768,
                  -0.8110098472535547,
                  0.6249369548575954,
                  -0.26610249794679036,
                  0.17823191114217268,
                  -0.39933316239438504,
                  -0.08667406369891234,
                  0.5456413419716638,
                  0.7135360441865896,
                  0.1490372744704716,
                  -0.955490755628237,
                  0.934067278659941,
                  -0.7186616806001737,
                  0.2456095903593587,
                  -0.09325819225472554,
                  0.2650570056028164,
                  0.5752996444173417,
                  0.6128775585314974,
                  0.6935054352496429,
                  -0.6316347690305122,
                  0.40370189787566707,
                  -0.00788411502324847,
                  -0.11394993609358847,
                  -0.6277828862430184,
                  0.5731435518045492,
                  -0.9087440196575445,
                  0.6831943034039153,
                  -0.23232550744561525,
                  -0.7238006693656152,
                  -0.7532380811694054,
                  -0.15774014336792214,
                  -0.5292128716821828,
                  -0.24308465174774926,
                  0.8039752573334371,
                  0.8643364609863998,
                  0.7676091933927991,
                  0.4938947710973984,
                  -0.9516332059986312,
                  0.7388726163781347,
                  -0.4061382763216228,
                  0.783390201379842,
                  0.5827568518107129,
                  -0.007934011530122298,
                  -0.4533182312890993,
                  -0.5771221674091132,
                  -0.43641291913161334,
                  -0.06025806225808411,
                  0.7466274345929493,
                  0.49770558592894276,
                  0.12044009274998181,
                  -0.07146729253040324,
                  -0.9305114340058225,
                  -0.25988976696424604,
                  -0.5227003389344969,
                  -0.3383459620487315,
                  -0.44712266629429975,
                  0.7549747775408557,
                  0.4455854105941842,
                  -0.3958094872165299,
                  0.6453517844467498,
                  -1.011087033159138,
                  0.7682595238484825,
                  -0.2980451163429363,
                  -0.25127772359720496,
                  0.7106612796904231,
                  -0.3971298824299425,
                  0.2492401622957836,
                  0.8146925494696333,
                  -0.7623146979187636,
                  0.9005465558103611,
                  -0.48739297995039754,
                  0.307922381688277,
                  0.9886295630095662,
                  -0.43165063519829333,
                  0.8070920014192758,
                  -0.8875511535405471,
                  0.23198732167185288,
                  -0.36703084301653294,
                  -0.0558202654270351,
                  -0.890889973035018,
                  -1.0842625102341907,
                  0.48003179206898156,
                  -0.3040484388282607,
                  -0.3666536474437136,
                  0.4149444534964134,
                  0.5444186714732949,
                  0.5212027606172319,
                  -0.8945025265435963,
                  0.18460788754650867,
                  0.07501146407968201,
                  -0.37385765067228394,
                  -0.9994828631588765,
                  -0.9054464932950951,
                  -0.7814577055652597,
                  -0.4743111648905172,
                  0.6208409238406167,
                  -0.6349280747751203,
                  -0.9825527929101656,
                  0.2396320571908408,
                  -0.49491186950576355,
                  -0.16427452505739346,
                  0.9221532424518216,
                  -0.9135245487550149,
                  -0.7895627585718462,
                  -0.7042429516849055,
                  -0.43745750515249116,
                  -1.0574660452219666,
                  0.5126261375876644,
                  0.4082781388448368,
                  0.0059322213318695645,
                  -0.41330397222712695,
                  -1.1130090787498865,
                  0.5885857198414212,
                  0.3879021021723371,
                  0.8199771580948552,
                  0.23544732138740923,
                  -0.5326284712027938,
                  0.7047836298258404,
                  -0.9919613219085596,
                  -0.5238274438132584,
                  -0.45961324435209266,
                  0.5226698082049709,
                  0.39033552725846477,
                  0.5245725373743211,
                  -0.700328509745292,
                  -0.22397481821038756,
                  -0.1892788086152355,
                  -0.04302680591570329,
                  0.014252309301595894,
                  -0.9054774456964491,
                  -0.8132221192856673,
                  0.1622364516196033,
                  0.8997810792725947,
                  -0.4020648261587189,
                  -1.1055217831114033,
                  -0.5796389183059985,
                  0.45179756865657134,
                  -0.3090787577041811,
                  0.011598128143702601,
                  -0.9467301495562576,
                  1.0982060572120629,
                  0.2662898228423147,
                  0.9846919519752042,
                  -0.6382153529490779,
                  -1.021142667569775,
                  -0.900375652137674,
                  -0.4778357425800849,
                  0.6397733894749061,
                  0.9232757840117696,
                  -0.6704190615972597,
                  0.17926174825042018,
                  0.2951750988933197,
                  0.1276446910812905,
                  0.7587725711111117,
                  -0.4990944402951518,
                  0.03888419826627487,
                  0.12063844091225784,
                  -0.10682428975230361,
                  0.7596922643324033,
                  0.5985337845070035,
                  0.0720978935578033,
                  0.5231779796529767,
                  -0.49194265169992396,
                  -0.2238557786564347,
                  0.23197330336524444,
                  0.34742698354832485,
                  0.581799860148586,
                  -0.8913527431525594,
                  0.0938808198105722,
                  -0.6038052328179006,
                  -0.7041430596772974,
                  -0.18484100964434036,
                  0.22950139717121318,
                  0.0984726920585658,
                  -0.09862200765932622,
                  0.1255247229612729,
                  0.11104271751418111,
                  0.8408150597284099,
                  -0.722176962827902,
                  -0.7751160069856726,
                  -0.13171689175689316,
                  0.9672216252903914,
                  -0.8113330483593746,
                  -0.9665622937753797,
                  -0.787173979579181,
                  -0.646657660625529,
                  0.6762395940010755,
                  0.052873551857083055,
                  0.9367781243563156,
                  0.18279141714482547,
                  -0.8490029366766927,
                  -0.8591938343351009,
                  -0.6427175331846454,
                  -0.46105897297177884,
                  -0.9580624175576313,
                  -0.2502200392853595,
                  0.8440299091043972,
                  0.31787209346351586,
                  -0.016329726609090243,
                  -0.9004269779786499,
                  -0.33155766388069347,
                  -0.36948894561681644,
                  -0.48626440300349794,
                  0.5780610670751614,
                  -0.5307038536473034,
                  -0.4696822855147036,
                  0.4589051653667635,
                  0.786387471439189,
                  0.7126318264148144,
                  0.8901869789057075,
                  0.550705176529676,
                  -0.8435153630141494,
                  0.4173017263691663,
                  0.3445566986827928,
                  0.8950350097175996,
                  -0.4114975725576988,
                  0.5728910916564398,
                  0.8599724864050341,
                  0.752165941379557,
                  0.49034766224176735,
                  -0.33329634379897216,
                  -0.9716943299360512,
                  0.7994742621533864,
                  0.11055531812700574,
                  -0.7814517185215267,
                  -0.7565062258194273,
                  0.5559010343585005,
                  -0.8596057644554779,
                  0.14498368885568813,
                  0.7068360681277595,
                  0.5903495581874756,
                  -0.14445293283072358,
                  -0.6862093077793938,
                  -0.8904585133512106,
                  0.8249039200359078,
                  0.0914791637583523,
                  -0.7244560109435989,
                  0.9454382229190874,
                  -0.15653402943365302,
                  0.7416084521678417,
                  -0.1533058048386673,
                  0.2350082812841685,
                  -0.7026491570455939,
                  -0.5602430102189979,
                  0.9361147671769219,
                  0.6039764907475718,
                  -0.8376712367365124,
                  -0.052559702839064304,
                  0.5903524514945464,
                  0.4446678257069614,
                  0.21309010092804878,
                  0.36134935275881214,
                  -0.22932974452812765,
                  -0.5832039961906734,
                  0.0951846764809106,
                  -0.5045340029414795,
                  -0.8083366347278919,
                  -0.8974904613711208,
                  0.9682168797369011,
                  0.9548225521805991,
                  -0.9403939186884842,
                  -0.42505652829530494,
                  -0.2361566573848366,
                  -0.2662161684180844,
                  -0.18127743444793376
                ],
                [
                  0.305099623433732,
                  0.848830494449345,
                  0.6635080867201237,
                  -0.8469807693124776,
                  0.6246259291953429,
                  -0.8400211854609863,
                  0.12725431821358502,
                  -0.5108574082276749,
                  0.5186155854764585,
                  0.3028481847068649,
                  0.8956920113578124,
                  -0.21964581344237866,
                  0.2483450510286942,
                  0.46333963367818365,
                  -0.6207010559310291,
                  -0.7058273121752157,
                  -0.8558022907283505,
                  -0.4153102664080528,
                  0.9955977572157901,
                  0.8918114375486801,
                  0.3240155318637514,
                  0.40335748437311114,
                  -0.22697079911104145,
                  0.4190875040054798,
                  -0.4714053673719638,
                  -0.20545898028769027,
                  -0.8601581528883253,
                  -0.6037773425831872,
                  0.5574321486374818,
                  -0.8283036052421799,
                  0.6614046153091993,
                  -0.18607481430765915,
                  -0.252203968172541,
                  -0.08015149632058494,
                  -0.4493147316732049,
                  -0.2596437758431984,
                  -0.3726166869513708,
                  0.785830073303001,
                  -0.3238204742877075,
                  0.7964034279774996,
                  0.5248762481148229,
                  0.6256145721127304,
                  0.39143714914924566,
                  -0.6089972247843994,
                  -0.46650842671992115,
                  0.1995466587609072,
                  -0.2314445633133659,
                  0.935805676815267,
                  -0.42289438291773607,
                  -0.7433203770810235,
                  0.20536085569498108,
                  0.19398579367652294,
                  -0.17942370850394473,
                  -0.6150959129328739,
                  -0.9155289358315621,
                  -0.8009147318633918,
                  0.2865397251191313,
                  -0.37185813701819104,
                  -0.8773071807819237,
                  0.05196067081164468,
                  0.18872869735880693,
                  0.09997026697272793,
                  -0.9544041331702702,
                  -0.11903360563853749,
                  0.06600700596729502,
                  0.0439634894315742,
                  -0.9044109412616168,
                  -0.09856635360852307,
                  0.8795077872179378,
                  -0.5029731607188986,
                  0.997284616692016,
                  -0.7726830548238599,
                  -0.17127875965518877,
                  -0.041953454143107693,
                  0.2502380307537372,
                  -0.40949407177875435,
                  -0.83438896982972,
                  -0.532895202331512,
                  -0.6533518915494576,
                  -0.4082001904279152,
                  0.06803528295204696,
                  -0.2065831062350938,
                  -0.7851734252057847,
                  0.3556403698908137,
                  0.1015050951562757,
                  -0.16907255805463928,
                  -0.22086798667759489,
                  -0.8049352009887327,
                  0.9340544747991812,
                  0.3716911110316814,
                  0.9680145552120915,
                  0.5568333143866967,
                  0.6912065736673003,
                  -0.24504364314157287,
                  -0.39424344989798377,
                  0.11402287446238657,
                  -0.9100161976875737,
                  0.3340819576497563,
                  0.1585123972495127,
                  -0.618168387535689,
                  -0.7222148875586762,
                  0.8245400673668709,
                  0.20356684025110078,
                  0.3828938908323286,
                  -0.030744869685098247,
                  1.0045819786205048,
                  -0.5928841572225272,
                  0.8766621977319605,
                  0.33951134220402607,
                  -0.24327036526967172,
                  -0.5557246315563709,
                  0.11398025469787898,
                  0.44392968584019377,
                  -0.4937220899956527,
                  0.14946017716636417,
                  -0.8810704081942005,
                  -0.39090084119146995,
                  -0.7259841806000925,
                  -0.9967096568046523,
                  -0.08478296921532796,
                  -0.5223926097422686,
                  0.6578167048757155,
                  -0.30875737046026336,
                  -0.38922441852330114,
                  -0.49353702598772137,
                  -0.5889409689509245,
                  0.7557994606383619,
                  -0.6821559645330059,
                  -0.7292415736323525,
                  0.5559066029504105,
                  -0.1963916303387942,
                  0.1348151136024224,
                  -0.8058960028635845,
                  0.2014761070471874,
                  -0.19606796171144256,
                  0.649972381903775,
                  0.39848355339724906,
                  0.15746808289425213,
                  -0.3107348713580036,
                  0.21851425449014528,
                  0.9400072479559016,
                  0.4066104512951436,
                  0.9328810521182549,
                  0.427463859937101,
                  0.8017422557005583,
                  0.21744762494025802,
                  0.5202124330238219,
                  -0.38125869946711155,
                  0.08268630847266414,
                  1.0505447575254419,
                  -0.2734600423131624,
                  -0.18558751142132945,
                  -0.44592156959021934,
                  -0.9291774466518398,
                  -0.4464677403560206,
                  -0.009175105481770621,
                  0.024573401827274795,
                  -0.8727912050170658,
                  -0.025459398249931323,
                  0.7505320151102759,
                  0.5939404154970435,
                  0.0976380182267194,
                  -0.21253396396056157,
                  0.5320767446845382,
                  0.35051218788524363,
                  -0.30528758502906,
                  0.04327485285704237,
                  0.578464425096306,
                  -0.6229788077332756,
                  -0.7061872781933927,
                  0.9860444118956864,
                  0.25949445662097986,
                  -0.04559394943450143,
                  -0.7126756553385959,
                  -0.927931498550328,
                  -0.8094093019014813,
                  0.41355393760789705,
                  -0.8404367709215257,
                  -0.5356321930081082,
                  -0.4741524031700742,
                  -0.5844880600649022,
                  0.23424099916344637,
                  -0.8717679051656754,
                  -0.7238945645562572,
                  -0.7500859969099072,
                  -1.0346186118728526,
                  0.14454488507727264,
                  -0.9977995657023593,
                  -0.3464071387450687,
                  -0.19232133906351404,
                  -0.24742136940360993,
                  -0.5400213521649379,
                  -0.17424978223614984,
                  0.33520102450096295,
                  0.5417302690981106,
                  -0.6505686786038686,
                  0.09696059667140473,
                  0.10685297781392351,
                  0.995998061268254,
                  -0.2913031900727171,
                  0.2373845559128856,
                  0.6867437334569823,
                  -0.7899501713245526,
                  0.27221272930036944,
                  -0.8156205126274926,
                  0.8076714194317764,
                  -0.2773964020558782,
                  -0.6339721348157245,
                  0.3586209572958515,
                  -1.2473255007257524,
                  -0.7825542272801593,
                  0.021042858261677223,
                  -0.7407390285087592,
                  0.13626074028714164,
                  0.5112092831979934,
                  -0.5959675318305633,
                  -0.002275409714378412,
                  0.6472954958776032,
                  0.5326851010440361,
                  0.5357937515029739,
                  -0.7980066460987533,
                  0.7505874053170374,
                  0.8334089542900759,
                  -0.912011874624862,
                  0.983024947116364,
                  0.5227042522284383,
                  0.8898025962152082,
                  0.6547844067764517,
                  0.16005740109262953,
                  -0.273792631560165,
                  -0.04113569820296081,
                  0.2825361097530677,
                  -0.22699176707429233,
                  0.25103632378547275,
                  -0.7861897657749433,
                  0.01007537465845983,
                  -0.905270188750748,
                  -0.1295306854525948,
                  -0.6240517239992424,
                  -0.34833198195738657,
                  -1.176855005717507,
                  0.1274755517009703,
                  -1.03718979509966,
                  0.13097525890479442,
                  -0.2833101280442779,
                  -0.2324816599377385,
                  0.02148650684402016,
                  -0.4118503916573809,
                  -0.7490411734214237,
                  -0.304970790282805,
                  -0.3681476334564728,
                  -0.008196528812024817,
                  -0.9019383482839939,
                  0.9478226876154856,
                  -0.3678220598912052,
                  0.8235246911603428,
                  0.32358868430319854,
                  0.07705924821579342,
                  0.00755224761239893,
                  0.5514114257486474,
                  0.14296824316003026,
                  -0.571547885977243,
                  0.8027298154055171,
                  -0.8390155007253036,
                  1.0448322242309647,
                  0.7682161478378405,
                  -0.5529411865631988,
                  -1.1089142909078527,
                  0.21060645167828426,
                  -0.7126588908506598,
                  -0.002779318821880038,
                  -1.1292187117988124,
                  0.19014998564189495,
                  -0.9556508313524984,
                  -0.9453282803540841,
                  -0.28003648327578046,
                  -0.23941317766928602,
                  0.029868233159885415,
                  0.02429983462298186,
                  -0.5050913209148747,
                  0.4922761997785492,
                  0.6352120738536602,
                  0.17543706408531487,
                  -0.22194383205602464,
                  -0.8067668680898699,
                  0.010810125998528384,
                  -0.21025208297412876,
                  -0.6967733551834763,
                  -0.1694865315082368,
                  -0.017905608819040013,
                  -0.7578619077529216,
                  -0.04183948076229282,
                  0.5609067353964317,
                  0.4447118239301416,
                  -0.6491246818506976,
                  0.33707643391757863,
                  -0.12587834149828542,
                  0.5813136708054054,
                  0.49193030739977306,
                  -0.7604218205779915,
                  0.17865212381394804,
                  0.14012062507116607,
                  0.17396373503949844,
                  -0.695106311581764,
                  -1.0891881063637519,
                  0.29811876318903346,
                  0.7471646724210174,
                  0.44287017422577246,
                  -0.6427387083939493,
                  -0.5967027710004787,
                  0.2989382232949653,
                  -0.7021177758301216,
                  -0.1554902310232349,
                  0.6869408758351326,
                  0.7223705738317309,
                  -0.546020610235142,
                  0.3275219711494187,
                  0.9426930816649742,
                  -0.35319345478479564,
                  0.7053420372460768,
                  0.8817644751930065,
                  -0.4130212591410922,
                  0.2625900043227507,
                  0.37356084164200526,
                  0.25621068872910724,
                  0.5827925345050122,
                  0.20334660351302858,
                  -0.4871275907450659,
                  0.2047822635116677,
                  -0.25823714348162385,
                  0.27536382674316895,
                  -0.6080122994160966,
                  0.010249969227015047,
                  -0.838831102017467,
                  -0.9500853394708056,
                  -0.33228602653970274,
                  -0.3886124985198296,
                  0.11481444663416182,
                  0.8858774696845859,
                  -0.40979010988440523,
                  -0.46992627335635856,
                  0.655529539803726,
                  -0.7817758760366502,
                  0.10928019855791739,
                  0.19258990806085585,
                  0.6077219293297019,
                  1.1435862890226023,
                  1.229066968990978,
                  0.6448917777235605,
                  -0.5834778683969861,
                  -0.611747086197404,
                  -0.7900291208942556,
                  -0.3143625839580248,
                  0.8857781243102545,
                  -0.09983853623950034,
                  -0.3705028365745453,
                  1.0928055838306392,
                  -0.5849927912221276,
                  0.5832758598779142,
                  -0.8287467199952439,
                  -0.15348043755597499,
                  0.5977027467092048,
                  -0.5711706589954859,
                  0.9316695613139085,
                  -0.8651946390517335,
                  0.4943414786096988,
                  0.6769161879414809,
                  -0.9036393097280837,
                  0.5082318457579645,
                  -0.48238981815494575,
                  0.6012076651386298,
                  1.1836467885664836,
                  0.22757632690138452,
                  0.7636341890863806,
                  0.8242763160209786,
                  0.5177554245509267,
                  0.051682977138529554,
                  -0.3316428528208748,
                  -0.647118228246015,
                  -0.1683574474740794,
                  0.2980138844642194,
                  0.5345006943730581,
                  0.16470802940290147,
                  0.004447387593678177,
                  0.14072402313629925,
                  0.630542912355229,
                  -0.6266190236904177,
                  -0.23423133760271225,
                  0.759405026828408,
                  0.10635158125417862,
                  0.6417376777733506,
                  0.055566307499606005,
                  -0.6632169579320744,
                  -0.8017771939323035,
                  0.10230321130313588,
                  -0.3104913556921768,
                  0.6447771275903271,
                  -0.049122975616033855,
                  0.09579688096673539,
                  1.082721665028219,
                  0.46913261996909666,
                  0.39634610307436124,
                  0.016616676753984025,
                  -0.6961079849744086,
                  -0.4266151883850645,
                  -0.6609616837405109,
                  -0.6698087464246159,
                  0.6889006343948458,
                  -0.06432207070459309,
                  1.6685593204754419,
                  0.8750714768838764,
                  0.012433818035992129,
                  1.1120894674130422,
                  0.03564093172983212,
                  0.4904501641094002,
                  -0.2495100771083405,
                  -1.0834940196457232,
                  -0.5360082001561095,
                  0.14900512192531473,
                  -0.7695785263513732,
                  -0.4694648257056637,
                  0.9601432424504832,
                  -0.30456578307619747,
                  -0.05446382094465103,
                  -0.6058881616073079,
                  -0.1712531233336972,
                  0.6184966282276575,
                  0.6502515684649238,
                  0.5517111242704014,
                  -0.426006737614662,
                  0.9589629999554768,
                  0.6353362590568621,
                  0.32260219196195195,
                  -0.7426684535731471,
                  0.14804429535033267,
                  1.205225464941289,
                  1.5636537521810618,
                  -0.16762392883807137,
                  0.5647342824270295,
                  -0.24681181463659524,
                  0.3120311868757999,
                  0.5911366080483728,
                  0.95924488528449,
                  0.558246877751544,
                  -0.7401625984893234,
                  -0.6727310572569978,
                  0.37359905831354356,
                  -0.4959424516415084,
                  0.6239240702876394,
                  0.985521899048972,
                  0.03267353319482296,
                  0.15590970467123563,
                  -0.783679329507221,
                  0.6016427539051996,
                  -0.2854273320462338,
                  -0.0980370280862831,
                  0.5604890994480302,
                  1.3691087230187058,
                  0.16134852953139292,
                  0.1481083947403616,
                  -0.6200503693394446,
                  -0.4792633463030949,
                  0.6640265450093636,
                  0.48927646240344635,
                  -0.33762411368502765,
                  0.6043875499426659,
                  0.6571779991385153,
                  0.5615445064239316,
                  -0.5766072989100834,
                  -0.375440900600601,
                  0.21745330809199884,
                  0.27056770913748013,
                  -0.2585985522297,
                  0.2468714284629142,
                  0.3919201881433468,
                  0.6911529209738958,
                  0.2677835878698547,
                  -0.5625547638180461,
                  -0.39097952034214767,
                  0.6381040868076032,
                  0.7538503428089786,
                  0.6505425323908617,
                  -0.20446349020660848,
                  0.9386196457221475,
                  0.9137890212280224,
                  0.8178983480869612,
                  0.4974145607096281,
                  0.0714277550764715,
                  0.22673254289735742,
                  -0.3322840566334238,
                  -0.20441849672934742,
                  0.34075724018654907,
                  0.18119356783748297,
                  0.28855151097228177,
                  -0.452377283932789,
                  1.0069025813446317,
                  0.682613695625656,
                  0.2408563126130277,
                  0.0031722365782708164,
                  -0.24453467817642013,
                  0.5039036254017702,
                  0.4660476723840038,
                  -0.3530078191214372,
                  0.3861434365246966,
                  0.854259730178629,
                  0.7988232916255393,
                  -0.18704681972482579,
                  0.18818554647915378,
                  -0.8785493958253047,
                  -0.7638947727824922,
                  -0.982213602222895,
                  0.13713364335038644,
                  -0.2093980020919851,
                  0.1832485478761306,
                  -0.25810624399105125,
                  -0.16637469151246226,
                  0.5900325297221908,
                  -0.1303375371489678,
                  0.6511009172121982,
                  0.30967920466649257,
                  0.7101909303261187,
                  0.5192318007736217,
                  -0.12015267065706246,
                  0.19696907118992701,
                  0.196248658468342,
                  -0.7122175009801482,
                  -0.6078732914143674,
                  -0.02449176351859468,
                  -0.949943487438947,
                  -0.2809110862300382,
                  -0.9483449206703788,
                  0.9265247587219915,
                  -0.30699118348818466,
                  0.7858565546773084,
                  -0.06734928567859183,
                  0.6216050588266439,
                  -0.8460953051936745,
                  -0.2267383742924905,
                  -0.6965262293884259,
                  -0.9414479493974638,
                  -0.45624351185501816,
                  -0.24811573048034094,
                  -0.6832705400115203,
                  0.8164360357340604,
                  -0.1691906009764412,
                  -0.07729501500386173,
                  0.2843666214597943,
                  0.48970375143661277,
                  0.7384489547454185,
                  -0.279916703835601,
                  0.3247285713788756,
                  -0.06048639424653858,
                  -0.47463261667993256,
                  0.16147716768718104,
                  -0.10745645617847362,
                  0.29209142297076657,
                  -0.24550499673521295,
                  0.32951099369431897,
                  -0.3358212229372139,
                  0.44998591725706993,
                  -0.706216147210823,
                  0.4769590216960915,
                  0.38519255207867925,
                  -0.6317093077414145,
                  -0.9261971508478994,
                  0.5362997868879713,
                  -0.10828247016761848,
                  -1.0177984574408967,
                  -0.35309482078584714,
                  -0.44180615939613843,
                  -0.8692665220600014,
                  -0.07604008945244986,
                  -0.2875259617300491,
                  0.1131160452260531,
                  -0.49959566237036396,
                  -0.2024269196356964,
                  0.46940720495415805,
                  0.1288347660587029,
                  0.6977015196697799,
                  0.28678715030385227,
                  0.15575056154229797,
                  0.6270743614506973,
                  -0.8960193109289294,
                  0.47577494007196075,
                  -1.0290197563665537,
                  0.8686625135346495,
                  0.8125556545966583,
                  -0.5200837007795612,
                  -0.2694258326526029,
                  0.24923133759999638,
                  -0.6910196901451905,
                  0.34796269858230594,
                  -0.583246020744985,
                  0.45618058535096817,
                  -0.6813887268442145,
                  -0.3854544582973972,
                  0.031381617574777886,
                  -1.028463706004661,
                  -0.66944915693895,
                  -0.34541969050583793,
                  0.3586178725422423,
                  0.5895827862605493,
                  -0.13209446339667308,
                  -0.14100880289796633,
                  -0.3226578945549204,
                  -0.18362182784451506,
                  0.8105579755120692,
                  -0.9275082208068693,
                  -1.0246521406327502,
                  -0.47911519504573724,
                  0.5781409606784144,
                  0.13487617104493368,
                  0.08498026731522473,
                  -0.9955812691332127,
                  0.5503366748352314,
                  0.9366505607055973,
                  -0.8058845612567556,
                  0.10607227933129204,
                  -0.31899529474180266,
                  -0.5575846721784138,
                  -0.9068009342138427,
                  -0.8359642312896752,
                  -0.8967245923104218,
                  -0.9923148427371911,
                  -0.5761995651670038,
                  0.2128603453819145,
                  0.4161934294614649,
                  -0.22686894753339987,
                  -0.23503213038542714,
                  -0.4078495407612156,
                  -0.9542468481731295,
                  0.43337719697954524,
                  -1.222541979610617,
                  0.39550998884547517,
                  -0.30803111346300105,
                  0.8269945918081928,
                  0.9742767646335446,
                  0.07815363579622071,
                  -0.22896308285352748,
                  -0.38605825730136906,
                  0.9683908607483466,
                  0.9443203458642598,
                  -0.8178279796582163,
                  0.13714110724805373,
                  -0.6539324125522121,
                  0.1448224031480989,
                  -0.853439886121591,
                  -0.27743722278872873,
                  -0.6365336299698431,
                  0.27811172515475746,
                  -0.7194447593847639,
                  -0.06508677092112775,
                  0.17931880887857726,
                  0.350747365312946,
                  0.45408623832874334,
                  -0.6641428575705411,
                  -0.5657949175943275,
                  -1.1073391044887324,
                  0.2010050075159299,
                  -0.2097000187809516,
                  -0.3909829058490299,
                  -0.5703171586376261,
                  -0.8673351979919078,
                  0.35287747027779437,
                  -0.535488524611181,
                  1.0637176683296814,
                  -0.32330051388539716,
                  0.6025317690989209,
                  -0.3138860477762587,
                  -0.7004906461060348,
                  -0.7414645250060249,
                  0.06241977273173571,
                  0.5481944986135008,
                  0.8617116656198824,
                  -0.8646234933267198,
                  0.15130752195302283,
                  0.01608809553701432,
                  0.5560849556112748,
                  -0.7639317232792708,
                  0.2385065125614038,
                  0.6413906387295375,
                  0.9976752639410573,
                  -0.5823399455447008,
                  0.4312877872528325,
                  -0.6726000631777237,
                  0.530408496506901,
                  -0.07777546801679967,
                  -0.4575204195941442,
                  0.7564245542761527,
                  0.6078165861309327,
                  0.05189578829339542,
                  0.2133834653922401,
                  0.6546761294296654,
                  -0.08003875379668396,
                  -0.33197459266477947,
                  0.0724020097362865,
                  -0.2946532983415663,
                  0.14970428534100622,
                  -0.515102634660825,
                  0.9881003678414584,
                  0.5248851806540991,
                  -0.18117992058107912,
                  0.19235091236909518,
                  -0.16377133338204522,
                  0.7037114361282422,
                  0.45492042765533175,
                  -0.8745951841906536,
                  0.08368665486754828,
                  -0.5488287540878095,
                  0.23740549726590263,
                  0.07040086543484639,
                  -0.44128571608332096,
                  0.8146366924913888,
                  -0.8069113191961849,
                  -0.4130859889216961,
                  -0.04591826635254947,
                  -0.6650590907121866,
                  0.4433492361816291,
                  -1.001738704636236,
                  -0.47518847693238403,
                  0.046874359224445106,
                  -0.14583315905389885,
                  0.472395085715557,
                  -0.720813365570468,
                  -0.025468209428480864,
                  -0.7646614894363575,
                  0.3138811094364322,
                  -0.23459605147113605,
                  0.46744953282368096,
                  -0.13940603654829298,
                  -0.5959885360048727,
                  0.9084955843606961,
                  -0.4620965689925023,
                  0.9500490842903588,
                  0.19326044900127232,
                  0.9963967474652159,
                  0.5220183951835876,
                  -0.5074257121297586,
                  0.7688610768160704,
                  0.7057399807730265,
                  -0.6165399833028119,
                  0.5663610919364316,
                  1.0193024808153746,
                  0.2128997689707943,
                  0.9327124945219276,
                  0.2750748203725523,
                  0.8124275830569486,
                  -0.42389330223021626,
                  0.608792042232823,
                  -0.3056901063606284,
                  1.000357538588065,
                  0.06485000973547661,
                  -0.9864596201381555,
                  0.7890461405263678,
                  0.9504993231285335,
                  0.21698105946608415,
                  0.2848896441011797,
                  0.6088003985223418,
                  0.7012538168090137,
                  0.4228209575574322,
                  0.11792799901792428,
                  -0.28378311628275327,
                  -0.3397376131361363,
                  0.49247582170775783,
                  -0.13010734725813244,
                  0.02559920241538937,
                  0.6594585843881894,
                  0.07263686003754335,
                  -0.7447077577086781,
                  -0.7204436208467304,
                  0.20665173876841733,
                  0.7993026199197577,
                  -0.6413550905550358,
                  -0.7470675534217265,
                  -0.600647868650463,
                  0.5375243971646592,
                  -0.46168313972985975,
                  -0.3944108509754671,
                  -0.5065085549381056,
                  0.8403143753612468,
                  -0.6901033349621901,
                  -0.018112970938926498,
                  0.21514481450583878,
                  0.5361676537684668
                ],
                [
                  0.28612160283761856,
                  -0.5265230269712728,
                  -0.32472567407815456,
                  0.722838333284999,
                  0.17242958859784396,
                  0.3689057581930788,
                  0.9192325589359145,
                  -0.5889727044358897,
                  -0.3940676332178614,
                  0.3023309406171517,
                  -0.6973135941518858,
                  -0.9149852889344001,
                  0.7648753651622999,
                  -0.5234442129981489,
                  0.6771576513633111,
                  0.06815728817230671,
                  0.19159168616997757,
                  0.4270071150651833,
                  -0.8383023192994083,
                  -0.4031646414664194,
                  -0.5271095295316415,
                  -0.5864304862431329,
                  0.9286074626322076,
                  -0.4016080958127577,
                  0.32552244135294384,
                  0.6232138080219136,
                  0.07925580096705653,
                  -0.07879753407312906,
                  -0.9415142604231947,
                  -0.4361626554804068,
                  -0.47677086509548694,
                  0.9383659239925484,
                  -0.5164259606938271,
                  -0.019591159623965293,
                  -0.7553948463580502,
                  -0.4843456445306833,
                  -0.9095675136316732,
                  -0.8421434483926107,
                  0.070963284650857,
                  0.15320064010184664,
                  0.14555395409401584,
                  -0.5131704216547379,
                  0.4632721168354008,
                  0.284889490736286,
                  -0.5016395738874224,
                  0.6203327969209549,
                  -0.1391604854622459,
                  0.8613360664203311,
                  0.15589715876398502,
                  0.44576687061248466,
                  0.8124472620138956,
                  0.2670433492128361,
                  -0.9072863328689746,
                  -0.148173625608222,
                  0.28380674358544233,
                  -0.9720833797118318,
                  -0.22778540375752998,
                  0.8148635709964607,
                  -0.47811584887764313,
                  -0.9105682425013923,
                  0.8944589249011186,
                  0.641347686847614,
                  -0.13732688313010755,
                  0.0024903380925787033,
                  -0.05605135212430046,
                  0.7784741177734307,
                  0.2357211162819306,
                  0.9484380529584628,
                  -0.534915395200524,
                  0.8617966684000941,
                  -0.7048670139562235,
                  -0.951675800200685,
                  0.7263202504120345,
                  -0.8239655844544447,
                  0.4459999252709472,
                  -0.39529943807999623,
                  0.9377590954078355,
                  0.9166945530535213,
                  -0.995997975902271,
                  0.09637253768580209,
                  -0.3102902820241628,
                  0.8919229863360987,
                  -0.40906336740063187,
                  0.5788050774693221,
                  -0.5608790577358218,
                  0.16373119394859614,
                  -0.8299894994032608,
                  -0.7320605185947731,
                  0.6869110766768958,
                  0.7387805387525388,
                  0.3294064135592172,
                  0.906422734945215,
                  0.9574185950943122,
                  0.7545544934551303,
                  -0.4893523796730639,
                  -0.5223553526798907,
                  0.6274681786976527,
                  -0.6075048000643347,
                  -0.3639650197424141,
                  0.9409874565285953,
                  0.4060959076562725,
                  -0.1431753944104214,
                  -0.1891757079171337,
                  0.6527224966874635,
                  0.2871961253472797,
                  0.8229760564365359,
                  0.36493136302411383,
                  -0.8694499532154292,
                  0.16981524984126475,
                  0.24029066765868956,
                  -0.2432278584445391,
                  0.8770206108401042,
                  0.5930724995791086,
                  -0.8827993379253325,
                  0.8764253154202599,
                  0.8665661977320487,
                  -0.8133947247962369,
                  0.5224953563738838,
                  -0.0031129722062442034,
                  -0.906836202290568,
                  -0.6697002217889426,
                  -0.9330536429747105,
                  -0.7582062399388166,
                  -0.21287900388941403,
                  0.8618667181537139,
                  -0.434880545193991,
                  0.6355427742302745,
                  -0.4183651050351951,
                  0.749762698514299,
                  -0.5573468499605092,
                  0.4036068104162861,
                  0.38877995455400655,
                  0.3975386587693568,
                  -0.11805357521016199,
                  -0.46895440513447073,
                  0.3814686702796427,
                  -0.49364216281650064,
                  -0.012734995815301797,
                  -0.5332701157777939,
                  -0.47989057801285817,
                  -0.9121965299631771,
                  -0.7011469752209951,
                  0.42551007405199526,
                  0.9026362522427228,
                  -0.19234492560042538,
                  0.44901854946247394,
                  -0.5006262632210263,
                  0.6338637352932122,
                  -0.31857056955060264,
                  -0.5644722667056736,
                  -0.7226575697235132,
                  -0.1552285109604964,
                  -0.18444507297346463,
                  -0.7988075631845095,
                  -0.7321606680427092,
                  -0.6364274807339133,
                  0.683348482452418,
                  -0.10703825333204903,
                  0.48087158533739477,
                  0.26779342470332823,
                  0.25169140007250246,
                  -0.2854010998845826,
                  -0.4327592928174559,
                  -0.6058880948957137,
                  -0.24497628701375473,
                  -0.8341759539788242,
                  -0.3981322720548479,
                  0.08123345892680778,
                  0.8720388793781249,
                  0.4870869774742417,
                  -0.8502330156711984,
                  -0.8812496121036909,
                  0.32286970642391943,
                  0.07139472665625578,
                  -0.6126163127962851,
                  0.23946738503552,
                  -0.7627002719565473,
                  -0.6689443985488506,
                  -0.5519086473751348,
                  -1.005165756026777,
                  0.5765835351122404,
                  -0.7857631490140214,
                  0.13131774876207586,
                  0.5246311943243908,
                  0.3408957616301435,
                  0.10861234065942167,
                  -0.41887460888889494,
                  0.4830042271314745,
                  -0.13403571169338768,
                  0.727950972460833,
                  -0.09660278088644751,
                  0.12755114352156835,
                  -0.7789341945794079,
                  0.11939358763263909,
                  -0.5947082866779763,
                  0.2926695585705823,
                  0.37960960248230263,
                  -0.2390210433167596,
                  0.8872927747793594,
                  -0.4434259431851181,
                  -0.20818946092800983,
                  -0.574769179686659,
                  -0.05865636655935688,
                  -0.44099127509289604,
                  -0.6098877927385594,
                  0.3720249498414593,
                  0.11099049272432564,
                  -0.9763358777123506,
                  -0.34411242570815137,
                  0.3763187424294635,
                  -0.24382133019115895,
                  0.4313301661863718,
                  0.3155123736567731,
                  -0.6744410112019185,
                  0.12232876632179207,
                  -0.38599649451467194,
                  -0.7872073865092095,
                  0.6823260730083319,
                  0.6587367860227712,
                  -0.9241803346868814,
                  0.902575754692747,
                  0.760433954951936,
                  0.12416854289162771,
                  0.39918228768518915,
                  0.4903042639542169,
                  0.4856653219492473,
                  0.8720027257516212,
                  0.9086849615312056,
                  0.7494773274821828,
                  -0.08363162057401657,
                  0.9134901193748582,
                  -0.20824591237290682,
                  0.7875256351211124,
                  -0.054754480923641484,
                  -0.37069294568039196,
                  -0.13908410268434124,
                  0.24599623543642843,
                  -0.6875354207972288,
                  0.1501377267214672,
                  -0.9590969831628949,
                  -0.3935797507602011,
                  -1.112824526309194,
                  -0.08136438019251487,
                  -0.4901581996396996,
                  -0.0511233474057477,
                  0.2844662950897256,
                  0.647506824348333,
                  0.4814339527119472,
                  -0.893004424450446,
                  -0.517193808518869,
                  -0.43810952480823895,
                  -0.5494357946307216,
                  -0.8760919745050837,
                  0.25962216383723546,
                  0.18507491507723217,
                  0.6649689996173498,
                  -0.3387400321121132,
                  0.6450603620447097,
                  0.8890813981664453,
                  -0.484689877978482,
                  -0.6471334972362026,
                  -0.7057273091308224,
                  0.13484485334767884,
                  -1.0472068169977393,
                  -0.3655636330991008,
                  0.12098989156065888,
                  -0.6145459992838873,
                  0.527937336073245,
                  -0.8342345570234502,
                  -0.4051606687845983,
                  -0.6789807894318238,
                  0.4222370804213036,
                  -0.3817693444975639,
                  0.018246572906748845,
                  0.6968605512517486,
                  -0.06436517831850369,
                  -0.22309805009606637,
                  -0.06874336555659744,
                  0.6974627496955033,
                  -0.5921586507413754,
                  -0.7279589626701366,
                  -0.32836043475285365,
                  -0.1831768937782201,
                  -0.08513066245475387,
                  0.11325847482283706,
                  -0.2038663157944643,
                  -0.46232676715854504,
                  0.08369569866661764,
                  -0.03870786255323352,
                  0.06287767497410436,
                  0.3983904785566722,
                  0.5762604290707829,
                  0.2500854464944784,
                  0.2127996050153396,
                  -0.32613790235761264,
                  0.7547747408575396,
                  0.6523377439086046,
                  0.3926968913708138,
                  -0.6266641743867296,
                  0.46498666902428554,
                  0.33125886359754175,
                  -0.8584200175369917,
                  -1.0137817689058082,
                  0.5046306228136961,
                  -0.7440675646537663,
                  0.8365144830151023,
                  0.6457395791067908,
                  0.30539360515217506,
                  0.23288200097002454,
                  0.7646871474657411,
                  0.07856618882015201,
                  0.9237606455963528,
                  0.4665932634432586,
                  -0.17663157274671906,
                  0.1726246009798191,
                  -0.08876909062463692,
                  -0.18127522157008924,
                  -0.42716800239269603,
                  -0.3251344559242605,
                  0.09112358901021653,
                  -0.10894481603388288,
                  -0.9735310434975071,
                  -0.3147827509197694,
                  -0.5614232570722145,
                  -0.33967179287453614,
                  0.022029115248462572,
                  -0.20458163699824783,
                  -0.16983420584142417,
                  0.217946060406907,
                  0.7855970818318483,
                  -0.7004475563786703,
                  0.33642213632618856,
                  0.17393198401694698,
                  -0.5679223435924996,
                  0.9067345459075695,
                  -0.7570472095658176,
                  -0.8336973205445961,
                  -0.8617279269871099,
                  0.9497596256322939,
                  -0.3391600681980775,
                  0.5305202978721852,
                  0.46442754574496964,
                  0.08072482313624847,
                  0.8545264052575816,
                  0.4593163042899868,
                  0.015253303910629007,
                  -0.6908595921075343,
                  -0.49719807228597745,
                  0.10871343714749279,
                  0.5871577294285715,
                  -0.04893917200292255,
                  -1.0813892588114773,
                  -0.5088241535384881,
                  -0.5213032106917762,
                  0.16022924393993468,
                  -0.7796924538088407,
                  0.9212129629963562,
                  -0.3716381957242342,
                  -0.28226949669461177,
                  0.6375350877196232,
                  -0.9170214435083767,
                  -0.9553807090366786,
                  -0.35613170499681956,
                  -0.2248060210623839,
                  -0.6277355859436349,
                  0.7879945414714093,
                  -0.7692528505238512,
                  -0.9005180923904489,
                  0.5528248066129369,
                  0.05141923804955008,
                  0.329093560609975,
                  -0.27722908962679693,
                  -0.7496819285309052,
                  0.5683581824615449,
                  0.6161559655530726,
                  -0.05680033928284327,
                  -0.4693039926147731,
                  -0.02490644150397058,
                  -0.03482324908921149,
                  -1.0065484552412165,
                  -0.5520900595228014,
                  0.03900509855702395,
                  0.533999807141923,
                  -0.6490703193796489,
                  -0.7649146729118332,
                  0.8138062037516622,
                  -0.8884481680136106,
                  -0.20833200761233422,
                  -0.5463248915250456,
                  -0.8958138655412338,
                  -0.59448647068263,
                  0.3885225197632689,
                  -0.6167150257824767,
                  -0.5637024124854229,
                  0.8903484261865984,
                  -0.10582825362292529,
                  0.033149639859180347,
                  -0.300286057608332,
                  -0.11761965970715932,
                  -0.64097865980747,
                  -0.012848436143695144,
                  0.16132183746463055,
                  0.25204460365867126,
                  -0.06114748098990499,
                  -0.5315792134862943,
                  0.22835892049628925,
                  0.1361138775261453,
                  -0.5761747058641392,
                  0.6041493232752322,
                  -0.5055387362336421,
                  0.653192800123456,
                  -0.056373557195015016,
                  -0.030190763505118796,
                  -0.2984181104776661,
                  -0.690941465670843,
                  -0.3597484896858889,
                  -0.42883510645458367,
                  0.7342831552883591,
                  -0.9136081636762219,
                  -0.13754946683657865,
                  -0.043983668828661227,
                  0.9927575394135402,
                  0.9401292715417511,
                  -0.19272735140295055,
                  -0.10549870432823791,
                  0.24489691592552873,
                  -0.7314358012234432,
                  -0.8145711241579457,
                  -0.33594359719055933,
                  0.28179505626465656,
                  -0.37796010675854225,
                  0.0196763581826655,
                  -0.5632563801171154,
                  -0.9275334245347608,
                  -0.13056197740420453,
                  -0.1951035577590679,
                  0.3989965524185548,
                  -0.09774717017226349,
                  -1.0708611158038577,
                  -0.1711719251758771,
                  -0.8846413190800508,
                  -0.3990490384692311,
                  -1.009277830940998,
                  -0.6754416146950033,
                  0.2508912381438102,
                  0.3469901446326711,
                  0.24022545197464984,
                  0.4198259184244528,
                  0.7303368956521354,
                  0.17663097229008828,
                  0.9908611625207581,
                  0.21722621597748829,
                  -0.787797880317432,
                  0.9904221660032174,
                  -0.3397479938719614,
                  -0.5195003420839878,
                  -0.34994409754496386,
                  0.3413158095056134,
                  -0.38396457329794514,
                  -0.7050476320278103,
                  0.6227555587225492,
                  0.3460355899409964,
                  -0.7339582929669879,
                  -0.06534029906925427,
                  -0.02337210179318481,
                  0.7539377417252924,
                  -0.4145013039016348,
                  0.019221050710314085,
                  -0.3916174067266115,
                  -0.6005413265450965,
                  0.17094905317132197,
                  0.53157115030304,
                  -0.5667625517327721,
                  0.49629880670723675,
                  0.3520918292483919,
                  0.31584995517486547,
                  0.12052834971800941,
                  -0.6390528593213416,
                  0.7144301049056225,
                  0.5532041893113372,
                  -0.18474948312717915,
                  0.1009450162796252,
                  -0.11930324590620334,
                  -0.3831009117158024,
                  -0.28109150248441733,
                  -1.2441112863403336,
                  0.6047122477309443,
                  0.5843657490762126,
                  -0.901015531689229,
                  0.4897048152670507,
                  -1.1030087346793698,
                  0.6390623546740632,
                  0.036808468187089924,
                  0.7324312918129124,
                  0.48724121443173396,
                  -0.31610160598341014,
                  -0.3597382089235794,
                  -0.10757628811022019,
                  0.725784658252314,
                  -0.9610280743120948,
                  -0.6045232406446152,
                  -0.07254806410932176,
                  0.6420537447669252,
                  -0.3736164675009346,
                  -0.9727090583273705,
                  0.09683725164383317,
                  0.5766698287540472,
                  0.9745405192774623,
                  0.8039502364809344,
                  -0.16156232682759358,
                  -0.09950059398139369,
                  -1.0201981883425788,
                  -1.0324214790277062,
                  0.2482014896900613,
                  -0.15095579930072403,
                  0.2343461866899995,
                  0.05608653008544098,
                  -0.2970764111103338,
                  -0.7065347061371625,
                  -0.3650891236174189,
                  0.19425020069255503,
                  0.6654489252059524,
                  -0.9067283436577362,
                  0.726452583351819,
                  0.25644138947804745,
                  0.8571721339056173,
                  -0.7370943028795867,
                  0.52210885901689,
                  -0.4659269873101539,
                  -0.8458756011814188,
                  0.30674956890568605,
                  0.13137081653009108,
                  0.9036051670340979,
                  0.16742919952946034,
                  0.09243651386537369,
                  0.10680665865700073,
                  -0.13718754110831768,
                  -0.6816730834249254,
                  -0.8337352843844104,
                  0.1331896417622348,
                  -0.24144381946579405,
                  -0.8427322391532371,
                  0.18763208805884754,
                  -0.22362215256235982,
                  -0.16815950426249585,
                  0.743985528842437,
                  -1.1438999863333155,
                  0.384565624888395,
                  -0.850333535544752,
                  -1.0893012837829195,
                  0.7777953777559774,
                  0.12225304639080062,
                  0.6860654615843403,
                  0.38847923551257124,
                  -0.18531792151049514,
                  -0.3959858677241717,
                  -0.80238233644989,
                  -0.693318024568272,
                  0.7660405304930591,
                  -0.6098322973206498,
                  -0.4319404109451943,
                  -0.821710482628494,
                  0.8505996246547709,
                  0.19427515923753552,
                  0.591785892891039,
                  0.34458307540185157,
                  -0.3399613361516625,
                  -0.14140890787274543,
                  -0.31355077335817044,
                  0.23180374302874915,
                  0.35900229955048935,
                  -0.9876170920871837,
                  -0.09686862812209455,
                  -0.9384123939001277,
                  0.6210818798230794,
                  0.1716025609471123,
                  0.7347386543464909,
                  -0.5571484954823283,
                  0.6616064799295757,
                  -0.6755860209210759,
                  -0.18923594046612233,
                  0.659492852237348,
                  0.4573135526981008,
                  0.45763670970819975,
                  0.26483060865672015,
                  -0.27821511359424544,
                  0.025615570030141033,
                  0.47992548559866943,
                  0.4416834177696676,
                  0.35751596851401146,
                  -0.237613969713241,
                  -0.02573001306935057,
                  0.5094236987350359,
                  0.5028256147466892,
                  -0.8427694538542398,
                  0.33365751467827215,
                  -0.808386025667677,
                  -0.8591366053210379,
                  -0.15445287673028485,
                  -0.5174117740138053,
                  -1.1875529637468152,
                  -0.7054766166660817,
                  0.079475980652616,
                  0.2102035528772655,
                  -0.4613410052097019,
                  0.15596751885895482,
                  -0.0722285049953283,
                  -0.2144450137479513,
                  0.4546590227460006,
                  0.1544539049970908,
                  0.3218636152171747,
                  -0.024090278859595263,
                  0.651203001019966,
                  0.821027570160425,
                  -0.437419061013121,
                  0.7956762954013312,
                  -0.5951109844857063,
                  -0.22879702901463173,
                  0.2022846077898583,
                  -0.3664047070416817,
                  0.9672365663624254,
                  -0.4136794828871749,
                  0.38823634377370975,
                  -0.2996145913942365,
                  0.0016870444226886763,
                  0.8745898180715674,
                  -0.36115048240766856,
                  -0.21268855338448192,
                  -0.6208277345959842,
                  -0.6580586740732767,
                  -0.13562388329259703,
                  0.7026692889067075,
                  -0.4693631109417147,
                  0.6413313236846739,
                  0.1415547492974257,
                  0.4905936042691506,
                  -0.3305314107503647,
                  0.874956353301645,
                  0.6430262108192317,
                  0.24239945015788808,
                  0.7559668030365164,
                  -0.21990847705458244,
                  -0.1702895376799458,
                  -0.7857801715443222,
                  0.4224700399617354,
                  -0.42409660964192186,
                  0.995882753875474,
                  -0.5287610092291475,
                  0.3397864266685699,
                  0.4725033661478858,
                  -0.2612417662175428,
                  0.7700809118497692,
                  0.6354687046630326,
                  0.6046530164191675,
                  -1.0176310990034376,
                  0.29195813530255404,
                  0.6249676692878662,
                  -0.3911688655141789,
                  -0.35885859329879294,
                  -0.6755110684843425,
                  0.5695982438879714,
                  0.3444248153767346,
                  0.838288593982783,
                  0.5628801872852434,
                  -0.6291171567780259,
                  0.5419994474305925,
                  0.8484373035784408,
                  0.3762219399993157,
                  -0.46353467284848915,
                  -0.6914441931069142,
                  0.3644344326865685,
                  0.01950193535695588,
                  0.9638433079449329,
                  -0.8553000878108641,
                  0.33045059776829167,
                  -0.34084011932020886,
                  -0.04888410083807837,
                  -0.23324060184431816,
                  -0.7343718829638122,
                  0.8732587545390782,
                  -0.039590579118704075,
                  0.2740033754772496,
                  -0.6719183001165494,
                  -0.7938401446749032,
                  -0.29316688167025906,
                  0.25487569277024213,
                  0.9077645365048568,
                  0.9081933751934311,
                  -0.5964389722750947,
                  0.8565041791990163,
                  0.42050449982000143,
                  -0.2846566765297671,
                  -0.8518901322979477,
                  0.3882348980634177,
                  0.6633161394458412,
                  0.7341192726085605,
                  -0.7059835191797516,
                  0.8385858958678569,
                  0.9120455326833294,
                  -0.7083671030670433,
                  -0.9997249510563622,
                  0.520971275815159,
                  -0.6585929607192011,
                  -0.8441214608621777,
                  0.5178984847984891,
                  -0.03674273570032205,
                  -0.6985331177811054,
                  -0.033809744467099764,
                  0.5702239169477079,
                  -0.644256480152068,
                  0.22491354261391194,
                  0.5767394222577629,
                  -0.4354850885548358,
                  -0.8675392202900576,
                  -0.1815191139574221,
                  -0.7206007480602787,
                  -0.5320511273058243,
                  -0.6534599517067611,
                  -0.9215890951229201,
                  0.10353207158050898,
                  0.4716971370114363,
                  -0.031311494447485454,
                  0.3245960141221785,
                  -0.9627397466347878,
                  -0.1681542919149277,
                  0.655234036398157,
                  0.45585799589224596,
                  -0.47882672101420454,
                  -0.9178993828300888,
                  0.3791339329358485,
                  0.698575827698789,
                  -0.4078800360176489,
                  -0.5079601590001546,
                  0.5012554424780387,
                  -0.5644733103402307,
                  -0.25321999615675644,
                  -0.10025205283822317,
                  -0.9291454410361745,
                  0.03009951258056407,
                  0.4533156835312982,
                  0.6563847392202763,
                  -0.509141122619388,
                  -0.39761046193406585,
                  -0.888029052017864,
                  -0.3707574329756253,
                  -0.5680944061315858,
                  -0.31734093763640797,
                  0.18610197179004243,
                  0.9272980386600185,
                  -0.16395853673123975,
                  -0.10167438435899889,
                  0.3871411469364272,
                  0.5713319874580383,
                  0.7172223659052062,
                  0.7755365238130016,
                  0.7042581761926825,
                  -0.9052988984665151,
                  0.8837798006345987,
                  0.2450548134404804,
                  -0.5766243110870559,
                  -0.44434096063433426,
                  0.20771096248251153,
                  -0.2900217702501795,
                  -0.24924686646424643,
                  0.35097923455799007,
                  0.2923942595699036,
                  -0.6057602793661624,
                  -0.7301960564853602,
                  0.3562872155463095,
                  -0.8103959983471624,
                  -0.8215552099005118,
                  0.5156065992418077,
                  -0.9828118610674885,
                  -0.16247440607195343,
                  -0.626078981982843,
                  -0.10397811829959623,
                  0.2987380996082933,
                  0.8230916074026586,
                  0.7181877106766925,
                  -0.8661214970068118,
                  -0.5206182081475124,
                  -0.6152159895354483,
                  0.06421292214095109,
                  -0.4368410246190666
                ],
                [
                  -0.38866578188790957,
                  0.7694022396404141,
                  -0.37725403574036154,
                  -0.5144754462813261,
                  -0.075597279001554,
                  0.44233678366127416,
                  0.7695439274417164,
                  -0.13477058277230647,
                  -0.3906777484744497,
                  0.6316699866258335,
                  -0.26457696871211667,
                  -0.3656757177920058,
                  -0.5487284149835747,
                  0.7904571423979792,
                  0.5770709712085003,
                  -0.2715140713268398,
                  -0.7714525371440897,
                  -0.8383070632827501,
                  0.2940684969921121,
                  -0.30008055967848435,
                  -0.02128231390046409,
                  0.1652490365908328,
                  -0.1499615864085304,
                  0.37383826653780483,
                  -0.7491829664894887,
                  -0.7652762962679613,
                  -0.10495321778098177,
                  0.5319456239720455,
                  0.9912534434372469,
                  0.6217913528722847,
                  0.15131297908963415,
                  0.1801843157465366,
                  0.6352336006281329,
                  -0.4880695269903135,
                  -0.08514597470636298,
                  -0.4995461808799253,
                  0.18010798292716812,
                  -0.4131089187128909,
                  -0.9188377502754487,
                  -0.38704761237589286,
                  0.9434612427799627,
                  0.29066065323428325,
                  0.053238871686597564,
                  -0.5629177503432783,
                  0.5587167786367991,
                  0.8358842502363376,
                  0.23702022149714455,
                  -0.009696330911054454,
                  -0.9826641355897596,
                  -0.5182668554356105,
                  -0.08814592000228097,
                  0.00780224045146817,
                  -0.0003565440563866318,
                  -0.5364502031637164,
                  0.5015803618085184,
                  -0.8317608992257584,
                  -0.23993046120976125,
                  -0.9571339024779753,
                  -0.9226857593165039,
                  0.2521676243006419,
                  -0.6134637362839572,
                  -0.3498357074979421,
                  0.16898224823090138,
                  0.52728644633597,
                  0.8441493737391725,
                  -0.3415312129742623,
                  -0.06101670538292633,
                  0.6954142972911616,
                  -0.05037158129055925,
                  -0.3567593829909422,
                  0.4943227083828416,
                  -0.42925059674569394,
                  -0.7918624801944079,
                  0.9510643323539228,
                  0.39059257320679863,
                  0.2433998917528,
                  0.05490926903831127,
                  -0.019577584383490446,
                  0.9155984253104044,
                  -0.42077467710192534,
                  0.4500380923378092,
                  0.5643642503062267,
                  -0.6770714885097937,
                  -0.30636627075678247,
                  0.9995345011621168,
                  0.4654488830556991,
                  -0.5392462028150398,
                  0.916800607184407,
                  -0.8135742514015974,
                  0.7896803011145949,
                  0.18647761939359783,
                  0.9738022916730611,
                  0.969628215333278,
                  0.01594711594527037,
                  0.21638109958045582,
                  0.29278755444452786,
                  -0.9688402938964215,
                  0.47363428527223644,
                  0.9093433541098853,
                  0.8122307947637732,
                  0.021924701068486516,
                  -0.8768566525375913,
                  0.236415612352576,
                  0.40952573968302797,
                  0.8481514016815381,
                  0.8540854454922004,
                  -0.2917335755318211,
                  0.44385010171309364,
                  -0.21432784865081417,
                  0.5200457778226046,
                  0.4318251817958991,
                  0.8824366379022561,
                  -0.48628949517744813,
                  -0.44354320499663835,
                  -0.7113518397861358,
                  -0.3938964105903079,
                  0.8834132753719738,
                  -0.9081190665841905,
                  -0.22079951085871033,
                  -0.3722244658748453,
                  0.544231755640719,
                  -0.8421330826965224,
                  0.7117373841354329,
                  0.22834221130243312,
                  0.7759292938958595,
                  0.010749332556211012,
                  -0.12050206094655125,
                  0.603709029143965,
                  -0.7427783841877679,
                  0.9018807844922344,
                  -0.005442022246079915,
                  1.1191014940255173,
                  0.2782820936214567,
                  -0.4047309791964433,
                  0.20906448387402943,
                  -0.563400722693555,
                  -0.3576666212241168,
                  -0.45649860741760634,
                  0.8697240314214723,
                  -0.5643850302017022,
                  0.5680778177031223,
                  -0.6816840546305056,
                  0.8476269361242372,
                  -0.35428533022956726,
                  0.5013054815322542,
                  0.09941655336310239,
                  0.5267164964916251,
                  0.8350493718167012,
                  -0.5534462634010417,
                  0.8744685077121451,
                  0.011097244652872455,
                  -0.24157582969056784,
                  0.7080115225640524,
                  -0.9057155815800878,
                  0.042777521638963124,
                  0.6580815713801108,
                  -0.2531853062148894,
                  -0.018801266912159127,
                  1.2755771073417004,
                  1.2065295958196072,
                  -0.06591293944209624,
                  0.09131657086601185,
                  0.8795457481897943,
                  0.7380874017905862,
                  -0.12050134238852991,
                  -0.6865779503951814,
                  -0.22905798892291251,
                  -0.3595521052743339,
                  -0.5671918325987755,
                  0.5777181828513025,
                  -0.08199651697791725,
                  -0.0046946567820847305,
                  -0.2745673206018628,
                  0.09538452859234384,
                  -0.4141716275655804,
                  -0.7099385658009318,
                  0.7058063481138008,
                  0.4929613271790721,
                  0.6025261873795721,
                  -0.5960426724645471,
                  0.4721744103443588,
                  -0.549637748280064,
                  0.4426867873531336,
                  0.16259993087918878,
                  -0.3642271465015726,
                  -0.6066654744334095,
                  0.7304064043794247,
                  0.14371225444813837,
                  0.03534299815119155,
                  -0.8627038081851566,
                  0.8314275671491079,
                  -0.2984531035429583,
                  0.09203682713767211,
                  -0.46759567066544333,
                  -0.7421963144851662,
                  -0.5330496787400903,
                  0.44490113179361845,
                  0.3052624001475992,
                  0.9438742649560493,
                  -1.0324295896875313,
                  0.44143421865701343,
                  -0.32754577195981366,
                  0.7594430648619542,
                  -0.013248925702850557,
                  -0.457457221984425,
                  0.7846008981572555,
                  0.07988845439516597,
                  0.9225311222138706,
                  0.3419264591555353,
                  1.0193703167304695,
