{
  "schemaType": "flow",
  "schemaVersion": "0.0.1",
  "id": "1234",
  "flows": {
    "flow": {
      "flowType": "flow",
      "nodes": [
        {
          "id": "1fb71439-a841-486a-82c1-7cb9460e0b74",
          "x": 482.9330940943892,
          "y": 223.0456608868027,
          "width": 215.78903198242188,
          "height": 171,
          "nodeType": "Shape",
          "nodeInfo": {
            "type": "neural-node-input-layer",
            "formValues": {
              "weights": [
                [
                  -0.3913158224190787, 0.13390576734887327, -0.9006116833110993,
                  0.20924640384253612, 0.08239844160591092, 0.9137809022298025,
                  0.9561177530300138, -0.0986541530160241, 0.20817758477837334,
                  -0.8812697168608881, 0.6163295167087535, -0.7719865171292768,
                  -0.8571477518235695, -0.12160623163703921,
                  -0.4666294694088404, 0.631670211386385, -0.8769517882040421,
                  -0.5806036193818809, 0.30661406863488416, 0.713315664985215,
                  -0.09747983976380503, -0.40980341726411407,
                  -0.08390324069119126, 0.7123920674441977, 0.0322373307319026,
                  -0.7080072216345914, 0.3570966841265042, 0.3392742012813259,
                  0.21764293034977023, -0.30631317898113064,
                  -0.7300622746253724, -0.3084244404368168, 0.09952138989316195,
                  0.41253218143949244, -0.7147385804431536, -0.5586714358540547,
                  0.9190059267648024, 0.2854033780087631, -0.01594129785672247,
                  -0.1929770952933483, -0.15063084425316137,
                  -0.44404967100726833, -0.13151295908650065,
                  0.023838175630586187, -0.43820427461379574,
                  0.010491196793197077, 0.16268010289347334, 0.2791998306366071,
                  -0.3956451733699589, -0.9424418041947946, 0.6862215247212757,
                  -0.3165472836629577, -0.15270711773664436, 0.2614418514770658,
                  -0.26253924946829876, 0.822901984936232, -0.5316856980784097,
                  -0.3619738788698128, -0.6477832130106598,
                  -0.05618404928304965, 0.022946796570179284,
                  0.7204152208569234, 0.4558070323082268, -0.23857712490379496,
                  0.983307957717912, 0.14443800074652094, -0.8632385455457923,
                  -0.35138829583680936, -0.428640847470881, -0.67846793302107,
                  0.15843166722365296, -0.15794830109930297,
                  -0.2428444677830859, -0.35908529938525807,
                  -0.8619856898576633, -0.8542755958354566, -0.7294671835641791,
                  -0.9275510696002595, -0.4771363355026718,
                  -0.35569695911334587, 0.45793511289286015, 0.1394199069848665,
                  -0.537418826999783, 0.8671153407390926, 0.46791426184731,
                  0.5260735957979881, -0.6381558562783209, 0.3883891968881086,
                  -0.39152699425243664, -0.4933401829959, 0.7926017208136547,
                  0.19520915055710883, 0.2012699876303067, 0.272332636233566,
                  0.7895929947170768, -0.6322463436720819, 0.7011547587960022,
                  -0.45129290664091326, 0.15114136079165472,
                  -0.19676319019846786, -0.40442689837623375,
                  0.8108190516201139, 0.19256866154982244, -0.15134555277549236,
                  0.2633888506776997, 0.7295760936899877, 0.9394177930063665,
                  0.473460684241986, -0.9871145406618486, 0.6025608630802681,
                  0.38418304695925043, -0.2918805715752275,
                  -0.08219632603273874, -0.7490711065207649, 0.9542960368656104,
                  -0.4505600362531188, 0.08091703056515534, -0.9861385590384069,
                  -0.19879025879198722, 0.42224549798327693, 0.9641375337767705,
                  0.9231799210766968, -0.48218512142751024,
                  -0.10824145572716268, -0.7670309701829761, 0.1940358872751457,
                  -0.7501190887153377, 0.5342640993428663, -0.6707551494228617,
                  0.6814527479561022, -0.4601115140393185, -0.15579867914381704,
                  0.5842436406410438, -0.007922256740887037, 0.6694160487420718,
                  -0.9895642567571219, 0.2574558351203755, -0.41670061574719264,
                  -0.7392283653369625, -0.6886734253863098, 0.6721014536380205,
                  0.3654585770337824, 0.16878423685343896, 0.2101613701686297,
                  0.20724685030553225, -0.6999867554127556,
                  -0.48866408689506574, 0.5819986681262209, 0.3912531425990066,
                  0.18426644652702942, -0.45237364463545027,
                  -0.5162439735720431, -0.6436117464972351, 0.32501291028840207,
                  -0.15962831375657316, -0.5799011768069557, -1.078026717049213,
                  -0.9804833005599382, -0.5695510035405211, 0.3945429822704771,
                  -0.22513054466765947, -0.7397987909854871, 0.691322483280924,
                  0.14957117590595087, -0.030575752087400227,
                  -0.3856066249791081, -0.8473093285450122, 0.9322067894548631,
                  -0.1710635286132982, -0.7023239775356345, -0.5236122230055065,
                  0.44833489997878573, -0.763702886957486, 0.7297245403482578,
                  -0.39466555168152084, 0.18978119107608532,
                  0.31836797814623014, 0.5620807676151883, 0.47001776438067244,
                  0.39754500049057734, -0.4825176298319692,
                  -0.12687534943874298, -1.1952168105196108,
                  -0.1990726922076742, 0.0019368771924975594,
                  -0.08703273728167003, 0.6749806893625049, 0.24890107639059453,
                  0.22577927313186893, 0.4903724322631205, -0.47539132029620107,
                  0.9059829964359549, -0.8938809543908399, -0.6576870981906908,
                  0.8295510807149542, -0.6088050358649745, -0.44080337910424783,
                  -0.5032959908289052, -0.645052607768986, 0.3790045072377557,
                  0.8927393688195363, 0.6695310319460875, -0.7913033227800305,
                  -0.7082687772196976, 0.06160194860990865, 0.02412755677787919,
                  0.261100543335635, -0.08565411232877812, -0.18459009310335944,
                  -0.5633857551010604, 0.8434494369986305, 0.49142987400699156,
                  0.07679487745754172, 0.7600417332509855, -0.8648291488444884,
                  0.6471479580029393, -0.39368899569447174, -0.2931576547058832,
                  0.7384848644516655, -0.14263212188859187, -0.7968397475794289,
                  0.8883054556349089, 0.34205198687618055, -0.5267469132573461,
                  -0.39966443580990685, -0.7249386513695824,
                  0.27563701189742745, -0.018417065342516404,
                  -0.7454883699159178, 0.2541777115589424, -0.34005589819373383,
                  -0.3421685112492135, -0.39383670180547103,
                  0.06738829763632523, 1.0054578741118991, -0.5923384201984477,
                  1.0018825037059353, 0.030206198797435815,
                  -0.03223274791952741, -0.4039064074779321, 0.3021202955242296,
                  -0.3036722288123773, -0.32911282863228164,
                  -0.08293874160871911, -0.7856626417289483, 0.1522243415439908,
                  -0.7438282709943594, 0.6344787098592631,
                  -0.014208466059102509, -0.16084043703400105, -0.8487443175305,
                  0.04958665758138413, -0.9275389647520691, -0.3387826636318002,
                  -0.629917796868619, 0.009898334607350606, 0.7773036740967204,
                  0.8214905925800083, -0.7367071990610636, -0.4733193878370953,
                  0.5617629511410666, 0.552429996044304, 0.14064536613694378,
                  0.05875612950275243, 0.5965160618909543, 0.3154749848067362,
                  0.056096134495015514, -0.3630611854341159,
                  0.010504934390948675, 0.7475090605126746, -0.70608892611809,
                  -0.7257694502763902, 0.3570519068588942, 0.2704939886198961,
                  -0.6242289680227746, 0.9906519829665444, -0.6881119625671087,
                  0.3504211418572743, -0.9178527760534695, 0.9499003987361638,
                  0.8118291087982974, -0.02662147641466602, 0.9832732696088251,
                  0.03294987741666155, -0.6758738209039417, 0.7894596732832384,
                  0.027454399672094915, 0.4958268136849891,
                  -0.41680630659197915, 0.12096693517132906,
                  0.017860159590022996, 0.3156666893518864, -0.4377875267945263,
                  -0.060741307949777744, 0.7348092925750714,
                  -0.19498224106720283, -0.7986849751912797, 0.639129302182561,
                  -0.6498252056113275, 0.559504782985601, -0.4752090293394834,
                  0.5152068306487281, 0.1559366067968039, -0.3424960802011834,
                  0.536418066668952, 0.08490871234025708, -0.2661758701856835,
                  0.010352457573084617, -0.11243303236315194,
                  -0.9827150412524128, -0.01680325421603649,
                  -0.9751476663704524, -0.46869436842459145, 0.6290330544819897,
                  0.2192897736338124, -0.1817596362033046, -0.18483420663825223,
                  0.5913513699456543, 0.13778883553564206, -0.7003095433704907,
                  0.13133527502906484, 0.49110511530557005,
                  -0.29761581466532183, -0.2564898940448304,
                  -0.40419482031848925, -0.45758531842053574, 0.511767616100817,
                  0.2177505599144955, 0.43012399043397237, -0.3146318269768124,
                  -0.9182401427500314, -0.7045564487411503, 0.9002915561374707,
                  -0.2570618386938779, 0.7707184506679875, 0.9238424740978426,
                  -0.06272115988942506, -0.06045646239044918,
                  0.5858663173559094, 0.7227237085162332, 0.7341869777171381,
                  -0.009302263139141485, 0.3879623976314982,
                  -0.9305517080621448, -0.6777230347812391, 0.5576712480608144,
                  -0.6746353401512771, 0.20003023561367764,
                  -0.10792590734537172, -0.958850856589812, 0.48626592459996526,
                  0.5361312422841216, -0.24311616386393006, 0.6553757638233277,
                  -0.16579207603238683, 0.2792534642087778, -0.6418972603911082,
                  -0.9531144571776742, -0.0589794915704796, 0.20150840562956462,
                  -0.9861399209995935, -0.005000602558116532,
                  -0.3309349843452222, -0.34501267623794213, 0.7056486275176908,
                  0.4027095658407566, 0.45413412316987856, -0.5931616708988868,
                  0.016013935541176545, 0.7977143608547556, -0.456582897093307,
                  -0.5281267673883193, -0.7582683743848031,
                  0.009148388020115326, 0.3060915092269379,
                  -0.22662286281915028, 0.5869284987920227, 0.8733327005246674,
                  0.43118302772600337, 0.32700409181428064,
                  -0.12058070675062511, -0.2707410129427024,
                  -0.5845048285715435, 0.542060765737969, 0.8002352023312321,
                  0.7052608409291633, 0.9126801152364706, 0.0806285504081579,
                  0.1310823220574485, -0.1682298768939448, -0.8546758917423988,
                  0.9574228552966448, -0.09839567976391406, -0.9366054251243725,
                  -0.23491409896163432, -0.67435506770928, 0.6747529318383227,
                  -0.31282912485791, -0.199744357205883, -0.41657494536916373,
                  -0.766021117651391, -0.021942590424448974,
                  -0.9874806178782516, -0.6695998801347737,
                  -0.17026089434361802, 0.7849477518114001, -0.8131699594157271,
                  0.6298468432575399, -0.6012574968225299, 0.026948881392396446,
                  -0.29885422890628516, -0.5207209809235314, 0.5834017565879989,
                  -0.6419384506108389, 0.9156368305582624, 0.5770638109896152,
                  0.49433041604394357, 0.16861253912155702, -0.2678775038517295,
                  0.35159048976611906, 0.21460924651197555,
                  0.004637313190964173, 0.26929383240143384,
                  -0.04274130456948525, 0.0425998613052394, -0.6072187756759909,
                  0.699952261218261, -0.666133702487405, 0.7090274551524207,
                  -0.37002519254722954, -0.6104287374495374,
                  -0.9691879510693707, -0.5078349914579147, 0.9055404885876259,
                  0.4397733405867905, 0.7116578818448236, -0.30835816715100395,
                  -0.151088630843131, -0.38955248447007224, 0.686845871128662,
                  -0.6052415628213936, -0.3601455627281632, -0.9420009440865548,
                  0.6355168142819524, 0.7953199992365914, -0.4708701551246859,
                  -0.7283651635576678, 0.6510235102424716,
                  -0.024218666062616023, 0.5611220637546155,
                  0.05698509505901866, 0.05199131838244004, -0.9740387271531737,
                  0.12069533298321106, -0.020774943254095915,
                  -0.9958599090549746, -1.0411614623763612, 0.3595673454043219,
                  0.08930894851927366, 0.3881736567092762, -0.5310761358220905,
                  -0.8032469229512756, 0.6357006999734957, 0.6373056664042067,
                  0.07590347200155806, -0.17011487162230882, 0.5820745299112177,
                  0.04046833372954988, -0.8193992489801999, -0.4512517436123821,
                  0.16938500582406252, -0.4211996619856953, 0.5058484776202834,
                  -0.288570653759952, -0.3445693708840101, -0.12550140585385106,
                  -0.7423920362442193, -0.42415817389142807,
                  -0.3181442213190427, 0.9747583745858329, 0.6561672958197156,
                  -0.33761836406892765, -0.491139377971876, -0.4363576770714377,
                  0.33229297663064616, -0.9410589121881525, 0.7003322128749419,
                  0.43864276994305573, 0.34392267646121444, 0.9305997945697061,
                  0.7883503216531754, -0.4128118033687699, 0.7631589536003577,
                  -0.4194898944196493, -0.4911833104634617, -0.2901166017100143,
                  0.6802807076078276, -0.5652150297320654, 0.6450009914153622,
                  0.3709415451075763, -0.47808265522023907, 0.5834288068642872,
                  0.7128910924757518, -0.02393891743868939, -0.4040811249843097,
                  0.005607530587527609, 0.18820095755227234,
                  -0.7370742635606958, -0.5943159874105607, -0.8638283184140088,
                  0.26130553896382497, 0.21097361370001053, 0.3050131138932291,
                  -0.44665363956692555, 0.05263932507640711, 0.7745969410604031,
                  0.5319705900741623, 0.7478989122029631, 0.4943370446457422,
                  0.007295286540410055, 0.7649125925667432,
                  -0.37292360454657425, 0.4180925999307098, -1.0011467396320977,
                  -0.6309942111015014, 0.06578666803353879, 0.8674649015055568,
                  -0.6902200046832055, -0.771917702047856, 0.7480404666168178,
                  0.9365657870622041, 0.8975873792262732, 0.22375790335355417,
                  -0.35981506136026065, -0.25612155674475295,
                  0.06347954855888968, 0.07901587895333852, 0.02107199618578806,
                  0.05126693472614929, 0.7832195744393186, -0.14965613676055425,
                  0.09389947376608683, 0.3661691495836589, 0.9462259627545254,
                  -0.36637290948977297, -0.29807628454267704,
                  0.14190751060843196, -0.7611549798987483, 0.7428881090773953,
                  0.10824346103653712, 0.20939208202980814, -0.7227869395859299,
                  0.8166596592532163, -0.32448344944640983, -0.7051526375839229,
                  0.2834797130562924, -0.7288434466499196, -0.1382272629524424,
                  -0.09174819586510194, -0.8712095008991572,
                  -0.6590246412784366, -0.6334013403306387,
                  -0.26132084501161684, 0.0007971919425344789,
                  0.5745731071123148, -0.5435648231981731, -0.857804405901269,
                  -0.7623510449053906, -0.33435796937474743,
                  -0.017634037589403486, 0.48278011906212165,
                  -0.6544665503322938, -0.7513043650918452, 0.20157607333952823,
                  0.08467867435944192, -0.26714985558971255,
                  -1.0926295580756755, 0.5787232716076226, 0.43841177019549415,
                  0.32019113616925815, -0.6726429157905691, -0.9321155185956748,
                  -0.06114702217666386, -0.41511239643798137,
                  -0.4188586718674727, 0.7346375722896236, -0.9486703667358666,
                  -0.4710428959370483, -0.06311793362100149, -0.69357169282341,
                  0.27621512014167193, -0.758077679209662, 0.7405271849355789,
                  0.6523449570457918, 0.8302976439122205, 0.1606380377722117,
                  -1.0128826293546114, -0.6860823020606747,
                  -0.15911481874680702, 0.49492087335773755, 0.2397010692213828,
                  0.26155039266112357, 0.5750114847425886, 0.35833727108789326,
                  0.7424954440131439, -0.07375475355729022, -0.7007027469363419,
                  0.2135130403039521, -0.7295487630170063, -0.24610701313440955,
                  0.46724784815336906, 0.336227197392444, -0.49999495655295884,
                  0.841742829351046, 0.546572735357162, 0.6046099397213158,
                  0.36651126154373737, -0.5906771794596213, -0.7267577990203418,
                  -0.8795735673732711, 0.4353052138717449, -0.3668164936929403,
                  -0.3131664568944198, -0.44609354456858696,
                  -0.6964769356246667, 0.20223438898891768, -0.4633428034177063,
                  -0.6185402745370505, -0.6935591974273182, 0.09741729881727515,
                  -0.816647808028351, 0.6128984398136001, 0.2225692808822824,
                  -0.6860209244259239, 0.060732582575945195,
                  0.14011535202718367, -0.23509917801754437, 0.5154594441144434,
                  -0.23017893048337437, -0.40869101791171386,
                  -0.21731656985973014, 0.7425634504753044, 0.36397054249849353,
                  -0.4582929118366037, 0.8663997698214092, -0.839737475661551,
                  0.48288358780593166, 0.3553118178701604, -0.36757114776391003,
                  -0.5349560069552924, 0.646526729116236, -0.6747063335985442,
                  -0.7224751282702604, 0.5893849046489043, -0.6752983688494415,
                  0.8797072398113966, 0.7302746020384195, 0.027911174967085593,
                  0.4533227067897616, 0.056157425886726835, 0.8451135838458991,
                  0.602664519016878, -0.32175590728893916, -0.15964188089165987,
                  0.5272762564840834, -0.17633182352181498, 0.2005555902653026,
                  -0.17038035096394777, 0.2268202910293133, 0.623653350270151,
                  0.3656214184338397, 0.47821113110152513, 0.11272182836516231,
                  0.4697467232876713, 0.7768766444557191, -0.8367885751827894,
                  -0.7389902905896738, -0.48619828870368287,
                  -0.33011294030959465, -0.27877900295455205,
                  0.23301675328626192, 0.7853990945695288, -0.8323008476470137,
                  -0.6812020017725858, -0.5874325684496751, 0.5819397588202543,
                  0.18750790533480471, 0.6444465390647587, 0.5088369862205295,
                  -0.021684793512007187, -0.004519530983110738,
                  -0.7167294485885919, 0.8089748630687827, -0.1366674924602541,
                  -0.8744628697763429, 0.7350557157865274, 0.3458749029002025,
                  -0.3327511227300099, 0.4605141318062733, -0.9937856352713519,
                  -0.7806039693060849, -0.001977827975846669,
                  0.6956214258687679, -0.3356964297362829, 0.6711254600377478,
                  -0.9253401046650056, -0.8137207413310422, 0.5266828532933245,
                  -0.5009820568167145, -0.10084598457619846, 0.6889739982845121,
                  0.7832315692247629, -0.6511345658795346, 0.25040982496744546,
                  0.04007010117890482, 0.9506453438329935, 0.8523310709184841,
                  -0.04130859152690003, 0.21628410207816187,
                  -0.21158912253144718, 0.8503882247762004,
                  -0.03348225307338679, 0.7884700214021805,
                  -0.09643544488961438, 0.8406604730819947, 0.43288330671040853,
                  0.7293485418530965, 0.7687302905470599, 0.3254083605440683,
                  -0.6247762481060164, -0.37080602985022093,
                  -0.5641960284905623, -0.331006521507409, -0.8667989910190688,
                  0.166671200325075, 0.942483688436673, -0.43013359854396654,
                  0.9878132147677844, -0.861731333589336, 0.2545059008238902,
                  0.36967173558766375, 0.469170832137363, -0.36466228387449917,
                  0.560585065373044, -0.4997685651072786, 0.2093010207708954,
                  0.08799341643634943, -0.7841935375082129, 0.8313290055310775,
                  -0.6034639387241376, -0.9188465760334319,
                  -0.18187720591324355, -0.984615233665115, 0.6791290638487864,
                  0.3656517209904697, -0.7239922625445416, 0.13114097464461905,
                  0.28708150157145385, -0.0751666407203615, 0.6672873568828068,
                  -0.9392829790717991, -0.8010814558142046, -0.3192572390783826,
                  -0.29742265038848537, 0.9823230116096413, 0.5297777753899261,
                  -0.46034899124878487, -0.47135542353515053,
                  -0.4101535214316073, -0.2992471750352174, 0.0647359415221338,
                  -0.9510303394687993, 0.7912765289843697, 0.5483809212192985,
                  0.2051242229196252, 0.3077703390952335, 0.5218277006865394,
                  0.9882892366834856, 0.12268212396578503, 0.790014167184292,
                  0.4065658736501314, -0.6599675467461914, 0.10894419484922402,
                  -0.012932337647207692
                ],
                [
                  0.9351136722559419, 0.858310554368241, -0.3809189001810669,
                  0.941510129406161, 0.16726015631821456, -0.13684773113231596,
                  -0.5576809015525734, 0.5192111922207205, -0.03928959363621365,
                  0.6043323183824127, 0.24695662431736798, -0.4554109354950553,
                  -0.40222416197195354, 0.507446953804704, -0.8761616910986776,
                  -0.31560454450743425, 0.07806416017967344,
                  0.017662611000321515, 0.5602428429221145, -0.1082856135058492,
                  -0.4434952859940786, -0.4608725457437126, 0.11074126892138825,
                  -0.33128652096309796, -0.7096803201202695,
                  0.26328154002242155, -0.7502351744258671, -0.779744712190408,
                  -0.5769910310184234, -0.6356580213517287, 0.23042023738365636,
                  0.3894555587516604, 0.1205343341370364, 0.2719353702663767,
                  -0.41957416394100333, -0.5486395564046103, 0.3543712943643324,
                  0.10291096861482497, -0.9268294264006778, -0.5290448687614714,
                  0.491086173634192, 0.470786233037593, -0.8121080968626011,
                  -0.6949416512654372, 0.7480128283999563, -0.46058694486298124,
                  -0.9700420761441922, -0.2680979360575817, -0.995841724186934,
                  0.3287933664434807, 0.8148673388741662, 0.3057841174530611,
                  -0.354230376087445, 0.8681361922747195, 0.058618838167811216,
                  -0.09051892444381249, 0.7805252224244938, 0.1253585885648918,
                  0.7664297986553783, 0.029812799538404544, -0.5763794556706521,
                  -0.4177585400727151, 0.9198929782392432, -0.8367737526007788,
                  0.646748514012608, 0.6843387791071924, -0.07908220100763298,
                  0.7134943289007449, 0.7641787777213416, 0.406468903699792,
                  -0.6415506225726936, -0.31330218384302033, 0.1469214861261354,
                  -0.690167560207713, 0.07141446640064089, -0.1441576286954742,
                  -0.5244812873056786, -0.69992678147646, 0.6670774172237093,
                  -0.33711464552810533, 0.008569198999832358,
                  0.9157398054354045, -0.2497942259960233, 0.8969431892002451,
                  -0.8766022650433953, -0.212175226001019, -0.9436632579520214,
                  -0.868636500840481, -0.43686059596821925, -0.5189478315249735,
                  -0.7639913225657058, 0.28081959703986953, -0.3979882637304518,
                  -0.38094474055247746, 0.3681184877727992, -0.7102060729632699,
                  -0.7939968843069274, 0.977366500689078, -0.4035736257542821,
                  -0.03575245828268272, 0.6623722972546042, 0.5036831786251176,
                  0.9561182753242078, -0.2562965657482911, 0.23524706062932782,
                  -0.5833341315666078, 0.4106702525221356, -0.9568908008734108,
                  0.2502993556069139, 0.7215102853479491, -0.08570360265780375,
                  0.05417470605877428, -0.09957849917596784, 0.979494341468488,
                  0.700252614452304, 0.630587934044197, -0.4595750688062902,
                  0.7873002904831606, -0.7421588581643429, 0.09621216964972674,
                  -0.6275682297086937, 0.10465003673236388, 0.5710022349968519,
                  -0.6853431345087211, 1.0206786542480089, 0.48431350893701103,
                  0.8589422441304773, -0.34055105015124637,
                  -0.18557865441600466, 0.7330802759507364, 0.23993965965921368,
                  -0.7742032456578695, 0.49637053408560117, -0.8213798331905232,
                  0.09597770864369186, 0.07860548234457748, 0.5335208064421761,
                  0.38061694949549, 0.20882599997748136, 0.26822794261008287,
                  -0.2943934474660592, -0.7955794612132081, 0.10944435192816153,
                  0.47478048263172584, -0.23020452638158223,
                  -0.5995425877089409, 0.33262805270949797, 0.8909660376588384,
                  -0.5467934303345348, -0.6718296399232241, 0.9737474921876373,
                  0.35958324976482237, -0.5706670621738379, 1.1114126996781268,
                  0.7886812061620736, -0.46813601341440597,
                  0.027613045162765734, 0.18763943741469707, 0.4279307686057197,
                  0.675261599314169, 0.24352893148560065, -0.20225126018049894,
                  0.6374683591514345, 0.20061856697065095, -0.8681955001464456,
                  0.7090172689569165, 0.9755072530804608, 0.2939051424616377,
                  -0.23353499604119277, -0.6241993982132321,
                  -0.20219634599521155, -0.061647503591677914,
                  0.44196895016642024, 0.3442180608232807, -0.4406152157724964,
                  -0.33641929869875836, 0.6810216428657446, 0.8196970164881137,
                  0.11920565025203986, -0.05578721190369692, 0.5271009495483673,
                  0.07627083053771246, 0.7699092732205486, 0.46679703121733535,
                  0.3068715350910169, -0.01065475366506881, -0.5924790671869009,
                  0.5747334281402099, 0.7288526404327447, -0.6183640886421259,
                  -0.7407222514399855, -0.40120819693930315,
                  -0.7479267992494746, -0.878970667643994, 0.9770536647172252,
                  -0.14388361047411607, 0.9067661792230868, 0.8378113123258917,
                  -0.9313085722070776, -0.9757015595816199, 0.5586807214844047,
                  -0.9688273496365908, -0.47073696395844317, 0.9118742949194705,
                  0.38279488925092914, -0.4411794287246095, -0.9728029963151436,
                  0.45865126452265736, 0.5635171229640636, 0.37930240035799034,
                  -0.6240823230773234, 0.6203738120110922, -0.6463489147800763,
                  -0.3670224695383885, 0.43798052437562685,
                  0.010525665792986607, 0.5801885211805874, 0.89212429867202,
                  0.8518043881935082, -0.8120355461726921, -0.14345927298335817,
                  0.8127127978848823, 0.8676667453867282, -0.4421023189957235,
                  0.24434905422472886, -0.08813871771142318, -0.887205965305156,
                  0.9822714312978146, 0.19477908135677358, 0.5860320664280053,
                  0.4999501662217825, -0.8673286426200312, -0.43245830163952736,
                  -0.01432519917116289, -0.7056797828657562, -0.310659807281776,
                  -0.6441881769867535, 0.212501616766529, -0.4144899682523179,
                  -0.2669755202369544, 0.3571653614873672, 0.7880148044188661,
                  0.023005973765401526, -0.03259546664798212,
                  0.6972790652679671, 0.16584922693721993, -1.0052383019949418,
                  0.3662240100110515, 0.08334868770521979, 0.5864179310083237,
                  0.4146143067129239, -0.1874746772024739, 0.5723552960320797,
                  -0.6567251316514054, 0.6457486870682355, -0.1132721185824686,
                  0.7033018729783758, 0.25518726278771525, -0.7285746806578458,
                  0.40986551402972793, -1.0237678386366686,
                  -0.05926932238810248, 0.5460006111317374, -0.8547450688878125,
                  0.7327616925178503, -0.6528672471771242, -0.03948094935198556,
                  0.41812464055233683, -0.65824031186824, 0.23188095665342662,
                  -0.3501555557126676, 0.7181653407621946, -0.10905970725007567,
                  -0.8068878851055337, -0.206073656135184, -0.5878521129136043,
                  -0.3172530423958602, -0.09162946506178372,
                  -0.6906975631699017, -0.06780187135206085,
                  -0.38144013292028944, 0.10974246315161255, 0.5895919686437986,
                  -0.40950459982258924, -0.26734910662755834,
                  -0.8637154029430654, -0.6248502388587243, 0.86643662976279,
                  0.8054520958371393, 0.5182025705818522, -1.0628862565663082,
                  -0.912574649170026, -0.1854823442578119, -0.4290750087840523,
                  0.04796800211970899, -0.624748650925519, 0.409491118889352,
                  0.7878950566698041, 0.2819506472824563, 0.16889774669535015,
                  0.30057817460891834, 0.8290261915040752, 0.38379845759151765,
                  0.5716806259683215, -0.019929468323375013,
                  -0.8578614391551229, 0.21880199059468294, 0.928665422983351,
                  0.3627838535969623, 0.6007119983959828, -0.9461863459475625,
                  -0.5790105425628975, 0.6373311130605231, -0.9452436365943314,
                  0.6017489156103752, 0.8342363059148511, -0.268240353017346,
                  -0.3354675419694715, -0.22138265813604785, 0.4803156185012359,
                  -0.6167989994080277, -0.7269585790805634, 0.4335191896920825,
                  0.9799304329023227, -0.6527186763903473, -1.0217407728321926,
                  0.4907787866291445, 0.2729427899765447, -0.5340243111101368,
                  0.8325952760210378, -0.5077772911836822, 0.8007791567075999,
                  0.6710940747930899, -0.21065916795176384, -0.6045779762529411,
                  0.7052519800225074, 0.15984737547689543, -0.719008481541723,
                  -0.5568526215737457, -0.5648716513280798, 0.213796339450496,
                  0.6885278833210942, -0.4020449065200743, -0.5791644083722615,
                  0.23885975440217078, -0.46051442106702606, 0.3478083698255008,
                  -0.6965993065982475, 0.8283080924172466, -0.09978813319806222,
                  -0.14536751878797205, -0.3975279754340419,
                  -0.20382270219512674, -0.9583680251214641,
                  -1.0300025419310963, 0.4805655580591673, -0.19827419975830854,
                  0.4697381189866439, -0.3587877322084093, 0.34981675924948546,
                  0.15614970594100472, -0.0007166378734213007,
                  0.6062397892863554, 0.39650109834151565, 0.4695755867984759,
                  -0.8953226788920715, 0.22877894897403042, 0.5258327697441454,
                  -0.2908655771816404, -0.07444869816430272, 0.1280907465156171,
                  -0.6147189281736275, 0.20079697152301887, 0.6385992483590278,
                  -0.3448714726601007, 0.9629234766968603, -0.8482525964078526,
                  0.3048694933916807, 1.129318032066526, 0.7746492987667453,
                  -0.016724963915751328, 0.2936818471693578,
                  -0.5841531669075938, 0.4024990405636506, 0.25823640509405665,
                  -0.5373321884154582, 0.9749012026273685, -0.3484747524653391,
                  -0.3238128578531821, 0.41327420740231524,
                  0.003091458268807684, -0.8778829023344557,
                  -0.3674173660719351, 0.3796283548451981, -0.6441191857635931,
                  -0.27367519647913, -0.8181191242828065, -0.9057127992722332,
                  0.1535255499329812, -0.5740667394852872, -0.6728873986482458,
                  -0.533625641313868, 0.6249034924964854, 0.41517504310025044,
                  -0.2943611342017458, 0.3777275809538204, 0.9991129033456959,
                  -0.20828133508080715, -0.0353392871167974,
                  -0.4823899492794524, 0.17337294595910147, -0.5295378911550102,
                  -0.013733442086616868, 0.7612491469418319, 0.4873123275610015,
                  -0.7691956840961476, 0.006068020288370408, 0.166431171565869,
                  0.44097058298871517, -0.26257075076882774, 0.2028247116933759,
                  -0.7265872103727389, 0.8301267330872033, -0.7079657732366786,
                  0.23824500434672127, -0.8782372162803536, 0.41911110304094984,
                  -0.7650327813456109, -0.347273431630235, 0.46717369926846003,
                  -0.27565027785692414, -0.6434656404723049, 0.9947278128974698,
                  -0.19437913070605697, 0.9803193761881976, 0.4676905452700976,
                  0.059748006200297424, -0.1103873045642472, 0.3613373903983111,
                  0.12141804226403019, 0.7581051957093398, -0.5575207544387575,
                  -0.5387550671179723, -0.4419010301978443, -0.8627858852721473,
                  0.7867733516677515, -0.4061944709197776, 0.8851892424916179,
                  0.6313615836029709, 0.5797720685974647, 0.9966659016460923,
                  -0.24459063529497657, 0.4029144289724213,
                  -0.17518037665895045, -0.11405483104646529,
                  0.9459621945532151, 0.37586004131335365, 0.8397615783118354,
                  0.3689391572944428, -0.9511589983975063, -0.9270791850180816,
                  -0.6392141131624052, 0.5129414521755672, -0.6948988785500227,
                  0.6050219122242607, -0.7465273259026839, -1.102822389429062,
                  -0.9261249478340723, -0.5361703754750605, -0.8632934798231254,
                  -0.22130969083421947, -0.23110865758390617,
                  0.8591315571422484, -0.3330697954974507, 0.8116942661952297,
                  -0.32498943620389686, 0.7948330232910195, -0.4853096633742342,
                  0.8100190267926823, -0.18465523130722983,
                  -0.48209315602844527, 0.5221166311385845,
                  -0.48010415119095534, -0.8147064294972136, 0.5856230324533046,
                  0.9150534867396458, 0.7450658098275292, 0.49218655710353537,
                  -0.7140359193361367, 0.0015831736732455587,
                  -0.8291983610857858, -0.8194330066192581, -0.4479215566419326,
                  -0.19554385076006256, 0.7320414879453793, 0.6666380590041128,
                  0.4731803242687367, 1.0414968550301644, 0.4193590470622619,
                  0.9704330047064705, -0.34049591090702347, -0.4282601514792578,
                  0.9207944698206438, -0.9350300577325761, 0.3928445129568412,
                  -0.46720767191486123, -0.34844080801682636,
                  -0.09281246757604417, 0.7925358141755592, 1.0266440453201096,
                  -0.7567614099269985, -0.7425411656709018,
                  0.009258461166644817, -0.6663190023833058,
                  -0.6757384219348433, 0.5126882641711801, -0.7495649920366404,
                  0.2282900010669962, -0.316412508520758, -0.02984697587574808,
                  0.38395956596611036, -0.176190684990275, 0.9471223172271784,
                  0.2839709645929797, 0.4763918869993345, 0.07743080368532516,
                  -0.6247671102670811, 0.42473168722370097, -0.5370259029988635,
                  -0.5340182786286138, -0.7850828752590159, 0.08505645074958502,
                  -0.8733900771694199, 0.0926628273044372, 0.6312566469761604,
                  -0.43375186899706875, -0.4415913060717157,
                  -0.8462156659721494, -0.248602173777923, -0.8314701294836268,
                  -0.5882700785831354, 0.4811119605175084, -0.16059434570102338,
                  0.18597735491111395, -0.46548432746896784,
                  -0.5884006057876975, 0.6497672911386947, -0.8849088300579167,
                  -0.6179465600533035, -0.814391143156093, 0.17648639492837231,
                  -0.11021543087213811, 0.6478876213150435, -0.187264880603473,
                  -0.5348314203552959, -0.8548014651832098, -0.6884279397608166,
                  0.45660914288401416, -0.9217810715529462, 0.9671749214304179,
                  0.0971065744282722, -0.3283660089401031, -0.20645881443415268,
                  -0.6427370298687363, 0.6838379847680934, 0.4897443921164747,
                  0.750004982080811, -0.016922846938539387,
                  0.013168168731012524, -0.8134237154960555,
                  -0.43161173051178336, 0.08034362682389608,
                  -0.41896152398909975, 0.5842481494275197, 0.5213530755170579,
                  0.6399389816906472, 0.009842800416833818,
                  0.045664507191160955, 0.21854835501582448,
                  -0.6667600786086205, 1.0210809745276397, 0.9615976109002843,
                  0.3539607329754886, 0.820035497438834, -0.5059833059250923,
                  -0.921996371213385, 0.49978984517298664, 0.6476244466860659,
                  0.11409351566679016, 0.45892188626708313, 0.7307696437312036,
                  -0.8311314109059591, 0.08236094080512804,
                  -0.11066407261452887, 0.6715171537747179, 0.36964831165142514,
                  -0.08241038736648942, 0.4637862848038549, 0.507218138124191,
                  1.0492440796636953, -0.6193729478796525, 0.855093992087363,
                  0.06490712083939443, -0.4775931532246729, 0.3421877367118331,
                  0.8171533075109509, 0.6376620742328859, -0.926427830109781,
                  0.4859474607753813, -0.45127010700799564, -0.1653374027921969,
                  -0.6339158834139896, 0.47853401342097573, -0.66758644003098,
                  0.39161760979536453, 0.29009538652777067, -0.6177970992538953,
                  -0.6403201261840414, 0.8950596261494498, 0.3186734211177355,
                  0.4057704410813533, -0.8277949250342528, 0.09527680688611288,
                  0.7528998874888432, -0.21561519397826093, 0.9013611546010437,
                  -0.06627811064583944, -0.1792742248674255,
                  -0.7459473766699176, 0.6383857577948325, 0.5665249637670029,
                  -0.23372632870860682, -0.2920857424386514,
                  -0.4289916837618095, 0.9232096561656121, 0.9692174283738401,
                  -0.9033819867711309, -0.48189406540928814,
                  -0.03240356212657474, -0.3089524987604882,
                  -0.6900664570067482, 0.7794194972040113, 0.6834958367949027,
                  0.48599762400923785, -0.00899837093303768,
                  -0.2982309821527611, 0.4656461807326613, -0.29419896356621744,
                  0.3094906035520441, -0.49367532766497046, 0.986002034987851,
                  -0.41833514457829424, -0.9562118581719692, 0.9435519389870918,
                  -0.08466800180927307, 0.4971303944273264, -0.5501924965547504,
                  -0.03549147971499587, 0.9845675536668188, -0.9106446076532985,
                  -0.9415366169257621, 0.7437010286236809, 0.9299306378473433,
                  -0.4431431552274553, 0.43862070747120563, 0.181772476334837,
                  -0.9544900442532106, 0.8285110523822595, 0.3835833340620473,
                  -0.9114079113484521, -0.518557143360566, 0.04250996162411447,
                  0.28227570353661235, -0.5651030326414466, -0.469886108935889,
                  0.08871800063852785, 0.700761727326444, -0.6120194895865231,
                  -0.2660671893467657, 0.45980740623910427, -0.511341545287089,
                  -0.7990591167690879, -0.48572397110996524,
                  -0.2183943186389784, -0.9338651724195891, 0.09405976681051106,
                  -0.7662359499008731, -0.3355986938266465, -0.9555793505705815,
                  -0.35569372863724924, -0.009411519393151591,
                  -0.6412678641778714, 0.10186313656027576, 0.4215733010511398,
                  -0.3316804813644912, -0.35434049108722127,
                  -0.6244496050870366, 0.9008501919486791, -0.5583639403477765,
                  0.09208923579785333, 0.04336052272487656, 0.6896314229836982,
                  0.49913403593633365, 0.07057281433867614, 0.5844834244804735,
                  0.3718922185040477, 0.2346229220737629, 0.9024915185073998,
                  -0.3768196063472843, 0.6674550717988759, 0.42274473950428026,
                  0.4155178198473294, -0.791252132069299, 0.17071568202452514,
                  0.1490628876671849, 0.08867374052883908, -0.8071807407187231,
                  -0.09875342838289054, 0.4880611135740046, 0.6703010435582515,
                  -0.4477058295297712, 0.9513329250413239, -0.06067848673996829,
                  -0.5180296259629888, 0.026419057283214288,
                  -0.8997865449344595, -0.31908086631468535, 0.9125816069600372,
                  0.8489030146144176, 0.4600271308064028, -0.7877723450051763,
                  0.17909651169838003, -0.10381615040592962,
                  -0.42057762037080215, -0.3836223629862283,
                  0.21635829961687728, -0.4850348728521516, 0.8171457429589742,
                  -0.3669239545095521, 0.05984903453870045, 0.4205937995376975,
                  -0.5336522068739006, -0.1307970591979535, -0.1893998828517926,
                  0.22484670840704118, -0.26958244920641405,
                  -0.48382057215079577, -0.3517813572665768,
                  0.27270662844429255, -0.6050221886497109, -0.8712721306662926,
                  0.9676742311244336, -0.6199097968934302, -0.33548650289329585,
                  -0.07963322065673983, 0.09880368076065649,
                  -0.24343762385079737, -0.07315168267789618,
                  -0.8288485970197268, 0.8942965429260381, -0.9296198053552724,
                  -0.05686161162278914, -0.2883117946031745, 0.9430169032018128,
                  -0.8653427206741098, 0.8581469455758934, -0.5906802108137259,
                  -0.8261058674686824, 0.19449601616347026, 0.25132019518735055,
                  0.6810192279474004, 0.5965545990888863, 0.17813104848140457,
                  -0.49163269710491486, -0.7084706467084746,
                  0.049574184751904615, -0.7314890266968345,
                  -0.2546214506500521, 0.9297717774906923, -0.12321785777042571,
                  0.4668913454969372, -0.6916127386497841, -0.8179279454477797,
                  0.8625752612710671
                ],
                [
                  0.16623817047287792, 0.448490562177672, 0.6799359276460075,
                  0.8223871059155452, 0.9954549680727265, -0.7027377633919265,
                  0.37339150037052615, 0.2143268758979726, -0.7783846473552543,
                  -0.6543203191338773, 0.029168058044893197,
                  -0.7395197015002739, -0.2757852092620827, 0.952554110470587,
                  -0.1943250275277837, 0.6951204000103455, 0.24363067836012764,
                  0.3850600632121215, -0.17829483068143448, -0.4449025100001842,
                  0.22145907810817977, -0.40613732548639847, 0.9113958226062411,
                  -0.4768343024319823, 0.33063390483546184, 0.7693097692605821,
                  -0.673089413021092, -0.538777127244559, -0.7411212437306727,
                  -0.35147874694266035, -0.2556817108792635,
                  -0.8025188250449728, 0.4742357681429965, -0.34057952316878604,
                  0.9474010631098264, 0.4983218664995408, -0.06759231246624789,
                  0.03934446329917847, 0.9051198516386928, -0.3489843189009552,
                  -0.48376415660462685, -0.39550020255973506,
                  -0.6279981505302675, 0.33102455077218357, 0.4353755354932354,
                  -0.396602502624746, 0.3635483127823696, -0.7377028037799712,
                  -0.7070279430389808, 0.6865181674040426, -0.667307588580835,
                  0.22377915204305038, 0.43880180400422075, 0.9600505516155904,
                  -0.8168412840683446, 0.5211019954890546, -0.8252089585980453,
                  0.24011928803755067, -0.09363913826992531, 0.6342056352378953,
                  0.17555050862627697, 0.7032987151823736, 0.10628956708903031,
                  -0.6684242877620723, 0.8938512837616676, -0.24802024800072942,
                  -0.30661064789656245, -0.10826737265138706,
                  0.7934327331561951, -0.013712490864204086,
                  0.24453014424588482, 0.5301461447069628, -0.5009336259981768,
                  -0.44389052771941767, 0.6942169801134656, -0.5089945567157885,
                  -0.660783616628254, 0.6135804806450076, -0.07413867750579904,
                  0.6958415566272703, -0.47648795481923095, 0.869661440383068,
                  0.2161229178118913, 0.14011189815913472, 0.6435510740598298,
                  -0.37562655251679855, 0.5032146851208643, -0.7265547099444798,
                  0.8190386517432425, -0.41462975954221376,
                  -0.00594147880167236, 0.6551762068921546, 0.9427600286688345,
                  0.7965532134420588, 0.7029506042212879, 0.7721571408472849,
                  -0.5020791785578728, 0.21796537267044105,
                  -0.37301153502425977, -0.8623784547975195,
                  -0.44631083067631055, -0.8684453025637578,
                  0.27474325381544895, 0.6975354247348144, -0.9837223288442433,
                  0.09219006297270413, -0.8966943934493745, -0.6306666558375921,
                  0.4835068351985865, -0.7490545039083196, 0.877582890599121,
                  0.5838537467117471, 0.8517021759601562, -0.5909528547033411,
                  0.41143570650723316, -0.42153420284581233, 0.5243633270406985,
                  -0.8818569134367611, -0.09075081824808334, 0.9059809218221252,
                  0.5849442290706609, 0.9482646775454695, -0.1836160924464122,
                  0.7928042192372716, 0.7844580485848774, -0.5258171080273236,
                  -0.96961826880171, 0.4974284835826024, 0.5420092870711096,
                  -0.7832656842149239, 0.5588740969962305,
                  -0.025819539393973297, 0.6124681791727309,
                  0.16871986856325213, 0.9184277955237984, 0.2179240293232249,
                  -0.766639056055051, 0.83569354357271, 0.8322123431861679,
                  -0.8253178374849286, -0.7166529068756549, 0.9635416951860951,
                  0.2041448513382438, 0.10976673671081671, -0.8293939801459823,
                  -0.25345868998332166, -0.9902151556683595, 0.4155308690604768,
                  0.20530368183347358, -0.7639572676684686, 0.2534911638125819,
                  0.9361131982931084, -0.7883016384865044, -0.33240174471876055,
                  -0.5993755596092574, 0.3887881216458985, -0.5316872583821876,
                  -0.27007688642980643, -0.13302391438789654,
                  -0.27772276900286863, -0.6675450145064079,
                  -0.6209065932489735, -0.9191902114941273, -0.3241161623827863,
                  0.3581150984085241, 0.527396835529882, 0.6967804540451699,
                  -0.4601866373727539, 0.5168527051055416, -0.3895209347072326,
                  -0.9169103860714478, 0.4501485493853356, 0.5607479522951128,
                  0.40722013078646874, -0.76947534774223, -0.7460037339686126,
                  0.5563873961173796, -0.9630554492332046, -0.9640330307427109,
                  0.4614751098917944, 0.25011856711810254, 0.7163164884216542,
                  -0.8466049055629535, -0.05540528042906089,
                  -0.058766559902828905, -0.7586639889348811,
                  -0.060132984847146326, -1.0518092207577578,
                  -0.2484938091218385, -0.019551921448273, -0.8139262737853974,
                  0.7520407054946523, 0.8221571746972012, -0.48885187633748284,
                  -0.11158860709330608, 0.2443866441839476,
                  -0.11743244728840363, -0.5817842058715768,
                  -0.5195511014847577, 0.08339578739072752, -0.3007205689455289,
                  0.7805296233063272, -0.4065884671467767, 0.056709322783514655,
                  -0.3846375774079511, 0.9455452059055728, -0.1857453432356831,
                  -0.25755711678898763, 0.7199704921436677, -0.2951570405600296,
                  -0.6816726157987308, 0.18495026477489557, 0.9680548270571793,
                  0.3824084327084653, -0.4287552391258153, -0.37340935490766375,
                  0.5348165598319388, 0.5886560952776726, -0.016778578978205245,
                  0.3052028165428053, -0.8898563166927558, 0.4781045304534756,
                  0.9725563739888688, -0.45238276184172393, 0.9735830468583253,
                  -0.09052255209430782, -0.013427955644274799,
                  -0.6405196260497664, -0.2637703564489675,
                  -0.21773746341906794, 0.35241437362309713, 0.8488178959209938,
                  0.8757404419950285, -0.398986287047943, 0.2305223148576864,
                  -0.1517042261376146, 0.43487464756288835,
                  -0.025384223410085362, 0.38774531145328617,
                  -0.7609157708499246, 0.6704753424870689, -0.5006043308014635,
                  -0.39815237423471844, -0.7942831042847879,
                  -0.5623771239016245, 0.7538182914292753, -0.957059992639497,
                  0.5774478451382106, 0.47350476582297, 0.5289083190890371,
                  0.9773328664094078, 0.09975412808156267, -0.33190699989298666,
                  -0.6768129089737074, 0.8646788514691129, 0.7779969182448502,
                  -0.03465074088350927, 0.13817482148656698, 0.4824454533729265,
                  0.012885890173453788, -0.2926227063679449,
                  0.12970770686242303, 0.7496667525137302, 0.24559839963008537,
                  0.4993737462783472, 1.0374819413248852, -0.479632798824671,
                  0.9972385045233971, -0.4987973567237211, -0.03252923957154251,
                  0.054032520974057634, 0.18957336119844886, 0.9680610353634794,
                  -0.9047456945793846, -0.3904079305507892, -0.762351901261774,
                  -0.912738099102831, 0.8119543870416301, -0.6237565809483757,
                  0.3713336337201693, 0.7162757556502881, 0.48167595883396297,
                  -0.6555123215698648, 0.45586043893487715, -0.4675677294370618,
                  0.918851916024824, -0.5993805053843716, 0.35979071667902357,
                  -0.25499081391249945, -0.33321474183821925,
                  -0.14652109669480418, 0.3190629738081302, 0.8039375147614074,
                  -0.441506224415471, 0.5797969549068936, -0.5506114968163071,
                  -0.08593792128068127, -0.6236229149153487, 0.5023477616174543,
                  -0.5508703928873815, 0.771219588593084, -0.5749157959583046,
                  -0.586708912940865, -0.11188217794522344, -0.9663475299417519,
                  -0.09444569144689142, -0.6720788031713895, 0.7548658216429053,
                  -0.880646628217153, 0.3832057835591766, 0.9187722144557211,
                  0.5962478469987103, 0.48714415281389367, 0.13959992662786258,
                  0.010194246909390926, 0.8479818545630325,
                  -0.49189447545869747, 0.09093475296810538,
                  -0.7976543431441864, 0.548292702662802, -0.5517738826608536,
                  -0.4008013641319386, 0.01735468447047536,
                  -0.08924589493117087, -0.032741708572708854,
                  -0.7906498847113969, 0.3359220761349109, 0.0178348783515523,
                  0.1828835836445339, 0.17051780009326858, -0.6829432641176196,
                  0.5987221041513828, -0.011486880549685871,
                  -0.2752510196540448, -0.7386218355264089, 0.23666109652521528,
                  -0.9034353016049423, -0.5781431876381028, 0.8884169299318796,
                  -0.30203582558712117, 0.5087515038655261, 0.19257954476770958,
                  0.35658081029515676, 0.5157688384146824, 0.33367548732452096,
                  -0.9157864105436113, -0.40541353118717216, -1.102572657562757,
                  0.6391367603549604, -0.42346304022838344, 0.40463315584099746,
                  0.0475943421859919, -0.44685413076011893, 0.7075417286196165,
                  1.0006022387602682, 0.08769199768222023, -0.3270592163229198,
                  0.3642051756910777, -0.032001773016902366, 0.4513640630730586,
                  -0.16627782945391228, -0.809843236323522, -0.2787859410386113,
                  -0.2176811641316971, 0.6568741615875795, 0.39679529859028784,
                  -0.233165832147112, 0.4387811517500464, 0.19483869362948078,
                  0.42221175043061654, 0.3969400560077097, -0.4949337128334939,
                  0.35776968994273667, 0.6619120864911314, 0.6821019131457915,
                  -0.955600301610576, -0.011904028327865183,
                  0.055762703620584816, 0.8071420811723803, -0.3869193252133099,
                  -0.21899803014549013, -0.07297475088583029,
                  -0.8513723540018135, -0.19309630158396734,
                  -0.7693275472975627, 0.6854484138699077, -0.23353837180437811,
                  -0.21890997232025858, -0.9258780914632291, 0.8688156887559164,
                  0.38230948419034516, -0.890233440476965, 0.7747944275015435,
                  -0.4073097811969993, -0.41334363356346054,
                  -0.7966759693452975, 0.14081776132251914, -0.4573297910515123,
                  0.7318496828498257, 0.25317607830718797, -0.8303102677393995,
                  0.2556545247225059, 0.30657082857728907, 0.5433680065434522,
                  -0.22036099315605978, -0.7919728261600837,
                  -0.20321781810585923, -0.5460755263868108,
                  -0.24082674039429153, 0.38967370965193016,
                  0.34649187401117015, -0.2543870971236912, 0.19028011734355496,
                  0.6892168358448695, -0.8988823347619952, 0.20732583645933225,
                  -0.0656347628403356, -0.11816706616261555, 0.6032490359920806,
                  0.14110307352450535, 0.6510220881765951, 0.6252011354335409,
                  -0.17397336338890887, -0.6144024163669949,
                  -0.7267792894477089, 0.8345744136050923, -0.6090329888005487,
                  -0.26411292399090835, 0.520683230666665, 0.1137268157921638,
                  -0.6306445669866607, 0.1809246983675091, 0.485989732206845,
                  -0.19341441924747682, 0.3839456292905899,
                  -0.33634983205606916, 0.6506597625169293,
                  -0.19208287560754564, -0.42383528554672106,
                  -0.1655543564058821, -0.7991838482463757, -0.496111810718536,
                  -0.3856689816473153, -0.993059184834304, -0.9965559606784826,
                  0.26162594853361454, -0.9760248523702179, 0.04304482486418624,
                  0.8051184132765545, 0.9893556158526542, -0.299821740590062,
                  -0.3837844444434406, -0.700958386261687, 0.9276654880479347,
                  -0.7893630782615879, 0.3889196753216032, -0.7373050701464613,
                  -0.6634040621634129, 0.03832077554067462, -0.341745796474044,
                  -0.5981218671063095, 0.764149186558031, -0.027838992312570504,
                  -0.10148456145151062, 0.9237688688901089,
                  -0.44584672301973777, -0.23185713927595897,
                  -0.12646235475314832, -0.8857004664619882, 0.7943082104471676,
                  0.9366689048573058, 0.8346425327264588, -0.45939137239595507,
                  0.9094477328238637, 0.2423343233628299, -0.9913358012415441,
                  0.584776718939553, 0.8501298614096996, 0.435002449101213,
                  0.42807786997036884, -0.6808043047898691, 0.6104898776411449,
                  0.6565289711998233, 0.11727998540031156, -0.08883445220920487,
                  -0.25061502428925886, -0.4966673418741736,
                  -0.9947237849707359, -0.7365226198198764, -0.5974827725861968,
                  -0.0924859250783942, 0.8525760919005678, -0.8544117324530993,
                  -0.29164407038407586, -0.9580913283826872, 0.9179308261348124,
                  0.33704757420553844, -0.9714470105738913,
                  -0.08522550223335959, 0.3440580938010963, -0.7966650433440949,
                  0.8048186644922313, -0.6351924392575425, 0.523579626129292,
                  0.5979814840199986, -0.38652104043181446,
                  -0.15491689411536325, -0.5127755984888706,
                  -0.8275973556587305, -0.7788559154196303, 0.928828671328381,
                  -0.5727681047668224, -0.004780307510692546,
                  -0.19703265487486152, 0.21229745470792424,
                  0.20370427598979757, -0.9387356851607944, -0.4309170708690967,
                  -0.36509492727711973, 1.137634443667168, 0.5797966299139392,
                  0.3671565504928529, 0.16575663974592406, -0.16852832962675177,
                  0.48091414226213924, -0.6745388064594704, 0.15271610895517312,
                  0.25623431816718917, 0.3978755098724733, -0.4897930285268495,
                  -0.9638528894721983, -0.6978634183049842, 0.16226928570067756,
                  -0.5487178455280506, 0.09223326882632847, -0.5737463728285107,
                  0.8929577419422898, -0.6467768295625429, 0.5258733574151446,
                  -0.8546715831781873, -0.6988966295772135,
                  -0.19396876938591542, 0.05887440798703968,
                  -0.9954963679851736, -0.20432616779322782, 1.0193402741213804,
                  -0.7318985643078773, 0.28749344202945765,
                  -0.025303289356280297, -0.15749378747813178,
                  0.3427067395217104, 0.22487823995181727, -0.32680859489521313,
                  0.21863908099255133, 0.5327048097343666, -0.6757269675367291,
                  0.2700442787018544, 0.16080694253752992, -0.31605660426002363,
                  0.5280671328181087, -0.738833258441054, 0.9388315898044217,
                  0.1203406132528004, 0.8666882925073253, 0.6270737898049072,
                  -0.7344329454270527, -0.7142580309393446,
                  -0.12623206427964365, -1.0697484931306847, 0.2135054996557151,
                  0.5372807959299672, -0.8532047154596302, 0.17007441966336787,
                  -0.4468223411357159, -0.2367092564588035, 0.637682002514929,
                  -0.6329719743113376, -1.110909444972003, 0.18835169203920019,
                  0.7110999740127382, -0.32822432468390494, -0.8686903525422037,
                  -0.6602818225419742, -0.7702749168669928, -0.7343203629065042,
                  0.08222549147274054, -0.9965262152034788, 0.5227277059898797,
                  -0.7860560771228928, -0.001381247748197769,
                  -0.6582168139501839, 0.8349590797793544, -0.8374848919218673,
                  -0.26109280167237653, -0.4520503854671701, -0.259588957413452,
                  0.16355064044420975, 0.22298390873018167, -0.9021425523836096,
                  -0.6001479576986779, 0.02888902940864111, 0.930881551420367,
                  1.0128493732733992, -0.03007449388249034, 0.27916278655981186,
                  -1.0970697766939161, -0.9277088450374511, -0.209803607366369,
                  -1.0188206355552731, 0.38871454932265886, 0.5538539642128398,
                  -0.4619126924519906, 0.5163240998196083, -0.26415080675377894,
                  -0.34039642288971544, -0.8506457570341133, 0.549901605645077,
                  -0.6089418163047009, 0.9627575396900421, -0.9974800845032203,
                  -0.23722392858532734, -0.6121977623445608, 0.546152848360682,
                  0.7960828045519106, -0.6270413032106182, 0.7112902517679138,
                  0.41197961318764986, -0.37460621555547546,
                  -0.5252750239948041, 0.33386060092564906, 0.12247987697838168,
                  0.8075228424042867, 0.2912107863748664, -0.5013287015250304,
                  0.4030951003933714, 0.9305596784462846, -0.8827414700701461,
                  -0.03680313261648704, -0.15739096435541586,
                  0.4509686342500124, -0.1110183600256135, -0.9498416240796355,
                  0.4201456420319457, -0.5879360371531148, 0.9463750052793043,
                  0.10429388356609381, -0.85833081770326, 0.14599298851655365,
                  -0.5418630697572063, -0.80658043591942, -0.289445952231574,
                  0.19623883176679538, -0.906218629716976, -0.40759490154464384,
                  0.7932430178873153, -0.8763170083864944, -0.7575082828417727,
                  -0.03273959656700866, -0.22877295405401224, 0.989243968421419,
                  -0.00914465519894882, -0.379445162057653, -0.5721189008724636,
                  -0.397066164840912, -0.09672928145646832, -0.1810837737417924,
                  0.8201426613542797, -0.3235012863157768, 0.28716460077489686,
                  -0.08503562071371405, -0.3089631392417074, 0.1707641414506864,
                  0.8783329108451725, 0.6304144161111722, -0.0790516536292234,
                  -0.638391746574634, -0.8498252808677339, 0.8421003050738819,
                  0.49033707170441265, -0.4450501787983494, 0.6026744242842744,
                  0.011518348075409983, 0.9399273746314658, -0.2564317819954253,
                  -0.21236543176036987, 0.687324974445238, -0.29405014481292896,
                  0.6780906588858142, -0.014634058567127801,
                  -0.8653189496170798, -0.6995963710860102, 0.7501749445288326,
                  0.2866525789879878, 0.7771769766486645, -0.47989131526711104,
                  0.715537085883432, 0.9173180662406163, 0.8975973929560652,
                  0.036799552996051865, -0.2981771980135206,
                  0.39785538571617174, 0.6502931639734477, 0.9197191190079557,
                  -0.21351561882742856, 0.06519846281293837,
                  -0.2521004577127699, -0.529178895324331, -0.19519123069690802,
                  -0.4757164380998071, 0.24984210092723075, -0.3681211316148861,
                  0.9782404313445047, -0.15007054846438644, 0.9905787527787424,
                  -0.7094590155447468, 0.5559459355549695, -0.12790134202625178,
                  0.4046998278877962, 0.19474132055524335, -0.347769736648591,
                  0.628989045826481, -0.9481834533833493, 0.560281526043146,
                  0.32361505103129584, 0.09070902664459547,
                  0.009033355697326328, 0.36245981307539976,
                  -0.9426354988436882, -0.0186252997397367, -0.2556054242796679,
                  0.673002232742923, -0.7944232046259287, -0.8486360116041819,
                  0.06430418580228742, -0.820253251149733, 0.11344688002409328,
                  -0.5594727678100541, 1.001758184026796, 0.49003697395363477,
                  -0.6849531130992337, 0.12132303462137316, 0.6396996398252726,
                  -0.773952016760168, -0.9206846499979378, -0.4965848524831378,
                  -0.4443664907704069, -0.9146864657076774, 0.26057447041549475,
                  -0.751651957544748, 0.6583852290212823, -0.5301736423351496,
                  0.3832145694578381, -0.8156000101923384, -0.9557286173151525,
                  0.4397582211284172, 0.23093522354537743, -0.9546931622640025,
                  -0.3942251598577995, 0.6208204097991632, 0.6281047636619133,
                  -0.3272916590432473, 0.46122067295514824, 0.12106801099839665,
                  -0.6196079950192973, -0.13784366840980736,
                  -0.18367427031472164, -0.8408578330971921, 0.381145759451856,
                  0.3887722259412371, 0.8461130419146542, 0.19789102973918615,
                  0.07482660586432835, 0.36385862957136045, -0.878982280312382,
                  -0.8778153224792786, -0.7749985830473853, 0.17444750567714803,
                  -0.1862349091691486, 0.9131313157247826, -0.9846986260118245,
                  0.6834042392144393, -0.012789569037787718, 0.282601607065736,
                  -0.23403150543323425
                ],
                [
                  0.12296802699715581, -0.4591451505661115,
                  -0.026820728473126554, -0.3311256354567127,
                  -0.09490672234637199, 0.04969349513697896, 0.813813237172115,
                  -0.8337222381962515, -0.3885212660277504, 0.6817690248440313,
                  0.5377365032476638, -0.927595590400466, 0.36898049960527857,
                  0.3193020956859409, -0.03035271542737039,
                  -0.009281715333774088, -0.2015837683566688,
                  -0.3068477508918268, -0.5093665120412383, -0.0370099272428841,
                  -0.527701025849665, -0.6612748089957634, -0.45456473250017293,
                  0.33231610433325365, -0.382756799138805, 0.2086642973498396,
                  0.1333406610845853, 0.1604084066804421, 0.9205074163987876,
                  -0.04605100001077078, -0.14513399950976824,
                  -0.16217267858575246, 0.12746824883358165, 0.5779977315929177,
                  0.1504246694167395, -0.4836484637705526, -0.9149841704223094,
                  0.5498135088252682, -0.5913480971848106, -0.7014460827826414,
                  0.5905702595488801, -0.15809970115564667, -0.4590751642045235,
                  -0.23821932722608616, 0.991754411292236, -0.0961411101649635,
                  0.22853758051267137, -0.6242230047666576, 0.9787724142910674,
                  -0.9595449169497517, 0.859082490058377, -0.4218819781521961,
                  -0.8664937716701493, 0.09603448644179391, -0.5199769435665327,
                  0.6349659864698469, -0.9133825533726228, -0.2693699525336348,
                  -0.3757672072752931, -0.09966149798914836,
                  -0.09419839162083443, -0.17531717038552888,
                  0.30609872600803184, -0.6779308600533188, -0.684159629741456,
                  0.3346227388120486, -0.5007266135464099, -0.5156074963597752,
                  0.21357335275464084, 0.6371061283097825, -0.10435633704720962,
                  0.15190316109164476, 0.46157205410348673, 0.8805645625880908,
                  0.45276925022846204, 0.770661748425167, 0.9413127197258948,
                  0.8339049012415436, 0.9912646207521277, 0.14783679493358154,
                  -0.7123425499989923, -0.5132630984847482, 0.5435058763723855,
                  0.13727627164470313, -0.6230954190336959, 0.04471901439374237,
                  0.9213145379136858, 0.9795512083990126, 0.7757293705302803,
                  0.04483838501137442, 0.4344629142923789, 0.43013609276570064,
                  -0.7445509490674489, 0.4570846507818768, 0.15373540826038293,
                  0.8760353541388507, -0.3686160975128986, -0.6803928301756037,
                  -0.5215207375419061, -0.7062651668625227, 0.1865387931505884,
                  0.9588409653970347, -0.42985098551106243, -0.9624902077802155,
                  -0.46630365793242357, 0.40153901829098365, 0.3203800594601557,
                  0.47331436975804775, -0.4020979557960554, -0.2652066508586759,
                  -0.08733811381019851, 0.7433850671824165, 0.967781379896,
                  0.9223737296096415, 0.8282894864294126, -0.8069241285885422,
                  -0.9221265444303327, -0.9670821522741055, -0.908421844982288,
                  -0.4593413524417548, 0.9029766133516361, -0.4967294024868007,
                  0.4272923858409964, 0.02242219652896905, -0.7887713968045423,
                  0.2175021410485187, -0.6014907542136182, 0.2922968210196299,
                  0.8400421027291085, 0.3684068417843257, -0.15916258681235343,
                  -0.03403656814731628, -0.9502226445830974,
                  -0.6846241757362838, -0.9274509946407912, 0.5901286218647503,
                  0.7079800311358038, -0.29620654836932486, 0.21257949570771742,
                  -0.7903576234775227, 0.4147351281355198, -0.9195214160179526,
                  0.1777927092674749, -0.1812252883954947, -0.9725326130339698,
                  0.8621435763566492, 0.513458689409112, 0.9053538197456072,
                  -0.9600970135068387, 0.799758496702326, -0.5457737264199672,
                  -0.19790818974596355, -0.9396246508133544,
                  -0.09571436637159354, -0.7957200229304827, 0.6790049012560986,
                  -0.20567673003147696, 0.6876505935488617, 0.7195382543666671,
                  -0.09183651811841985, -0.18121225266186164,
                  0.4413576443376856, -0.11035581943442557,
                  -0.18222082307633808, 0.7026683835149513,
                  -0.07314097552418662, 0.5403504071997535,
                  -0.005107212003093942, 0.48769832040787797,
                  -0.8052709457960736, -0.9281476319243861, -0.991534832867364,
                  0.20883024280244195, -0.2555403764647364, -0.2196684668371992,
                  -0.06388519965164578, -0.598289436426077, -0.838544824664154,
                  -1.0435150432963765, -0.9786805926829862, -0.4675474064061273,
                  0.7462830107436211, 0.6353846126182314, -0.5235198743887981,
                  -0.7531995792281171, -0.41712144447576294,
                  -0.5220996420123487, -0.41990351226068584,
                  -0.6830793680851599, 0.09246961743173618,
                  -0.03683359365912502, -0.47013605927261154,
                  -0.49639561086616213, 0.9498479658546926, -0.3411736241378192,
                  0.5590929713265903, 0.21041489499800692, 0.8851512370961971,
                  0.7346086657666773, -0.3675438659547815, 0.8881475185206326,
                  -0.005836110709624623, 0.693934615661029, -0.8557796372221927,
                  -0.03899617481460728, -0.040191799181459376,
                  -0.4033784248753992, -0.48898959357987754,
                  -0.46310620366732247, -0.47734651668881645,
                  0.7592769366169545, -0.28943433297921395, -0.5161627613947711,
                  0.73675454702859, 0.4930541681303578, -0.8348049947540914,
                  -0.5300417794226523, 0.39387514603792406, 0.6686320118173815,
                  1.0055566964161002, 0.21186199627323243, -0.25802623814927733,
                  0.957198319425247, 0.36490485623448116, 0.022799453530693903,
                  0.06777829661275941, -0.11124923237004963,
                  0.27816564399191446, -0.2603352296342817, 0.33842700801555575,
                  -0.25953079046165833, 0.03816116803980784,
                  -0.3218020760021623, -0.29902289793072245,
                  -0.44536631701473145, 0.49118321198445253,
                  -0.08829102189687632, 0.6937786033525707, -0.5387147922244414,
                  0.7959260559178338, 0.5258928943927742, -0.8134712487032317,
                  0.0032206363367826897, -0.7087407785198949,
                  0.9870210570032748, -0.944433901529186, -0.33608433436512725,
                  -0.2561125787526515, -0.29678546839774306, 0.5781004527824314,
                  -0.19166187636971727, -0.13201654834503154, 0.565104902499765,
                  0.46134738431905586, 0.4822768718154454, 0.9117617880907612,
                  0.33991200358365753, -0.4163480258753113,
                  -0.41193055869993744, -0.8370191853170903, 0.5003398618993422,
                  0.8769593036245585, 0.5423613689351542, 1.0298623266573808,
                  -0.29108614329495486, -0.22079736867037406,
                  -0.2325271403826388, -0.6926787217833061, 0.6610112749835256,
                  -0.7156291016020796, 0.9491504065712403, 1.00229742737483,
                  -0.23258388736158228, 0.739567452558926, -0.8326712426118431,
                  0.26795243720375056, 0.3436682106999213, 0.38745966294015627,
                  -0.1880065074114559, -0.28314642679659263,
                  -0.39604581756849155, -0.4517662918311149, 0.7868276267655877,
                  -0.43657186196825487, 0.728248117507773, 0.49602704382126606,
                  -0.666706276136676, 1.0449382943962795, 0.8088386426122799,
                  0.27351541636554766, 0.08252117339451041, 0.03943218608177688,
                  0.960189782199657, 0.10619039455498801, 0.009711520073372318,
                  -0.2823479288786311, -0.005957208385955225,
                  -0.7190424144052084, -0.25118827437519575,
                  -0.07136801388511001, -0.6162570548907004,
                  -0.03695485127483107, -0.24581979921406175,
                  -0.8836525877001412, 0.17433502156466543, 0.7658960832877337,
                  0.1584251580087876, 0.6060468907193496, 0.5843223510991788,
                  -0.524885631574569, -0.04531368753109752,
                  -0.16189248023718542, 0.330718826979442, -0.9027451119002416,
                  0.025578858382696176, 0.8374124468769035, 1.0511132619553103,
                  0.6347417579852657, -0.8839742392657151, 0.9273744721358971,
                  -0.20386431700224858, 0.8384750946638263, 0.3499270107324339,
                  -0.8448486085528999, 0.010259006029905064,
                  -0.9946063452909368, 0.4610928422920364, -0.2561464144792408,
                  0.26311211456755423, 0.43464775399062455, 1.0511625835515224,
                  -0.6979650159266075, 0.6261050803779143, 0.035528129798779624,
                  0.5083608186922097, 0.9628171579394152, 0.6746165570113272,
                  -0.913817413881202, -0.731898864931852, -0.5635222873302282,
                  -0.3995139340345634, 0.3740051234150598, -0.33693175384014684,
                  0.6738203731314232, 0.4082514232836409, 0.9658728405995889,
                  0.9240375834959352, -0.36423231035339343, -0.9064602937031714,
                  -0.681894322096289, 0.9192434075628615, 0.6516237411474454,
                  -0.020533500073201195, -0.41681804993085775,
                  0.2332615216111748, 0.8764885394256681, -0.8840773312088126,
                  -0.01020536517825688, 0.39661970258339196,
                  -0.7252021044363897, -0.7919180661344017, 0.6743391846682972,
                  0.766133738476626, 0.9953893590255546, 0.11498679228358233,
                  0.9132304846282705, -0.5375404109499949, -0.8052174217095258,
                  -0.03577129828302079, 0.35602977163761435,
                  -0.27728237534298283, -0.6788277423713324,
                  -0.18817083975665017, 0.8804304882501776,
                  -0.23165332862490115, 0.7447587231010125, -0.514027124292953,
                  0.24287237039921977, 0.03824243976891299, -0.8036761349235761,
                  0.4506153470515124, 0.31642277589379586, 0.31565385945524155,
                  -0.18453779429659983, 0.17709950120103196,
                  0.03929054161968419, 0.5012421542777897, 0.5771412112819931,
                  0.9735242795315967, 0.7719656176520647, -0.5197973755203346,
                  0.0850246745642198, -0.17503312411740968, 0.3532484176502566,
                  0.4800172063105213, 0.2881192118152232, 0.31916140544419724,
                  -0.6338181227716405, -0.4080169864318428, 1.0209257166587404,
                  0.6426131516401932, 0.45677532795025105, -0.04380026980431844,
                  -1.0384804421932954, 0.41881237157075946, -0.7093313601191914,
                  1.0488457658911714, -0.35734320107707707, -0.435192221234155,
                  -0.6441573199434764, -0.5568821406021031, 0.6790341456084303,
                  0.4117465130063699, -0.4099519805693085, -0.1558967441684721,
                  -0.8596184662514939, -0.9612264581666633,
                  -0.06678766553996864, 0.061048333159012626,
                  -0.0819809479898117, 0.5261034000939255, -0.16559257302963556,
                  0.7578640635263734, 0.6925199329106924, -0.9821064781627744,
                  0.09845254190305347, -0.2842843682469787, -0.8024271527420366,
                  0.5099284339846178, -0.43607027863810194,
                  -0.05684797770898548, -0.00032102809375190994,
                  -0.18319594214844354, -0.6957321144541659, 0.6730297249484789,
                  -0.7319093919729378, 0.7339637840206475, 0.606797172556045,
                  -0.8706749771901939, 0.67212867628582, -0.4585524506556473,
                  -0.012295162875497184, 0.35775962604404193,
                  -0.13301502754474973, 0.6345161889631128, 0.6734182771534535,
                  -0.13105059279967715, 0.9719653770595321, -0.5643580807483128,
                  -0.7375782787649182, -0.7409852090254541,
                  -0.47231385655082975, 0.6937515675022847,
                  -0.24117825582819918, 0.4089867047663445, 0.22596570671745048,
                  0.659838258845599, -0.4887166356576358, 0.6389470848701994,
                  -0.47479838138965613, -0.10986958247498713,
                  0.9396121433181904, 0.7662167786694747, 0.43794366879214836,
                  0.6866743992048421, 0.6706314069388497, 0.6482672535325705,
                  0.2316913725622847, -0.020456809134786032, 0.2509300478096497,
                  1.0200753762292976, -0.5654050297953281, -0.19165098890546903,
                  0.25222118370982166, 0.976713291340916, 0.07748575881469674,
                  -0.9465366731122717, -0.12490958840870249, 0.656657913381773,
                  -0.5985865415797137, 0.11664490824654998, 0.7263910785982308,
                  0.9999821489357793, -0.2514544663082077, 0.8844391278124301,
                  -0.1617304167042682, 0.5814186957551626, 0.5253503312298972,
                  0.21352740273919896, 0.6277382799388964, 0.5834947738316905,
                  -0.7195983051986694, -0.24506990558357863,
                  -0.16292208103759212, -0.49903761246966566,
                  -0.11962596052579276, 0.0558024608990225, -0.8772902538353125,
                  -0.6748716213113352, 0.5384968294668586, -0.26910856800504884,
                  0.7186057640997447, -0.08182598592835508,
                  -0.005884570197903882, 0.12729516125941265,
                  -0.5170135918518981, -0.2707546096295139,
                  -0.49086604316201526, -0.8034071331810385,
                  -0.9014360010668142, -0.8144886892907113, 0.5161685878332429,
                  0.47653589453275114, -0.13820241572201028, 0.6879898604214798,
                  -0.6856614567558994, 1.1798657213783175, 0.9805923433265203,
                  0.07014468190826381, -0.03404837921321763, 0.8272763465579228,
                  -0.7609641230425815, -0.22951970820881337,
                  -0.20791152462513413, 0.155504681731668, -0.1983615012185634,
                  0.6051216132697314, 0.23273549568779384, -0.5503897102898188,
                  0.12083460477427332, -0.9207787629518782, 0.596262817820412,
                  -0.782168181698049, -0.7334644890457702, 0.6685172872456745,
                  0.43154281364906166, 0.4208251346762213, -0.5255285808668866,
                  0.17459306944158814, -0.09648244265331146,
                  0.29945610821605745, 0.9606776042393113, 0.2550011294324211,
                  -0.3621096053705245, 0.13129429928004896, 0.361770274494748,
                  -0.57816124529213, 0.6732135294242035, 0.8346677608953769,
                  0.7091478417078736, 0.464815355338575, 0.5584522661220165,
                  0.9042262646255055, 0.6308332408066397, -0.4892750948544931,
                  0.611265827883384, 0.15064723347493028, 0.49693597530019545,
                  0.22361207840379338, -0.9200830753755398, -0.7911196833145855,
                  0.6886961346735225, -0.11995348661396071, -0.7869198877202418,
                  0.6703953069381612, -0.2544401407388378, -0.5659498704879137,
                  0.8658394992183476, -0.3472901992154073, -0.14918489837350743,
                  0.043927018001286885, 0.3893850402215577,
                  -0.30309075282972203, -0.23328638860432438,
                  -0.19593520363168104, -0.26921003267065774,
                  -0.4047603744573154, -0.38137633276202854,
                  -1.0477913299396504, -0.9311384792956288, -0.8069869695322689,
                  0.5776925879569336, -0.21242766543112465, 0.4266427628365185,
                  0.7528955672902089, -0.7018092034256033, -0.5436637277576036,
                  -0.8599507907656148, 0.5471668071966453, -0.6204179222577663,
                  0.19577791740294315, 0.7404637373744727, 0.16380839451502602,
                  -0.3652466558863914, 0.6447241466006985, -0.21207430590276322,
                  0.07749575940978812, -0.5173689556565632, -0.5515504100054534,
                  -0.0942148676066875, 0.0044588722793197115,
                  -0.36736783417869423, 0.5144048730315423, 0.5426442496580698,
                  -0.10161283638938894, 0.7794361145933231, 0.5582126978435228,
                  -0.32461697363959413, 0.44797391998119696,
                  -0.05563030549370701, -0.6257184383614711,
                  0.27898328097177033, -0.6893032144302539, 0.3300720133895531,
                  0.5761217877140188, -0.9745079570668649, 0.7098546178453526,
                  0.9554708337651099, -0.484648336642186, 0.3273659551360287,
                  0.6870502161713881, -0.7868100116769979, 0.0788329904585787,
                  0.6582350463050634, 0.6820464242219858, -0.6934646978686113,
                  0.27122093457907015, -0.27105241102825434,
                  -0.18103038226818066, -0.23776850391347243,
                  -0.954345251839852, -0.8221844761389165, 0.9049733845775886,
                  0.3619595600874877, -0.47835049213739167, -0.7542545767139686,
                  0.5048254866980383, -0.5600006260147247, 0.3325322507300206,
                  0.05343995024443407, 0.15293934730834385, -0.4014779708494713,
                  -0.9006183784506899, -0.994454085291359, -0.9388694652623544,
                  -0.42372004813995945, -0.12304530074604535,
                  0.7443575144991549, -0.789470445906047, -0.3018265920728045,
                  0.803781023229347, 0.7860694917714126, 0.012348343896246203,
                  0.15512047115579156, -0.6583585539486243,
                  0.013918831252893688, 0.29391189640082077,
                  -0.31638974831213296, -0.023117486144444175,
                  -0.15817465042060883, -0.8572017518706394,
                  -0.6600929403345545, -0.6211386151732435, -0.7313619877193349,
                  0.5112009990159677, 0.1544216431650247, -0.2856343623471967,
                  -0.43766274835151897, -0.9078185646310111,
                  0.49192752564390685, 0.9633825551803303, -0.29279825172824747,
                  -0.7606537943093326, -0.2013179938206937, -0.4478749649500875,
                  -0.05283957191032943, -0.5212441965802131,
                  -0.032500331121728204, 0.8630539167528506,
                  -0.1526635921311908, -0.7636036138026214, 0.8901646062955255,
                  0.3918037716151257, 0.94571171342564, -0.5501384221707519,
                  1.0000502089510406, -0.5640700851185556, 0.9635692286324161,
                  -0.6787866143653896, -0.7772899035880005, 0.8966631146282913,
                  0.5700116499130521, 0.3610556179332969, -0.9569075803869637,
                  0.47767045562606564, 0.07039295954673912, -0.5719929249684775,
                  -0.23321362570045623, -0.7784683027057433, 0.9244564847721364,
                  0.11589035843909468, 0.30195900625861327, -0.13307779420319,
                  -0.858149938997567, -0.8880816273133199, 0.020069989630455094,
                  -0.9656814053056545, 0.513887204894173, 0.5112240722822999,
                  -0.6274795014761413, -0.9924665913248768, 0.8365958575265166,
                  -0.5831171629627792, 0.9435917641081609, -0.34406788232503105,
                  -0.2688544858951496, 0.5657581440981767, 0.26434068912745784,
                  -0.8079361676003424, -0.8969787551693011, 0.8853761641615999,
                  -0.2525821133454759, -0.05617050487801764,
                  0.025810640087701894, -0.09580981137436152,
                  0.9427518922574358, 0.1999688321084614, -0.9203044371396012,
                  0.016502873708063248, -0.46154074672157686,
                  -0.4102843873722324, -0.4015576214944212, 0.9987512826320977,
                  0.3360535516508973, 0.6300456930567632, 0.8106109389280906,
                  0.04569832198926812, 0.443608714050346, -0.7569821895096333,
                  0.1017755155126213, 0.3100087135782423, 0.19973632794552268,
                  0.30966492346865865, -0.029901811480618844,
                  0.9166861954064982, -0.28656100850805866, 0.8143478717750712,
                  -0.27834366833227564, -0.42728670340008534,
                  -0.23915758694252284, -0.8394787921371728,
                  0.27772621856220975, 0.40294266173527316, 0.3151511478308313,
                  0.6744086272900511, 0.47583693538712657, -0.09072134006340615,
                  -0.44461546874042357, 0.8087095813470331, -0.7098680681436949,
                  0.09036285541383515, 0.9837154111850056, 0.1353234690582919,
                  0.8894317149781195, -0.9301714178136734, 0.0688679372105969,
                  0.5316921004905125, 0.3757143885863703, 0.7395410313795319,
                  0.09934872033749755, 0.9491016884735439, 0.7802079691604459,
                  -0.7054460446661569, 0.9757784345845979, -0.19081797896958078,
                  -0.8578256172801274, -0.9128508123040514, -0.7860907927990083,
                  -0.5811526228252862, -0.7128345870986386, 0.5548624604454533,
                  -0.6062255337485598, 0.21042977231875293, 0.8107937120373307
                ],
                [
                  0.8589571871170247, 0.4884001507661244, -0.9999529538325551,
                  0.55007397468902, 0.04026395390391446, 0.4761197564614581,
                  -0.14357630509236596, -0.006662683285147963,
                  0.14433872770814116, 0.8267827076212888, -0.05448913325732185,
                  0.7417264712354505, 0.8865011544509396, 0.09563508975373525,
                  -0.290290080407841, -0.6611402056090361, 0.6998161451035139,
                  0.02298389397414402, 0.5833612846073635, 0.20082918735969946,
                  0.006863941279464658, 0.7033855350334006, 0.3486699967524167,
                  0.010306112439834703, 0.8488804710524582,
                  -0.20328354089246092, -0.3049889042575771,
                  -0.6742291257321109, 0.27789922322984495, 0.25556496771947756,
                  0.7763683500393417, 0.014250220747296538,
                  -0.35911627045900696, 0.2895766410882876, -0.9771573637104787,
                  0.5388759548122283, -0.07448940632186932, 0.2553398378874919,
                  -0.3355729235280085, -0.057433897042299654,
                  0.6942705239971522, -0.3045841018615101, 0.30699658304846894,
                  -0.4936885531046924, 0.4242907144734387, 0.28691438790126483,
                  0.45110968362253545, 0.744729081528894, 0.06265944518111334,
                  0.6206588215440958, 0.4073212212799599, 0.24423054727385227,
                  0.4599617885082341, -0.1663917755507116, -0.7870820061538368,
                  -0.06355738064240812, 0.87665143298939, -0.5058279701842774,
                  -0.085877721698004, -0.8617652990452096, -0.927084582024218,
                  -0.25219843361249844, 0.4625454971566923, -0.7873792138725797,
                  -0.5989472468679584, 0.3685716112546458, -0.3750288079351805,
                  0.3032469899316743, -0.1275908596874108, 0.7800823010846482,
                  -0.8445805202910092, -0.06939296555689524, 0.8043586137764777,
                  -0.24126703464408944, 0.7400464072553401, -0.6027334001198773,
                  0.31543846305177936, -0.5521312632982011, 0.1311433936340234,
                  -0.8092576019179434, -0.8884331265447368, 0.9669644663720294,
                  -0.3917926025035947, 0.9505298624037506, 0.3702190399404075,
                  -0.7544216423754078, -0.9997261315405188, 0.2194854053666866,
                  -0.08514051132254079, 0.6232153991355599,
                  -0.21876801041398564, -0.6338482308019862, 0.4633703127271067,
                  0.8776625135738069, -0.9344607801828337, -0.6063260016298438,
                  0.021967088721668398, 0.6367743632932984, 0.6803146801782163,
                  -0.7415480293827078, 0.0002703381440150078,
                  0.004526012357548393, 0.5914780162525538, 0.7197741748745149,
                  0.10988193003461019, 0.6407090187854901, 0.3768556399836421,
                  0.24754989856297632, -0.6498693991092477, -0.6638282311678929,
                  0.6353001211959599, -0.4003098694776255, -0.4451806893658605,
                  -0.10652173160792922, 0.6921255419097769, -0.9156763388246234,
                  0.43023950619249823, -0.6126971618181033,
                  -0.0022053056353716575, 0.16839293391106003,
                  -0.21486257733863715, 0.44523523474351007,
                  -0.5171280771238829, -0.34250331138073314, -0.88827269520785,
                  0.2153480076321328, 0.8415420284152683, -0.6797679049600064,
                  0.6394200753738155, 0.3397846007450335, 0.6844592027983573,
                  -0.6152681915496586, 0.6321981594413252, -0.24412579793049605,
                  0.4329410350324073, 0.9465673678698585, 0.021828549094899303,
                  0.8102156580080394, -0.6088449657582429, 0.7869623165026267,
                  -0.6823129672412116, -0.14052375958296404,
                  -0.5683524458506933, 0.40752967128263096,
                  -0.19891042888670418, -0.26452501068301304,
                  -0.1375090575762548, -0.384393051580766, -0.7387215677867198,
                  -0.4367268791546845, -0.6693581285622718, 0.9812920600533709,
                  -0.5519473963762745, 0.007442828072959819,
                  -0.7170861064612692, 1.0382560340579075, -0.6281958869752063,
                  -0.20747973372417094, -0.04839827050046462,
                  0.3525710313268608, -0.17781889552010055,
                  -0.05431532248518297, -0.205048812654868, -0.6275249500615099,
                  -0.619804416217035, -0.30205698392350466, -0.1870400925469458,
                  0.03802722275043369, 0.32656414335037365, -0.8799514450979729,
                  0.1512284299673187, 0.5830047038791533, -0.4262416469134288,
                  -0.01080366780207452, -0.3275594506188339,
                  -0.3347794715497929, -0.38902050248474845,
                  -0.22357240674514173, -0.44648690454511863,
                  -0.14067823275140198, -0.7572407741391756,
                  -0.2626079850828646, 0.9329068499770757, 0.36401671674199004,
                  -0.7935166625862253, -0.6924331377968025, 0.5391501885081256,
                  -0.18054223977109404, 0.015422450754359355,
                  0.8782422882610061, 0.09554378688850329, -0.20142859194071971,
                  0.07292267661422594, 0.26118851040519836, 0.41511289368550924,
                  0.4991564207647218, -0.5700024996106721, -0.36939485138535855,
                  -0.9353012479304446, 0.09905560642222344, 0.3288411934543025,
                  -0.8259095711717072, -0.9230330411353104, -0.512482500161295,
                  -0.19663605238728143, 0.8115624659291283, -0.6711002589707,
                  0.8927503976264085, 0.4869434628745529, 0.3353090965080428,
                  -0.2600713343275893, 0.6789541441316926, -0.5991972770137369,
                  -1.051648934801054, 0.7035813423030622, 0.319919103205616,
                  -0.8747356058471544, 0.7461398598310978, -0.3592201961126049,
                  -0.08500846664628602, 0.4932135042335999, 0.38372950344149487,
                  0.7703889430816179, 0.43228578482171925, -0.8942197902028979,
                  0.3295561569311385, 0.5063214579610674, 0.1205453129582778,
                  0.5932111568982544, 0.846775557183424, -0.00503401867166432,
                  0.5963968620123217, 0.31361549756671403, -0.19694873860296236,
                  -0.17623673582968194, -0.7285243843929641,
                  -1.0526312313938604, -0.6958808334042159, -0.9215098528237925,
                  0.7045204193165395, -0.24810702946583574, 0.5907811138290598,
                  0.44852804979678434, -1.0251908328046793, 0.72037832366621,
                  -0.6245538768516198, 0.5039972138238306, 0.7624300445245176,
                  0.28867462592310866, 0.5085430219809186, 0.34548671489654476,
                  -0.700517016018512, 0.19290449194368664, 0.5006200327816228,
                  -0.27519898327301345, 0.22548437916047398,
                  -0.20924887528826122, 0.6910633238563832, 0.629688876822598,
                  -0.24179619418119397, -0.09271035558328934,
                  -0.11047297553940018, 0.49475231561859356,
                  -0.8403807924676548, 0.3027994037278725, 0.18659314719647976,
                  -0.5043529246455151, 0.3819517135623624, -1.1994479642036897,
                  -0.44763956042191966, -0.7217228469253585, -0.921372292237921,
                  -0.5520772004678219, 0.4321027999873848, 0.5198065147708728,
                  -0.511634527929998, -0.44020926124174636,
                  0.031322526650430484, -0.5761589011598169,
                  -0.6680898850883024, -0.25683110898871275, 0.7904507671026454,
                  -0.9758996896981755, -0.1962873731975585,
                  -0.17776057570019255, -0.9200052169401766,
                  -0.6724631144519209, -0.783405245782757, 0.6523088678286189,
                  -0.7300425558345359, -0.7167527292661885, 0.8227464773981993,
                  0.333763917399722, 0.2709445493321018, 0.3138703895388243,
                  -0.7056323315936925, -0.594203676272246, 0.044455363396771204,
                  -0.6106649666192888, -0.8134334285078014, -0.8633602024286225,
                  0.1298331052828545, -0.6796267747090071, -0.9973378125904957,
                  -0.46502877774659057, -0.7752561694124427,
                  -0.31491326700644284, -0.42767260022823717,
                  -0.6529623991227838, -0.2677150018366578, -0.8416004350845157,
                  -0.8970775376919304, 0.7061488061365503, -0.6904410904772321,
                  -1.0047815431854608, -0.9271073395614692, -0.5088722918021426,
                  0.5976131675209948, 0.7215402815458707, -0.311270530700621,
                  0.5526789212314012, -0.419330696891826, 0.6940200519690097,
                  -0.06249773803645473, 0.8354908540463412, 0.2647141768935759,
                  -0.3217728550107745, 0.16887300922563964,
                  -0.22601298848341062, 0.22849211799781016,
                  -0.4896941686243341, 0.18613154856516836, 0.1515752133540707,
                  -0.8958066258936762, 0.05559835209588811, 0.26978930203705587,
                  -0.9496149699991432, 0.04750868956939462, 0.7865498479130776,
                  -0.6442544027106262, -0.9980849465137187, 0.3318881941747344,
                  -0.016718070623728203, 0.19173502255791358,
                  -0.821835638722705, 0.7242163574173442, -0.22261866234233327,
                  0.35519071404402, -0.6699079766850607, 0.20148882601857784,
                  0.1424470785015737, -0.5116301131587694, 0.3506617634478523,
                  -0.8804192368346733, -0.7253838903234661,
                  0.012292364815591235, 0.05302791696839744,
                  -0.8475224068780904, 0.7152278324770532, 0.8059365439032833,
                  -0.37276791389236247, -0.271034017903002,
                  -0.15634490174613275, -0.8108302603063288,
                  0.42691368371121907, -0.9104105673020891, -0.4052968553798009,
                  0.051894770695824495, 0.51904094901898, 0.31859632967390145,
                  0.6639912081081171, 0.3168627710272207, -0.45254874627356534,
                  0.6779258754626777, 0.2771787215459915, -0.03367157198405143,
                  -0.6430969407663666, 0.36301223282723816,
                  0.026691687862404622, 0.914470467623886, -0.30538324701889236,
                  -0.44676716050877413, 0.42804605438009846,
                  0.14985890762849763, 0.05300435311530723, 0.09545204989743551,
                  0.330148604976124, -0.08549694628152359, -0.21455730621290242,
                  -0.8438524608505149, 0.5299044078115134, -0.5702464812765058,
                  0.6146665164155634, 0.6828356906687917, -0.6133434675266491,
                  0.1261987336117575, 0.7353295443377578, -0.5945976852543282,
                  0.2893870027284413, -0.8091850477595983, -0.5769086504773892,
                  -0.5314926857943301, -0.49346932089894463,
                  -0.19324688217844957, 0.40135108122774166, 1.14436681646067,
                  1.0786583895752035, 0.5157656947703239, -0.7231749874922874,
                  0.4017900063935768, 0.5923560722311821, -0.7312825494900247,
                  0.09694058618947414, -0.7634348626169909, -0.6091465061740183,
                  -0.04617189089769207, 0.6528071901987895, 0.708689792885884,
                  0.5815415919096456, 0.9107756359909804, 0.6709646983991435,
                  0.7293611384774397, 0.45788066787205806, -0.5374235940168478,
                  -0.7216116841685274, 0.5884379344906253, 0.333322777768474,
                  -0.00038775986979352925, -0.8147215663581562,
                  0.039234533112680776, -0.25982515412514384,
                  0.9271795257695988, 0.813500435040492, -0.6416824499103796,
                  0.7491059414723548, 0.8133901684243171, 0.9915113020186415,
                  0.22349758958613722, 0.8546341628219001, 0.5279623233002947,
                  0.3561066522666016, 0.1473538306706694, -0.8613544840957774,
                  -0.6916382552310234, 0.03185294097939671, -0.3347258277096384,
                  0.7102086397374225, 0.4755006245047347, 0.7078658906455093,
                  0.21973705139460337, -0.8039869143656002,
                  -0.44786454763042405, -0.7265350164608847, 0.522927627192421,
                  0.7791521410044837, 0.8293203435538348, 0.6602368759037405,
                  -0.18123458186134925, 0.8627149894270425, 1.030243937017008,
                  -0.30502902989545855, 0.9209903784621126, 1.0268745552481773,
                  -0.43570352071887186, 0.08722437797856544, 0.7733795580873011,
                  -0.20514118785261917, -0.8153116960926263, -0.260142070760963,
                  0.6408262959397111, -0.3757564892698884, 0.36715262936383436,
                  0.6479875690728065, 0.6385820472209646, 0.704903222426716,
                  -0.9397895333056548, 0.9992566428951926, 0.6721467837626802,
                  -0.35307489214645504, 0.10675261993010744,
                  0.42075828139101534, -0.13913079228607142,
                  -0.8573987215642349, 0.656803821965972, 0.3196995037619962,
                  0.4270329596125231, 1.019091559499645, 1.0644463653687886,
                  -0.12394112265439677, -0.579041028555878, 0.400826432852039,
                  -0.6888570456820752, 0.02962811952060052, 0.8080109187298452,
                  0.9349927576980368, -0.35799288030852905, -0.7537387245142815,
                  -0.5865709741795847, 0.03314163187012546,
